tree
version=v4
num_class=1
num_tree_per_iteration=1
label_index=0
max_feature_idx=54
objective=regression
feature_names=Category pslist.nproc pslist.avg_threads pslist.nprocs64bit pslist.avg_handlers dlllist.ndlls dlllist.avg_dlls_per_proc handles.nhandles handles.avg_handles_per_proc handles.nport handles.nfile handles.nevent handles.ndesktop handles.nkey handles.nthread handles.ndirectory handles.nsemaphore handles.ntimer handles.nsection handles.nmutant ldrmodules.not_in_load ldrmodules.not_in_init ldrmodules.not_in_mem ldrmodules.not_in_load_avg ldrmodules.not_in_init_avg ldrmodules.not_in_mem_avg malfind.ninjections malfind.commitCharge malfind.protection malfind.uniqueInjections psxview.not_in_pslist psxview.not_in_eprocess_pool psxview.not_in_ethread_pool psxview.not_in_pspcid_list psxview.not_in_csrss_handles psxview.not_in_session psxview.not_in_deskthrd psxview.not_in_pslist_false_avg psxview.not_in_eprocess_pool_false_avg psxview.not_in_ethread_pool_false_avg psxview.not_in_pspcid_list_false_avg psxview.not_in_csrss_handles_false_avg psxview.not_in_session_false_avg psxview.not_in_deskthrd_false_avg modules.nmodules svcscan.nservices svcscan.kernel_drivers svcscan.fs_drivers svcscan.process_services svcscan.shared_process_services svcscan.interactive_process_services svcscan.nactive callbacks.ncallbacks callbacks.nanonymous callbacks.ngeneric
feature_infos=none [26.856814156032868:48.953887633407476] [8.5602353212954458:11.390682432222803] none [103.2313060218156:275.8011555882282] [999.56836928073164:1903] [34.989389523633022:41.069772387886793] [4972:10161.96514007099] [142.078125:338.16584569489714] none [357.99999999999994:1189.733322535099] [1589.3184519696254:3335] [32.10065838027004:50.857568700891385] [634.23236522238665:800.59753163022378] [455:886.11297153940154] [81.628795029329055:118.47858875876851] [369:740] [84:140.27761193824168] [69:229.65772029927149] [162:315.38590400041983] [29.001267806822206:57.301944997531869] [56.542906731893808:113.6895310316214] [29.044606425797575:57.578492958606475] [0.022083996406228226:0.035393044345162411] [0.046097999216652141:0.060719717981594104] [0.022081793212296821:0.035403328756030056] [1:72.541688169724964] [1:21411.414570742669] [6:435.24935620930569] [1:14.913307397677205] [0:7.3276320777178547] none [0:12.148383043461578] [0:7.3491346765983963] [4:14.079214129478043] [2:6.542411134299595] [4:20.500012133884557] [0:0.17016044994082791] none [0:0.18916583392236008] [0:0.17725150519608751] [0.075471698000000004:0.32562824147484293] [0.031499581389626122:0.23826579143971366] [0.11904761899999999:0.36013405438455337] [137:138] [388.66140976987134:389.33838130509793] [220.80601260335925:221.19389731852067] [25.982475129160239:26] [23.968655333921674:24] [115.89761676161626:116] none [111.43386283883775:123.89458189132532] [85.633816256830002:88.842298415433817] [0:0.0046453020365366283] none
tree_sizes=2627 2785 2789 2780 2801 2787 2796 2790 2785 2789 2795 2797 2788 2805 2785 2800 2783 2809 2806 2805 2817 2823 2818 2819 2796 2821 2825

Tree=0
num_leaves=31
num_cat=0
split_feature=1 1 1 12 13 13 16 4 26 29 2 13 18 10 41 15 4 29 18 16 10 2 15 2 36 7 2 19 18 13
split_gain=1862.64 472.998 247.635 115.285 62.4478 56.6811 26.1611 22.1943 19.7294 18.7301 17.8307 17.1422 15.3761 12.0641 11.7442 9.17655 8.03364 7.33036 7.1171 9.3346 6.25661 6.13031 9.819 5.87555 5.35872 5.32123 5.29179 7.2674 5.18418 4.91133
threshold=39.500000000000007 42.717647717394918 36.500000000000007 47.500000000000007 732.50000000000011 691.50000000000011 629.50000000000011 209.28759400000004 2.5000000000000004 1.1792098372898698 9.5861611880000019 673.50000000000011 195.50000000000003 805.50000000000011 0.098780488000000014 87.500000000000014 195.02198065000002 2.5833333335000002 88.500000000000014 441.50000000000006 705.50000000000011 10.13245614 105.50000000000001 9.3258341760000025 6.5000000000000009 7998.5000000000009 11.148170730000002 266.50000000000006 191.50000000000003 744.50000000000011
decision_type=2 2 2 2 2 2 2 2 2 2 2 2 2 2 2 2 2 2 2 2 2 2 2 2 2 2 2 2 2 2
left_child=2 4 15 9 8 7 -6 11 -2 16 17 -4 -12 20 -8 -1 -3 23 -17 -20 -5 29 -23 -11 -21 -13 -10 -28 -15 -18
right_child=1 3 5 13 6 -7 14 -9 26 10 12 25 -14 28 -16 18 21 -19 19 24 -22 22 -24 -25 -26 -27 27 -29 -30 -31
leaf_value=15.928033187160658 16.006962492560902 15.977143286145992 15.852223288377061 15.954092606131642 16.034147451578097 15.963450313336915 16.026706975498492 15.837670651505551 15.937696658461897 16.027787228873773 16.028293538958962 15.876855476040975 15.963333065457862 15.962621566382316 15.942221723134478 15.960047141911851 16.034392142898604 15.946161449425587 15.843760312747333 15.914806643200185 15.918896962214466 15.946470705113363 16.021559743575228 15.965640944887342 15.876716428445432 15.931786341793604 15.860040309044699 15.936230786370503 16.017494295432105 16.002125224875677
leaf_weight=350 41 30 163 175 96 39 21 1693 2467 29 212 29 44 33 76 20 834 61 28 150 71 21 102 32 49 45 21 31 36 50
leaf_count=350 41 30 163 175 96 39 21 1693 2467 29 212 29 44 33 76 20 834 61 28 150 71 21 102 32 49 45 21 31 36 50
internal_value=15.9291 15.968 15.8612 16.009 15.9423 15.8441 15.9971 15.8417 15.9382 16.0212 16.0021 15.8703 16.0171 15.9543 15.9605 15.9176 16.0281 15.9707 15.9029 15.8978 15.9439 16.0297 16.0087 15.9952 15.9054 15.9103 15.937 15.9055 15.9913 16.0326
internal_weight=0 4483 2566 1730 2753 1969 193 1930 2560 1415 378 237 256 315 97 597 1037 122 247 227 246 1007 123 61 199 74 2519 52 69 884
internal_count=7049 4483 2566 1730 2753 1969 193 1930 2560 1415 378 237 256 315 97 597 1037 122 247 227 246 1007 123 61 199 74 2519 52 69 884
is_linear=0
shrinkage=1


Tree=1
num_leaves=31
num_cat=0
split_feature=1 1 1 12 13 13 51 4 4 26 24 26 10 8 14 23 17 15 13 18 16 19 36 2 19 18 4 27 6 11
split_gain=1508.73 383.128 200.585 93.3808 50.5827 45.9117 21.5918 17.9774 16.0246 15.9809 14.2138 13.0371 9.77193 8.22471 8.08132 9.45752 7.99048 7.433 6.48109 5.76485 7.56102 5.45989 4.34056 4.32348 6.38725 4.19919 4.03173 3.94171 3.6878 3.50505
threshold=39.500000000000007 42.717647717394918 36.500000000000007 47.500000000000007 732.50000000000011 691.50000000000011 119.78513699170797 209.28759400000004 191.95312500000003 2.5000000000000004 0.054751096000000006 62.500000000000007 805.50000000000011 205.81173865000002 826.50000000000011 0.028285144000000002 126.50000000000001 87.500000000000014 678.50000000000011 88.500000000000014 441.50000000000006 288.50000000000006 6.5000000000000009 11.063508065000002 265.50000000000006 191.50000000000003 237.34318180000005 4.5000000000000009 36.432125305000007 3096.5000000000005
decision_type=2 2 2 2 2 2 2 2 2 2 2 2 2 2 2 2 2 2 2 2 2 2 2 2 2 2 2 2 2 2
left_child=2 4 17 8 9 7 27 10 13 28 18 14 21 -3 -10 -16 -17 -1 -4 -19 -21 29 -22 26 -25 -14 -11 -6 -2 -5
right_child=1 3 5 12 6 -7 -8 -9 11 23 -12 -13 25 -15 15 16 -18 19 -20 20 22 -23 -24 24 -26 -27 -28 -29 -30 -31
leaf_value=-0.0010009178646973201 0.099303752183914185 -0.0044493048662139524 -0.046738511728851691 0.034315885218341696 0.095695120146133239 0.030874496545547095 0.016857173879231729 -0.082327195847977985 0.089987165049715462 0.0073513851649029118 -0.07649751134156213 0.024655469208955769 0.030128623861255067 0.077803263934329153 0.088721322031038954 0.065943443382235428 0.0066480524950858324 0.027811643779277802 0.002041919802625974 -0.076846503359930859 -0.012904805762072405 -0.024538961323824798 -0.047185997577498154 -0.056728191129290145 0.0063385295016425 0.07951407854755721 0.045516047014721804 0.051849890056137861 0.039303751164115969 0.0083064510456977349
leaf_weight=350 21 31 69 89 97 39 70 1693 1106 2423 123 35 33 20 117 73 33 20 45 28 150 33 49 26 42 36 28 26 20 124
leaf_count=350 21 31 69 89 97 39 70 1693 1106 2423 123 35 33 20 117 73 33 20 45 28 150 33 49 26 42 36 28 26 20 124
internal_value=0 0.0350015 -0.0611503 0.0718795 0.0118271 -0.0765455 0.0611944 -0.0787162 0.0828414 0.00810531 -0.0529209 0.0848991 0.0226383 0.0278066 0.0864857 0.0691195 0.0474836 -0.0103746 -0.0274831 -0.0236571 -0.0281918 0.0133103 -0.0213459 0.00709732 -0.0177752 0.0558949 0.00778737 0.086427 0.0700355 0.0191742
internal_weight=0 4483 2566 1730 2753 1969 193 1930 1415 2560 237 1364 315 51 1329 223 106 597 114 247 227 246 199 2519 68 69 2451 123 41 213
internal_count=7049 4483 2566 1730 2753 1969 193 1930 1415 2560 237 1364 315 51 1329 223 106 597 114 247 227 246 199 2519 68 69 2451 123 41 213
is_linear=0
shrinkage=0.1


Tree=2
num_leaves=31
num_cat=0
split_feature=1 1 21 1 13 13 51 39 1 18 26 26 18 6 16 13 10 14 18 19 16 10 2 11 20 14 10 14 8 4
split_gain=1222.08 310.334 162.989 75.763 41.2167 37.1332 15.9155 14.4987 13.8825 13.7919 12.711 10.3328 9.61662 9.27104 15.6201 6.80291 6.70498 5.90808 7.73014 5.86521 5.67451 5.35123 4.86898 4.84234 4.10081 4.02765 3.96086 7.98301 3.47884 3.43266
threshold=39.500000000000007 42.717647717394918 77.500000000000014 44.500000000000007 748.50000000000011 691.50000000000011 119.78513699170797 0.021507863000000002 35.938249128568479 195.50000000000003 2.5000000000000004 62.500000000000007 229.32886014963577 38.797727275000007 601.50000000000011 711.50000000000011 611.00000000000011 826.50000000000011 194.50000000000003 262.50000000000006 461.50000000000006 858.50000000000011 9.5256578945000019 3098.5000000000005 46.405744332008517 675.50000000000011 620.50000000000011 630.50000000000011 203.68670150000003 186.10049020000002
decision_type=2 2 2 2 2 2 2 2 2 2 2 2 2 2 2 2 2 2 2 2 2 2 2 2 2 2 2 2 2 2
left_child=2 4 16 11 10 8 -6 23 -4 21 -2 17 -11 14 -10 -12 -1 -3 19 -19 -18 24 28 -5 -9 -16 -22 -28 -17 -23
right_child=1 3 5 7 6 -7 -8 9 13 12 15 -13 -14 -15 25 22 20 18 -20 -21 26 29 -24 -25 -26 -27 27 -29 -30 -31
leaf_value=-0.0030283997620057374 0.063031911195778265 0.081687477263590977 0.00043550206831207983 0.029577816693603789 0.084442563722887554 0.02778704717086676 0.01056678961144715 -0.031239974205382173 -0.069441269382296764 0.081707024156490227 0.0054518663877571975 0.015104716557722825 0.02132196444485869 -0.074591526872660616 -0.00075611255641253494 0.021577117440325241 -0.077394917905330665 0.031066709142178295 0.012793567452441763 0.080303768156468877 -0.04099332137289001 0.075573504433035857 0.014130464520735237 -0.0033298727188069942 0.019794975218010713 -0.052504152307907739 0.047182719267549966 -0.026739946651893359 0.069656745059525266 0.019991225209087134
leaf_weight=451 41 1051 27 72 101 39 41 20 194 107 2379 26 35 1641 53 27 20 30 27 125 51 25 130 118 74 21 21 48 34 20
leaf_count=451 41 1051 27 72 101 39 41 20 194 107 2379 26 35 1641 53 27 20 30 27 125 51 25 130 118 74 21 21 48 34 20
internal_value=0 0.0315014 -0.0550353 0.0646916 0.0106444 -0.068822 0.0631122 0.0304773 -0.0707682 0.0449043 0.00779095 0.0774914 0.0668234 -0.0717753 -0.0545308 0.00690967 -0.00896285 0.0788069 0.0621725 0.070774 -0.0280803 0.0225122 0.0250674 0.00914041 0.00893648 -0.0154414 -0.0198612 -0.00424174 0.0483756 0.0508703
internal_weight=0 4483 2566 1730 2753 1975 142 471 1936 281 2611 1259 142 1909 268 2570 591 1233 182 155 140 139 191 190 94 74 120 69 61 45
internal_count=7049 4483 2566 1730 2753 1975 142 471 1936 281 2611 1259 142 1909 268 2570 591 1233 182 155 140 139 191 190 94 74 120 69 61 45
is_linear=0
shrinkage=0.1


Tree=3
num_leaves=31
num_cat=0
split_feature=1 1 21 12 13 13 41 1 1 26 29 29 26 42 51 2 10 10 8 16 19 20 13 8 2 15 2 19 6 16
split_gain=989.881 251.371 132.021 61.4118 33.4449 30.0779 15.3808 11.4277 11.2448 10.4899 8.80234 10.4574 10.5012 7.69912 7.81329 6.99856 6.76219 5.43238 5.39425 5.06774 4.1745 3.84662 3.59428 8.80096 3.69731 7.24625 3.5027 4.85358 3.4645 11.4001
threshold=39.500000000000007 42.717647717394918 77.500000000000014 47.500000000000007 732.50000000000011 691.50000000000011 0.098780488000000014 45.678937178668576 35.938249128568479 2.5000000000000004 1.1792098372898698 11.083333335000001 9.5000000000000018 0.051503094500000006 118.86064410991442 9.5125078175000013 805.50000000000011 608.50000000000011 204.77386365000004 461.50000000000006 288.50000000000006 45.500000000000007 744.50000000000011 206.26509875000002 10.13245614 105.50000000000001 11.148170730000002 266.50000000000006 38.797727275000007 602.50000000000011
decision_type=2 2 2 2 2 2 2 2 2 2 2 2 2 2 2 2 2 2 2 2 2 2 2 2 2 2 2 2 2 2
left_child=2 4 17 7 9 8 -6 10 -4 -2 22 12 -12 14 -10 -8 20 -1 -9 -19 -5 -13 24 -24 -3 -26 -11 -28 29 -15
right_child=1 3 5 16 6 -7 15 18 13 26 11 21 -14 28 -16 -17 -18 19 -20 -21 -22 -23 23 -25 25 -27 27 -29 -30 -31
leaf_value=-0.0025250302854731982 0.056728720010780713 0.076978004837458647 0.00039195153103382501 0.01565775093338299 0.077516867163382019 0.025008342252709925 0.072000626989063773 -0.020309906062625706 -0.074564438799153199 0.0062783454438761323 0.062652661610694452 0.032747045035163562 0.013930684431559509 -0.063086308061104754 5.0863665011194025e-05 0.006591159900700725 0.045955045509786498 -0.070159719671521875 0.052256030309945349 -0.017129128423380099 -0.022565097068295334 0.078520286705804201 -0.00057438527318564333 0.081079719305941558 0.0048386237805797946 0.069627771068594815 -0.057066874277024039 0.0051978819072246553 -0.067296974449293251 0.0033937819798787435
leaf_weight=443 41 857 27 213 98 39 21 21 23 2467 87 21 90 184 36 74 69 21 20 127 33 146 22 33 21 97 21 31 1636 30
leaf_count=443 41 857 27 213 98 39 21 21 23 2467 87 21 90 184 36 74 69 21 20 127 33 146 22 33 21 97 21 31 1636 30
internal_value=0 0.0283512 -0.0495318 0.0582224 0.00957998 -0.0619398 0.0497223 0.067112 -0.0636914 0.00655363 0.0686644 0.0548145 0.0378788 -0.0645977 -0.0290365 0.0210501 0.01829 -0.00806657 0.0150881 -0.0246537 0.0105303 0.0727644 0.07329 0.0484181 0.074693 0.0580975 0.00573696 -0.0199475 -0.0657318 -0.0537667
internal_weight=0 4483 2566 1730 2753 1975 193 1415 1936 2560 1374 344 177 1909 59 95 315 591 41 148 246 167 1030 55 975 118 2519 52 1850 214
internal_count=7049 4483 2566 1730 2753 1975 193 1415 1936 2560 1374 344 177 1909 59 95 315 591 41 148 246 167 1030 55 975 118 2519 52 1850 214
is_linear=0
shrinkage=0.1


Tree=4
num_leaves=31
num_cat=0
split_feature=1 1 1 1 13 13 51 39 18 4 2 8 7 26 18 20 7 24 14 18 19 32 10 15 18 16 30 13 14 18
split_gain=801.804 203.61 107.195 50.0603 27.2626 24.4189 10.7184 10.4899 10.0407 9.73714 9.34159 13.8276 8.68252 7.07054 6.75219 5.91546 5.28947 4.26327 3.85199 5.45723 4.10509 3.76559 4.08628 3.71737 5.42178 4.55692 4.97047 4.92026 4.36056 3.61611
threshold=39.500000000000007 42.717647717394918 36.500000000000007 44.500000000000007 748.50000000000011 691.50000000000011 119.78513699170797 0.021507863000000002 195.50000000000003 209.28759400000004 9.4301948055000029 205.71269840000005 7998.5000000000009 62.500000000000007 229.32886014963577 39.500000000000007 6025.0000000000009 0.056469943000000009 826.50000000000011 194.50000000000003 262.50000000000006 10.500000000000002 858.50000000000011 87.500000000000014 87.500000000000014 504.08378956832786 0.61938684622199225 680.09844564614457 552.50000000000011 93.500000000000014
decision_type=2 2 2 2 2 2 2 2 2 2 2 2 2 2 2 2 2 2 2 2 2 2 2 2 2 2 2 2 2 2
left_child=2 4 16 13 10 9 -6 -5 21 12 11 17 15 18 -10 -4 -1 -2 -3 20 -20 22 -9 24 -18 29 27 -27 -26 -25
right_child=1 3 5 7 6 -7 -8 8 14 -11 -12 -13 -14 -15 -16 -17 23 -19 19 -21 -22 -23 -24 25 28 26 -28 -29 -30 -31
leaf_value=0.012569321105601612 0.007610869025913897 0.066218838150250578 0.0024980272818356753 0.0064396535953212724 0.068798264411121315 0.022507507105668387 0.0081724906930836245 0.011983030297769568 0.068033765820420797 -0.060073598565361035 0.0043291647394134358 0.069393464538303237 -0.0031966305717274 0.011197739110726756 0.017434937709144182 -0.05512698719083714 -0.031857439654844777 0.056251163221895696 0.024469222252567611 0.0089722378895169611 0.065661118400096904 -0.019209303103549326 0.051973259191666003 -0.019305297578482525 -0.036293633158008258 0.0058506988841196842 -0.041792956279947405 -0.041281138945903101 0.0090695085117171483 -0.073739058660486564
leaf_weight=108 182 1051 20 190 101 39 41 78 107 1693 2355 54 54 26 35 163 54 20 30 27 125 23 38 23 24 106 47 28 181 26
leaf_count=108 182 1051 20 190 101 39 41 78 107 1693 2355 54 54 26 35 163 54 20 30 27 125 23 38 23 24 106 47 28 181 26
internal_value=0 0.0255161 -0.0445786 0.0524002 0.00862199 -0.055833 0.0512936 0.0245886 0.0368601 -0.057416 0.00630128 0.0244432 -0.0384319 0.0628047 0.0555622 -0.0488292 -0.00745977 0.0124267 0.0638929 0.0504614 0.0576885 0.0177543 0.0250833 -0.0118834 -0.00366706 -0.0211357 -0.013812 -0.00399774 0.0037587 -0.0481885
internal_weight=0 4483 2566 1730 2753 1969 142 471 281 1930 2611 256 237 1259 142 183 597 202 1233 182 155 139 116 489 259 230 181 134 205 49
internal_count=7049 4483 2566 1730 2753 1969 142 471 281 1930 2611 256 237 1259 142 183 597 202 1233 182 155 139 116 489 259 230 181 134 205 49
is_linear=0
shrinkage=0.1


Tree=5
num_leaves=31
num_cat=0
split_feature=1 1 1 1 13 12 41 42 41 41 24 15 30 26 2 51 23 7 40 32 16 4 10 17 27 13 18 51 24 15
split_gain=649.461 164.924 86.8277 40.5489 22.4535 20.8492 10.4201 9.21009 8.52797 8.90355 7.35718 5.83625 5.7352 5.72714 5.10921 4.52617 4.34183 4.28447 4.27894 4.31755 4.24034 4.91456 3.75222 6.62385 3.72627 5.52943 3.65288 3.59032 3.25747 4.93687
threshold=39.500000000000007 42.717647717394918 36.500000000000007 44.500000000000007 732.50000000000011 42.170390531137251 0.098780488000000014 0.051503094500000006 0.10840188000000002 0.16848777862211939 0.056943789500000001 91.500000000000014 1.6714295794689102 62.500000000000007 9.5125078175000013 118.86064410991442 0.028910982000000005 6025.0000000000009 0.019049347000000005 7.9190197979541379 671.50000000000011 195.69227055000002 687.50000000000011 121.50000000000001 3.5000000000000004 678.50000000000011 164.50000000000003 114.50000000000001 0.054608719000000007 88.500000000000014
decision_type=2 2 2 2 2 2 2 2 2 2 2 2 2 2 2 2 2 2 2 2 2 2 2 2 2 2 2 2 2 2
left_child=2 4 17 13 10 7 -6 15 20 22 -2 16 -12 -3 -8 -4 -9 27 -11 -20 21 -5 23 -10 -13 -26 -17 -1 -19 -30
right_child=1 3 5 8 6 -7 14 11 9 18 12 24 -14 -15 -16 26 -18 28 19 -21 -22 -23 -24 -25 25 -27 -28 -29 29 -31
leaf_value=0.037097531639867364 0.0044080119375906864 0.057503627296627807 -0.048607502026217331 -0.0064829804506656291 0.063528398637260716 0.033913724496960639 0.060584429190272383 0.0063293684972450144 0.06130512224446083 -0.031777486737285345 0.013706977866016901 -0.0547631667837193 0.073662894343336435 0.010077965309700142 0.0046971181848061254 0.033133730434236078 -0.046175084511439007 0.0024542987541602036 0.043767749369175907 -0.0036273322453780569 -0.029241651693979898 0.029605598467123975 0.055279586844624751 -0.0029135778119477136 -0.051398406452254242 0.013561826646327975 -0.023440258413553239 -0.0015801809521185026 -0.011415142318087114 -0.047941657736720072
leaf_weight=36 2494 1233 28 74 98 29 21 28 29 21 39 1744 27 26 74 21 36 136 37 40 30 77 127 36 38 20 25 72 311 42
leaf_count=36 2494 1233 28 74 98 29 21 28 29 21 39 1744 27 26 74 21 36 136 37 40 30 77 127 36 38 20 25 72 311 42
internal_value=0 0.0229645 -0.0401207 0.0471602 0.00775979 -0.0502497 0.040651 -0.0515078 0.0221297 0.0327602 0.0052801 -0.0528799 0.0382344 0.0565242 0.0170512 -0.0169082 -0.0232044 -0.0067138 0.00823455 0.0191469 0.00509746 0.0119198 0.0452785 0.0257378 -0.0539339 -0.0289983 0.002387 0.0113124 -0.010695 -0.0157611
internal_weight=0 4483 2566 1730 2753 1969 193 1940 471 290 2560 1866 66 1259 95 74 64 597 98 77 181 151 192 65 1802 58 46 108 489 353
internal_count=7049 4483 2566 1730 2753 1969 193 1940 471 290 2560 1866 66 1259 95 74 64 597 98 77 181 151 192 65 1802 58 46 108 489 353
is_linear=0
shrinkage=0.1


Tree=6
num_leaves=31
num_cat=0
split_feature=1 1 1 12 13 4 41 15 42 41 23 40 26 51 20 16 10 2 2 13 10 18 13 2 51 13 24 21 18 18
split_gain=526.063 133.589 70.5455 33.3012 18.2014 17.17 8.56581 8.11841 7.53068 7.28959 6.81955 6.31386 6.03816 5.15887 4.31486 4.6311 4.25034 3.83844 3.79912 3.711 3.53026 3.04504 2.95879 5.96227 2.92543 3.67379 3.18562 3.03745 2.90173 2.88413
threshold=39.500000000000007 42.717647717394918 35.938249128568479 47.500000000000007 731.50000000000011 165.09204545000003 0.098780488000000014 91.500000000000014 0.051503094500000006 0.17001204350000002 0.030132486500000003 0.012903763000000002 2.5000000000000004 118.86064410991442 51.500000000000007 669.50000000000011 805.50000000000011 9.5125078175000013 10.409434145979452 745.50000000000011 705.50000000000011 192.50000000000003 744.50000000000011 9.3176274945000017 115.50000000000001 680.09844564614457 0.055001463000000007 74.196568484561382 168.50000000000003 191.50000000000003
decision_type=2 2 2 2 2 2 2 2 2 2 2 2 2 2 2 2 2 2 2 2 2 2 2 2 2 2 2 2 2 2
left_child=2 4 24 9 12 -4 -6 10 13 14 18 -11 -2 -9 22 -16 20 -8 -7 -17 -5 -14 -3 -24 27 26 -26 -1 -15 -18
right_child=1 3 5 16 6 7 17 8 -10 11 -12 -13 21 28 15 19 29 -19 -20 -21 -22 -23 23 -25 25 -27 -28 -29 -30 -31
leaf_value=-1.2923103655461504e-05 0.042780925696942862 0.054837914298472318 0.043306651245802644 0.014516990282705852 0.057175561131871479 0.009352320528511579 0.052618497271429414 -0.057980408668518071 -0.04848540052024243 -0.013500613963295674 -0.048608058743309562 0.038213476010664243 0.0044126099178658715 0.023466792050749065 0.047997351202110836 -0.012285507216664224 0.013617762586694549 0.0053890006557767156 -0.040067250490011204 0.042179813659326604 -0.011920654196554506 -0.033826596493877113 -0.010638308871005264 0.059326907851058867 0.0047325356938661299 -0.032362778742437162 -0.021851906311306832 0.033752574877192576 -0.025064658407460562 0.054546078232427443
leaf_weight=238 41 1054 22 175 98 60 22 20 1807 29 57 127 2492 28 104 29 33 79 21 22 71 21 21 29 130 62 69 30 22 36
leaf_count=238 41 1054 22 175 98 60 22 20 1807 29 57 127 2492 28 104 29 33 79 21 22 71 21 21 29 130 62 69 30 22 36
internal_value=0 0.020668 -0.0361087 0.0424442 0.00698381 -0.0445583 0.0361133 -0.0455176 -0.0472387 0.0489903 -0.0221082 0.0286 0.00471413 -0.0150566 0.0515168 0.0358929 0.0130386 0.0156766 -0.00346016 0.0112093 0.00688661 0.00409306 0.0537104 0.0299415 -0.00357191 -0.0111074 -0.00448519 0.0037668 0.00211295 0.0349717
internal_weight=0 4483 2566 1730 2753 2037 199 2015 1877 1415 138 156 2554 70 1259 155 315 101 81 51 246 2513 1104 50 529 261 199 268 50 69
internal_count=7049 4483 2566 1730 2753 2037 199 2015 1877 1415 138 156 2554 70 1259 155 315 101 81 51 246 2513 1104 50 529 261 199 268 50 69
is_linear=0
shrinkage=0.1


Tree=7
num_leaves=31
num_cat=0
split_feature=1 1 1 1 13 12 2 15 18 41 41 27 12 18 11 24 13 13 29 8 2 13 16 4 2 18 25 42 30 6
split_gain=426.111 108.207 57.1419 27.4252 15.3828 13.9603 9.29915 6.67929 7.46165 5.97289 6.64892 5.47231 5.25869 4.79613 4.70571 4.19161 4.411 4.14403 14.3697 4.38603 3.51214 3.41657 3.36819 3.70966 3.08326 2.8944 2.80586 3.74025 3.48514 3.43634
threshold=39.500000000000007 42.717647717394918 35.938249128568479 44.500000000000007 713.50000000000011 42.170390531137251 9.5244047620000014 91.500000000000014 141.50000000000003 0.10840188000000002 0.14434523800000001 3.5000000000000004 40.500000000000007 160.50000000000003 2764.9522472907415 0.057191353000000007 660.50000000000011 706.50000000000011 1.8750000000000002 200.98863635000001 9.781548250500002 763.50000000000011 671.50000000000011 195.69227055000002 9.5053191490000017 166.03679003498118 0.027409449000000006 0.12599206350000003 2.6763482175283717 36.329710145000007
decision_type=2 2 2 2 2 2 2 2 2 2 2 2 2 2 2 2 2 2 2 2 2 2 2 2 2 2 2 2 2 2
left_child=2 4 -1 17 12 7 -6 8 20 22 -11 -9 -2 -13 -14 16 -16 -3 19 -19 -4 -8 23 -5 -25 -15 27 29 -28 -12
right_child=1 3 5 9 6 -7 21 11 -10 10 26 13 14 25 15 -17 -18 18 -20 -21 -22 -23 -24 24 -26 -27 28 -29 -30 -31
leaf_value=-0.0032147235322447887 0.05024120278346042 0.049587867696645152 -0.01061000044503045 -0.0065477099269628525 0.049042382819408724 0.028784179957262401 0.0083909441595492167 -0.043915415185752892 0.019989792459777424 0.041548829055423148 -0.0067855511189383617 -0.039457150978537713 -0.045105055570602418 0.031006914792074399 -0.03860035172849894 0.045184647144439323 0.0036265116596501247 0.0094588404701602073 -0.010676900490566537 0.049079931214083217 -0.048214536278493821 0.052214386118575928 -0.027244192709525428 0.043557137809693815 0.003451321522394816 -0.021555796135216951 0.0097947787207148581 -0.031026900407461519 0.060799869549061573 0.04205318790022284
leaf_weight=529 24 891 41 74 121 29 161 1775 35 146 34 52 20 22 25 24 2358 31 54 283 63 20 30 41 36 20 37 27 21 25
leaf_count=529 24 891 41 74 121 29 161 1775 35 146 34 52 20 22 25 24 2358 31 54 283 63 20 30 41 36 20 37 27 21 25
internal_value=0 0.0186012 -0.0324978 0.0381997 0.00628543 -0.0401025 0.0275807 -0.0410974 -0.0199488 0.0176146 0.0265111 -0.0426702 0.00366154 -0.0191568 0.00320092 0.0036023 0.00318351 0.0459008 0.0369736 0.0451683 -0.0333897 0.0132333 0.00336041 0.00944079 0.0248064 0.00597705 0.0112646 -0.000198899 0.0282621 0.0139088
internal_weight=0 4483 2566 1730 2753 2037 302 2008 139 471 290 1869 2451 94 2427 2407 2383 1259 368 314 104 181 181 151 77 42 144 86 58 59
internal_count=7049 4483 2566 1730 2753 2037 302 2008 139 471 290 1869 2451 94 2427 2407 2383 1259 368 314 104 181 181 151 77 42 144 86 58 59
is_linear=0
shrinkage=0.1


Tree=8
num_leaves=31
num_cat=0
split_feature=1 1 1 1 13 4 2 13 18 15 8 41 8 10 4 42 10 13 4 6 13 29 8 7 4 4 15 33 10 27
split_gain=345.15 87.6475 46.2849 22.2144 12.4767 11.8187 6.20008 5.40949 6.87318 5.28929 4.89981 4.83804 5.51995 4.62993 5.14629 4.21954 3.5509 7.23103 3.3775 7.10641 3.35666 11.6394 3.56165 3.1968 3.46467 3.07818 2.73762 6.08244 3.15733 2.65221
threshold=39.500000000000007 42.717647717394918 35.938249128568479 44.500000000000007 711.50000000000011 165.09204545000003 9.6023255815000024 678.50000000000011 169.50000000000003 94.54770894829646 243.64062500000003 0.10840188000000002 198.57478855000002 617.50000000000011 195.45553360000002 0.12933094400000003 683.50000000000011 699.50000000000011 189.49242425000003 36.494186045000006 706.50000000000011 1.8750000000000002 200.86038965000003 9205.5000000000018 196.24418605000002 212.05380200000002 106.50000000000001 0.62328223098983981 660.50000000000011 21.500000000000004
decision_type=2 2 2 2 2 2 2 2 2 2 2 2 2 2 2 2 2 2 2 2 2 2 2 2 2 2 2 2 2 2
left_child=2 4 -1 20 10 -4 29 13 9 -9 18 23 -13 14 -7 16 17 -14 -2 -20 26 22 -22 24 -5 -16 27 28 -3 -6
right_child=1 3 5 11 6 7 -8 8 -10 -11 -12 12 15 -15 25 -17 -18 -19 19 -21 21 -23 -24 -25 -26 -27 -28 -29 -30 -31
leaf_value=-0.002893250959701766 -0.038240614365786317 0.038456578410807109 0.036805859411304646 -0.0022826247037418426 0.041885362380190486 -0.03653219469206434 0.0097014955803173489 -0.031032646496102892 -0.039853028424894785 0.013865569497530279 0.045521134855570619 -0.00014656688468272074 0.042075418776426565 -0.040033013602230882 0.032268795946046064 -0.0068668608423322446 0.04590647085884908 -0.03070821738136666 0.062383607327938087 0.0025220571355747765 0.0066134161182812281 -0.00960920964350441 0.043983863841846486 -0.024609230414909478 0.029563118393222496 -0.018926071880074839 0.047553451104861935 0.045828151702880862 -0.0098587408857910269 0.0054006074069310791
leaf_weight=529 20 21 22 93 149 71 161 44 108 65 27 72 39 1680 23 25 133 21 20 2353 28 54 286 34 54 24 697 135 38 23
leaf_count=529 20 21 22 93 149 71 161 44 108 65 27 72 39 1680 23 25 133 21 20 2353 28 54 286 34 54 24 697 135 38 23
internal_value=0 0.0167411 -0.029248 0.0343798 0.00565689 -0.0360922 0.023805 -0.0368881 -0.0219737 -0.00425848 0.00315964 0.0158531 0.02386 -0.0386881 -0.0195409 0.0317888 0.036796 0.0166011 0.00268168 0.00302658 0.0413107 0.0332763 0.0406515 0.00302437 0.00941581 0.00612674 0.0446291 0.0341225 0.00733824 0.0370066
internal_weight=0 4483 2566 1730 2753 2037 333 2015 217 109 2420 471 290 1798 118 218 193 60 2393 2373 1259 368 314 181 147 47 891 194 59 172
internal_count=7049 4483 2566 1730 2753 2037 333 2015 217 109 2420 471 290 1798 118 218 193 60 2393 2373 1259 368 314 181 147 47 891 194 59 172
is_linear=0
shrinkage=0.1


Tree=9
num_leaves=31
num_cat=0
split_feature=1 1 15 1 13 13 2 13 19 10 7 20 5 11 10 10 4 2 8 5 8 13 10 14 8 18 4 10 13 13
split_gain=279.572 70.9945 37.5661 17.9937 10.2533 9.69195 6.57461 4.44548 6.31983 4.3392 4.17455 4.13691 4.10852 4.61556 3.34384 3.35702 3.20018 3.59567 9.71526 3.19521 3.08449 3.0541 2.89301 4.65361 2.82832 3.63807 3.48352 5.12437 3.07639 2.77787
threshold=39.500000000000007 42.717647717394918 91.500000000000014 44.500000000000007 713.50000000000011 691.50000000000011 9.6023255815000024 689.50000000000011 269.50000000000006 636.50000000000011 6213.5000000000009 42.500000000000007 1699.5000000000002 3073.5000000000005 846.50000000000011 874.50000000000011 195.45553360000002 9.4301948055000029 205.71269840000005 1671.5000000000002 199.90586930000003 711.50000000000011 620.50000000000011 630.50000000000011 205.30884145000002 194.50000000000003 207.41384780000001 855.50000000000011 745.50000000000011 678.50000000000011
decision_type=2 2 2 2 2 2 2 2 2 2 2 2 2 2 2 2 2 2 2 2 2 2 2 2 2 2 2 2 2 2
left_child=2 4 11 24 9 10 -6 -5 20 -2 -4 -1 19 -14 21 -16 -11 18 -18 -10 -9 -15 -13 -24 -3 26 27 -26 -27 -12
right_child=1 3 5 7 6 -7 -8 8 12 16 29 22 13 14 15 -17 17 -19 -20 -21 -22 -23 23 -25 25 28 -28 -29 -30 -31
leaf_value=-0.00028444818494180257 0.036935070876938265 0.041084261144200968 0.011165721751749517 -0.025924433101541723 0.036941517466775979 0.016083226906947603 0.0074262041022774535 0.013906312862499839 0.011017457693815232 -0.036438867290105141 -0.036024671587883757 -0.031724640469820729 0.054786406189203267 0.024844042207969694 0.055630936400432679 0.0082178142096381631 0.0067976110890590946 0.0015763347114675762 0.070141821820288899 -0.042608011264353991 0.047300996803851046 -0.0040844750618301588 0.034054210358722643 -0.018953759200982193 0.031635498005596008 -0.0068041421096062373 0.043035954935669411 -0.015441026662786803 0.032464822881708023 -0.022990063701380684
leaf_weight=462 37 750 20 26 154 39 148 42 20 21 1691 84 25 49 28 32 179 2186 28 25 81 143 22 67 161 42 241 27 38 181
leaf_count=462 37 750 20 26 154 39 148 42 20 21 1691 84 25 49 28 32 179 2186 28 25 81 143 22 67 161 42 241 27 38 181
internal_value=0 0.015067 -0.0263232 0.0309418 0.0050912 -0.0332617 0.0224771 0.0142678 0.0166161 0.002949 -0.0342789 -0.00522361 0.00925069 0.0138035 0.00973776 0.0303439 0.00242808 0.00276916 0.0153659 -0.0187745 0.0358979 0.00329832 -0.0184138 -0.00585067 0.0371796 0.0314263 0.0350771 0.0248745 0.0118486 -0.0347644
internal_weight=0 4483 2566 1730 2753 1931 302 471 445 2451 1892 635 322 277 252 60 2414 2393 207 45 123 192 173 89 1259 509 429 188 80 1872
internal_count=7049 4483 2566 1730 2753 1931 302 471 445 2451 1892 635 322 277 252 60 2414 2393 207 45 123 192 173 89 1259 509 429 188 80 1872
is_linear=0
shrinkage=0.1


Tree=10
num_leaves=31
num_cat=0
split_feature=1 1 1 1 13 4 2 8 6 2 41 51 14 5 19 24 26 10 14 28 41 43 6 8 19 2 19 7 14 15
split_gain=226.453 57.5055 30.975 14.5749 8.58671 8.34815 4.31703 10.7869 4.51188 4.20185 4.56679 4.16496 4.08767 3.98609 5.66033 2.98981 2.80902 2.74567 2.72835 3.68145 3.5687 2.72814 5.18416 5.99912 2.66506 2.44272 4.03653 2.32764 2.67506 2.76482
threshold=39.500000000000007 42.717647717394918 35.938249128568479 44.500000000000007 748.50000000000011 165.09204545000003 9.4874921825000023 204.77386365000004 37.022497470000012 9.781548250500002 0.10676291800000001 119.78513699170797 693.72666412184162 1637.5000000000002 264.50000000000006 0.056505087500000009 2.5000000000000004 595.50000000000011 779.50000000000011 45.000000000000007 0.14434523800000001 0.15707236850000003 38.329457365000003 212.10141210000003 283.50000000000006 11.063508065000002 265.50000000000006 6025.0000000000009 552.50000000000011 86.500000000000014
decision_type=2 2 2 2 2 2 2 2 2 2 2 2 2 2 2 2 2 2 2 2 2 2 2 2 2 2 2 2 2 2
left_child=2 4 27 -3 6 -4 7 15 -8 10 -7 -6 -9 -5 -15 -2 17 -12 24 -20 -21 22 -11 -24 -16 -10 -27 -1 -29 -30
right_child=1 3 5 13 11 9 8 12 25 21 16 -13 -14 14 18 -17 -18 -19 19 20 -22 -23 23 -25 -26 26 -28 28 29 -31
leaf_value=0.010965525606836848 0.0018996801045609683 0.033461669585841389 0.031976999477906658 -0.02974426801360789 0.039441795765173315 -0.035815613079762117 -0.043478369509631937 0.018756125094086834 0.0026282110055969661 -0.042916173208504917 0.00096424650400877003 0.001650037852729239 0.064673499031824636 0.039512790357331184 0.014439187306201175 0.041888167825527491 0.010408681705594064 -0.046467776013457258 -0.0064697143392079843 0.045348027574293542 0.0047538763739996487 -0.032193787350235627 0.048303830876414267 -0.027283516885446654 0.050768783144652843 -0.047590745698947175 0.0025449545422036733 -0.034268289779623352 0.0069832426669360825 -0.010170690636508741
leaf_weight=108 287 1259 22 21 101 69 22 33 2134 32 26 41 47 77 105 20 65 23 147 33 63 1758 21 21 25 26 42 30 157 234
leaf_count=108 287 1259 22 21 101 69 22 33 2134 32 26 41 47 77 105 20 65 23 147 33 63 1758 21 21 25 26 42 30 157 234
internal_value=0 0.0135603 -0.0236909 0.0278476 0.00458208 -0.0292899 0.00327966 0.0130273 0.00158346 -0.0299588 -0.0155104 0.0285301 0.0457326 0.012841 0.0148283 0.00450479 -0.00322039 -0.0212998 0.00973261 0.00347708 0.0187081 -0.0314021 -0.0125931 0.0105102 0.0214256 0.00203367 -0.0166246 -0.00213109 -0.00549079 -0.00328279
internal_weight=0 4483 2566 1730 2753 2037 2611 387 2224 2015 183 142 80 471 450 307 114 49 373 243 96 1832 74 42 130 2202 68 529 421 391
internal_count=7049 4483 2566 1730 2753 2037 2611 387 2224 2015 183 142 80 471 450 307 114 49 373 243 96 1832 74 42 130 2202 68 529 421 391
is_linear=0
shrinkage=0.1


Tree=11
num_leaves=31
num_cat=0
split_feature=1 1 1 1 13 4 27 42 10 12 11 13 19 5 11 10 19 19 2 23 13 51 8 23 26 18 11 17 18 20
split_gain=183.427 46.5795 25.0897 11.8057 6.97142 6.762 3.80029 3.6703 3.4442 3.28321 3.49768 3.25103 4.53054 3.29345 3.52098 2.97756 2.72163 4.80359 2.69162 2.59477 3.41155 2.38674 2.30409 3.04735 3.92845 2.73111 6.12097 2.52728 2.279 2.25759
threshold=39.500000000000007 42.717647717394918 35.938249128568479 44.500000000000007 711.50000000000011 165.09204545000003 65.500000000000014 0.051503094500000006 589.50000000000011 40.500000000000007 2764.9522472907415 689.50000000000011 269.50000000000006 1699.5000000000002 3073.5000000000005 675.50000000000011 293.50000000000006 290.50000000000006 9.551315789500002 0.031350225000000002 660.50000000000011 118.86064410991442 203.53079270000003 0.027377139000000005 10.500000000000002 188.50000000000003 3100.5000000000005 121.50000000000001 164.50000000000003 47.772909964911044
decision_type=2 2 2 2 2 2 2 2 2 2 2 2 2 2 2 2 2 2 2 2 2 2 2 2 2 2 2 2 2 2
left_child=2 4 -1 22 9 -4 18 21 -9 -2 -11 -5 -13 15 -15 -14 17 -16 -6 20 -12 -7 27 -24 25 -25 -27 -3 -23 -26
right_child=1 3 5 11 6 7 -8 8 -10 10 19 12 13 14 16 -17 -18 -19 -20 -21 -22 28 23 24 29 26 -28 -29 -30 -31
leaf_value=-0.0019179777624279205 0.039059862486707675 -0.00017268561059609057 0.02877929915081371 -0.022814201277035935 0.03278967270091402 -0.031026790539423629 -0.0063278761654245582 0.0052686393020614508 -0.028332898844989185 -0.039755705296993259 -0.034878008581697942 0.029890768978048151 0.0097363703218953952 0.047200184285640719 0.0067215536542312064 -0.041824644590572765 -0.019893750710593117 0.055003262505583142 0.013085157465036601 0.031462403833866122 0.0022611507715377273 0.032426132643151855 0.03469996314049454 0.029960018086217649 0.020580210765967003 -0.027393218258331565 0.035144502099822554 0.035056970664889907 -0.010830056281953023 -0.017270846317987889
leaf_weight=529 24 21 22 26 132 24 55 31 1910 20 25 123 21 25 198 24 31 23 146 30 2321 21 217 221 26 29 34 671 29 40
leaf_count=529 24 21 22 26 132 24 55 31 1910 20 25 123 21 25 198 24 31 23 146 30 2321 21 217 221 26 29 34 671 29 40
internal_value=0 0.0122043 -0.0213218 0.0250628 0.00412387 -0.0263609 0.0176896 -0.0269629 -0.0277962 0.00225718 0.00188854 0.0115569 0.0135651 0.00732892 0.0114052 -0.0177628 0.00785411 0.0117463 0.0224413 0.00223908 0.00186538 -0.00510494 0.0301155 0.0253894 0.0196169 0.0247242 0.0063573 0.0339879 0.00733754 -0.00235982
internal_weight=0 4483 2566 1730 2753 2037 333 2015 1941 2420 2396 471 445 322 277 45 252 221 278 2376 2346 74 1259 567 350 284 63 692 50 66
internal_count=7049 4483 2566 1730 2753 2037 333 2015 1941 2420 2396 471 445 322 277 45 252 221 278 2376 2346 74 1259 567 350 284 63 692 50 66
is_linear=0
shrinkage=0.1


Tree=12
num_leaves=31
num_cat=0
split_feature=1 1 21 15 2 13 8 43 2 1 20 13 14 51 17 16 4 24 16 24 2 14 5 13 4 10 10 15 14 11
split_gain=148.576 37.7294 21.0464 9.9002 6.12248 5.1341 5.04532 4.22574 3.63855 3.46338 3.34093 2.99256 2.569 2.26242 4.71548 6.08826 2.44731 2.1287 4.72862 2.99907 2.22571 2.99366 3.30665 2.54367 2.06547 2.47333 2.15378 2.28417 4.23531 4.39877
threshold=39.500000000000007 42.717647717394918 76.189270161905043 110.50000000000001 9.4301948055000029 691.50000000000011 204.77386365000004 0.31957446800000006 8.8585714285000012 36.500000000000007 53.500000000000007 738.50000000000011 684.50000000000011 114.50000000000001 94.500000000000014 425.50000000000006 187.16326530000001 0.054751096000000006 427.50000000000006 0.054351183000000004 10.324952860000002 662.50000000000011 1178.0000000000002 668.39690707920897 206.56253910000004 846.50000000000011 748.50000000000011 112.50000000000001 795.50000000000011 3096.5000000000005
decision_type=2 2 2 2 2 2 2 2 2 2 2 2 2 2 2 2 2 2 2 2 2 2 2 2 2 2 2 2 2 2
left_child=2 4 13 7 6 9 11 8 -3 -4 -6 -2 -8 14 15 16 -1 19 20 -15 23 22 -22 -19 25 26 27 28 29 -5
right_child=1 3 5 24 10 -7 12 -9 -10 -11 -12 -13 -14 17 -16 -17 -18 18 -20 -21 21 -23 -24 -25 -26 -27 -28 -29 -30 -31
leaf_value=0.046848868722604083 0.0039405006204584715 -0.014543128999537745 -0.010066087835508844 0.021762299545109276 0.0015119828044075276 0.012476894584221718 0.010268841318786144 -0.010555193573236466 0.027396042216071944 -0.025342349894933631 0.029014428092826467 0.035025914134205999 0.048241931668693026 -0.0014645706196980818 0.056389644145965583 -0.036077745571466431 0.0056771688440459822 -0.036176966231417015 -0.046261822602020636 0.035664126966838482 0.0013828820102692893 -0.016279682635583662 0.046233134485781195 0.0023246893775649368 -0.024443926325156577 0.027485457284130016 -0.025542045178134805 -0.0058917274836325882 0.046176422195452635 -0.02667330796519915
leaf_weight=22 190 21 161 50 2394 39 25 31 1386 1898 45 37 62 112 20 28 42 37 31 27 48 44 25 32 21 53 23 82 33 30
leaf_count=22 190 21 161 50 2394 39 25 31 1386 1898 45 37 62 112 20 28 42 37 31 27 48 44 25 32 21 53 23 82 33 30
internal_value=0 0.0109838 -0.0191896 0.0225566 0.00371148 -0.023467 0.0168547 0.0259654 0.0267701 -0.0241478 0.00201941 0.00900729 0.0373301 -1.44056e-05 0.0123815 0.00281456 0.0198299 -0.00391425 -0.0101031 0.00574748 -0.00407665 0.00432394 0.0167426 -0.0183211 0.00576903 0.00811025 0.00339977 0.00681342 0.0160331 0.00359895
internal_weight=0 4483 2566 1730 2753 2098 314 1438 1407 2059 2439 227 87 468 112 92 64 356 217 139 186 117 73 69 292 271 218 195 113 80
internal_count=7049 4483 2566 1730 2753 2098 314 1438 1407 2059 2439 227 87 468 112 92 64 356 217 139 186 117 73 69 292 271 218 195 113 80
is_linear=0
shrinkage=0.1


Tree=13
num_leaves=31
num_cat=0
split_feature=1 1 21 15 2 8 12 6 41 13 13 15 27 8 13 41 18 24 14 23 24 51 8 14 8 18 4 10 51 6
split_gain=120.346 30.5608 17.0476 8.01916 5.18456 7.12538 4.22974 3.74623 3.5654 3.0217 2.68848 2.50055 2.74738 2.74743 3.02079 2.41035 2.34243 2.19613 2.15474 1.85987 1.85756 2.60506 3.09603 2.88748 2.66728 2.56768 2.31994 2.18297 1.82407 2.01852
threshold=39.500000000000007 42.717647717394918 76.189270161905043 110.50000000000001 9.4944444445000027 204.77386365000004 42.170390531137251 37.022497470000012 0.25669183250000011 738.50000000000011 763.50000000000011 91.500000000000014 3.5000000000000004 214.91998575000002 679.50000000000011 0.13832161112247435 193.50000000000003 0.056505087500000009 712.50000000000011 0.032190316500000003 0.056469943000000009 114.50000000000001 185.95734795000001 556.50000000000011 178.79943105000004 91.500000000000014 181.18080355000004 562.50000000000011 122.50000000000001 36.229915435000009
decision_type=2 2 2 2 2 2 2 2 2 2 2 2 2 2 2 2 2 2 2 2 2 2 2 2 2 2 2 2 2 2
left_child=2 4 19 8 5 9 11 -6 28 17 16 15 -13 14 -14 -4 -9 -2 -7 20 21 22 -1 -24 -23 26 -22 -28 29 -3
right_child=1 3 6 -5 7 18 -8 10 -10 -11 -12 12 13 -15 -16 -17 -18 -19 -20 -21 25 24 23 -25 -26 -27 27 -29 -30 -31
leaf_value=0.047286875907331709 0.00068444339708695497 0.0090404558594205566 -0.0055744399755912012 0.0051921242728433896 -0.03973603160543876 0.02811246956281745 0.01554399113501272 0.0017039894786060085 -0.0060684351040981716 0.031541368946796509 0.037343589961528777 -0.023672333856912579 -0.010170684363692999 -0.024574985770985141 0.040002285428345205 -0.033912401822571818 -0.032674036407843235 0.034873711457476024 0.064193211067467934 0.028371065666645091 -0.00068259401904309503 -0.033614897772669794 -0.022062129184095006 0.025032668863423171 0.00074930567568979971 0.016123517338807385 -0.014899655281031435 -0.0563493569691976 0.014336845998116063 0.026525187802117448
leaf_weight=25 310 70 159 292 22 96 31 2203 40 41 21 1778 30 43 20 37 20 20 20 22 34 25 23 30 234 24 27 24 165 1163
leaf_count=25 310 70 159 292 22 96 31 2203 40 41 21 1778 30 43 20 37 20 20 20 22 34 25 23 30 234 24 27 24 165 1163
internal_value=0 0.00988546 -0.0172707 0.0203009 0.00334033 0.0127013 -0.0211203 0.00132852 0.0233689 0.0059376 0.00173112 -0.0216702 -0.0227959 -0.00604085 0.0098985 -0.010924 0.0013947 0.00275652 0.0343333 -1.29648e-05 -0.00141307 0.00225723 0.0182785 0.0045953 -0.0025677 -0.0127607 -0.0209163 -0.0344054 0.0242112 0.0255325
internal_weight=0 4483 2566 1730 2753 487 2098 2266 1438 371 2244 2067 1871 93 50 196 2223 330 116 468 446 337 78 53 259 109 85 51 1398 1233
internal_count=7049 4483 2566 1730 2753 487 2098 2266 1438 371 2244 2067 1871 93 50 196 2223 330 116 468 446 337 78 53 259 109 85 51 1398 1233
is_linear=0
shrinkage=0.1


Tree=14
num_leaves=31
num_cat=0
split_feature=1 1 21 15 2 8 27 15 6 43 2 1 13 43 20 24 2 8 24 15 5 21 43 4 8 11 13 14 14 8
split_gain=97.4806 24.7542 13.8085 6.49552 4.19949 5.77156 3.56475 4.63017 3.03444 2.96456 2.75086 2.53886 2.44758 2.36564 2.31364 2.00171 1.94423 3.41131 1.77886 1.70899 1.69458 2.05202 3.59428 1.67303 2.14177 1.70125 2.15503 2.0512 3.98379 2.39906
threshold=39.500000000000007 42.717647717394918 76.189270161905043 110.50000000000001 9.4944444445000027 204.77386365000004 18.500000000000004 94.54770894829646 37.022497470000012 0.31957446800000006 8.8585714285000012 36.500000000000007 738.50000000000011 0.20671476150000004 54.500000000000007 0.052957583500000009 11.148170730000002 217.10942160000005 0.056505087500000009 98.12750582495697 1726.5000000000002 99.500000000000014 0.19586530250000003 206.56253910000004 205.54125135000001 3096.5000000000005 714.50000000000011 780.50000000000011 795.50000000000011 198.48863050000003
decision_type=2 2 2 2 2 2 2 2 2 2 2 2 2 2 2 2 2 2 2 2 2 2 2 2 2 2 2 2 2 2
left_child=2 4 -1 9 5 12 11 -8 -6 10 -3 -4 18 -9 16 -7 -10 -18 -2 -17 21 -12 -23 24 25 26 -5 -27 -29 -30
right_child=1 3 6 23 8 15 7 13 14 -11 20 -13 -14 -15 -16 19 17 -19 -20 -21 -22 22 -24 -25 -26 27 -28 28 29 -31
leaf_value=-1.1668680782995036e-05 0.00061599900705679774 -0.014215950712206819 -0.00771184333851971 0.038801468925353577 -0.035762428369542416 0.058839781267479775 -0.022919019274413588 0.048352854503762158 0.0015825503626994053 -0.0095570848353447452 0.023444359698967195 -0.020878026184302945 0.028387232161149745 0.00088722132855937599 0.025392858432605865 0.005452243791472528 0.0034661346177260084 -0.049084207362362318 0.031386339496821167 0.034058440368971786 -0.0066472664475440979 -0.025207263937530418 0.02753062290804727 -0.022518745880751385 0.034666865944862367 0.02044939241061608 0.0052743400612922566 -0.037104249415653094 -0.025052047669040886 0.013552655149348237
leaf_weight=468 310 21 159 26 22 21 40 21 2153 31 1314 1857 41 21 40 31 30 21 20 64 20 24 28 21 25 30 73 35 22 60
leaf_count=468 310 21 159 26 22 21 40 21 2153 31 1314 1857 41 21 40 31 30 21 20 64 20 24 28 21 25 30 73 35 22 60
internal_value=0 0.00889691 -0.0155436 0.0182708 0.0030063 0.0114311 -0.0190083 0.00143025 0.00119567 0.021032 0.021706 -0.0198396 0.00534384 0.02462 0.001558 0.0309 0.00112543 -0.0181722 0.00248087 0.0247238 0.0222502 0.0226733 0.00319006 0.00467291 0.00678001 0.00394599 0.0140794 -0.00287859 -0.00886012 0.0031953
internal_weight=0 4483 2566 1730 2753 487 2098 82 2266 1438 1407 2016 371 42 2244 116 2204 51 330 95 1386 1366 52 292 271 246 99 147 117 82
internal_count=7049 4483 2566 1730 2753 487 2098 82 2266 1438 1407 2016 371 42 2244 116 2204 51 330 95 1386 1366 52 292 271 246 99 147 117 82
is_linear=0
shrinkage=0.1


Tree=15
num_leaves=31
num_cat=0
split_feature=1 1 15 15 42 2 8 29 51 42 18 13 42 29 18 13 13 13 11 41 43 2 23 23 4 2 22 18 29 4
split_gain=78.9593 20.0509 11.2763 5.26137 3.87484 3.4805 4.87871 4.04201 3.17492 2.6017 2.3592 5.07025 2.71323 2.28547 2.24369 2.23822 1.98355 1.94455 1.93975 1.66707 1.97209 2.34247 2.98279 2.76434 2.20226 2.5638 1.79914 1.6335 1.63181 2.38175
threshold=39.500000000000007 42.717647717394918 91.500000000000014 110.50000000000001 0.051503094500000006 9.5244047620000014 204.77386365000004 1.2361111110000003 118.86064410991442 0.18016393450000004 143.50000000000003 651.50000000000011 0.056873315500000007 14.166666665000003 173.50000000000003 660.50000000000011 738.50000000000011 761.50000000000011 1969.5000000000002 0.19399641550000002 0.17817460350000003 10.710084030000003 0.0301779205 0.029161743000000004 186.10049020000002 10.430194805000001 38.500000000000007 192.50000000000003 12.366666665000002 212.05380200000002
decision_type=2 2 2 2 2 2 2 2 2 2 2 2 2 2 2 2 2 2 2 2 2 2 2 2 2 2 2 2 2 2
left_child=2 5 10 9 8 6 16 -8 -4 13 12 -12 -1 -3 -10 -7 -2 27 -6 20 21 23 -23 -14 -22 -26 -27 28 -17 -30
right_child=1 3 4 -5 18 15 7 -9 14 -11 11 -13 19 -15 -16 17 -18 -19 -20 -21 24 22 -24 -25 25 26 -28 -29 29 -31
leaf_value=-0.020676996861310568 0.0025285085554906106 0.019937945165895567 -0.029847469429175062 0.004205620858451704 0.010788422230292451 -0.025864547575193065 0.033365716056191715 -0.013386039503596046 0.03057661483920104 -0.016886812113225461 0.051283323826889195 -0.01442099184445713 -0.029075703026122741 -0.012546225049300121 -0.0091967090316440753 0.0017417256457870499 0.025548509417510613 0.028381025332670947 -0.019083263954918026 0.023813105463981632 0.0095718563950088417 -0.0017117648692603444 0.035697512326236719 0.00023358297526745905 -0.041833955206369101 -0.02571929962458936 0.015721778348088265 -0.026241453402591028 -0.042535494156181818 -0.0032116948668636496
leaf_weight=85 430 1396 21 292 22 31 116 22 37 20 24 23 37 22 23 1978 41 26 1828 25 28 47 39 247 38 22 20 22 20 67
leaf_count=85 430 1396 21 292 22 31 116 22 37 20 24 23 37 22 23 1978 41 26 1828 25 28 47 39 247 38 22 20 22 20 67
internal_value=0 0.00800722 -0.0139892 0.0164437 -0.0177907 0.00270567 0.00937714 0.0259125 0.00361745 0.0189288 -0.00242917 0.0191301 -0.00415245 0.019434 0.0153302 0.00081065 0.00453237 0.001202 -0.018728 -0.00136003 -0.00267662 0.000793632 0.0152529 -0.00358488 -0.0145654 -0.0230135 -0.00598545 0.000863406 0.00115217 -0.0122516
internal_weight=0 4483 2566 1730 1931 2753 609 138 81 1438 635 47 588 1418 60 2144 471 2113 1850 503 478 370 86 284 108 80 42 2087 2065 87
internal_count=7049 4483 2566 1730 1931 2753 609 138 81 1438 635 47 588 1418 60 2144 471 2113 1850 503 478 370 86 284 108 80 42 2087 2065 87
is_linear=0
shrinkage=0.1


Tree=16
num_leaves=31
num_cat=0
split_feature=1 1 21 1 5 13 5 17 2 8 5 16 13 10 11 11 13 8 22 13 14 11 33 2 29 27 24 5 2 27
split_gain=63.957 16.2413 9.16142 4.36864 3.13381 3.57587 2.96631 3.39919 2.7009 2.7195 2.67644 2.3486 2.82757 2.31954 2.28732 1.93944 1.8561 4.57903 1.83861 1.82548 1.71493 2.42213 3.39763 3.18923 1.81815 5.77091 6.60223 1.66855 2.89858 2.16246
threshold=39.500000000000007 42.717647717394918 76.189270161905043 44.500000000000007 1710.5000000000002 711.50000000000011 1637.5000000000002 124.99169440167033 9.4944444445000027 199.78820600000003 1605.5000000000002 693.50000000000011 705.50000000000011 630.50000000000011 2846.5000000000005 3142.5000000000005 742.50000000000011 206.26509875000002 50.181738745206545 660.50000000000011 826.50000000000011 3105.5000000000005 0.62328223098983981 10.458301160000001 1.2111111110000004 7973.7291410123889 0.052253175000000006 1618.5000000000002 9.7738636365000016 6.5000000000000009
decision_type=2 2 2 2 2 2 2 2 2 2 2 2 2 2 2 2 2 2 2 2 2 2 2 2 2 2 2 2 2 2
left_child=2 4 -1 16 5 13 -5 -8 9 -9 -4 12 18 -2 -15 -14 20 -18 -10 -16 24 22 23 -22 -3 26 -26 28 29 -7
right_child=1 3 10 6 -6 27 7 8 11 -11 -12 -13 15 14 19 -17 17 -19 -20 -21 21 -23 -24 -25 25 -27 -28 -29 -30 -31
leaf_value=6.0923637566803442e-05 0.03532287249341607 0.022651940731885593 -0.015812514268507296 -0.030152689346245362 -0.037005025232210755 0.019875004060566429 0.031351291827325316 0.0037727814259787291 0.018894930816410731 0.025551950685723232 0.016472418434344806 0.016833995226206204 -0.044805878366936336 -0.023545144317747169 -0.025365625739097598 -0.0053416104800999165 -0.035682547634298151 0.017420477708501202 -0.020248071979731323 0.0018009098477826946 0.0058453805389858428 0.024638541809776249 0.014566948876452091 -0.049266850522586281 -0.050161799802272415 0.02399066669949845 0.013836836412083359 0.025719042006880046 -0.013359917548950762 -0.00490935345220825
leaf_weight=468 20 797 2072 21 20 150 56 172 30 86 26 33 33 37 25 20 22 62 20 2332 21 68 67 21 27 134 40 75 48 46
leaf_count=468 20 797 2072 21 20 150 56 172 30 86 26 33 33 37 25 20 22 62 20 2332 21 68 67 21 27 134 40 75 48 46
internal_value=0 0.0072065 -0.0125903 0.0147994 0.0024351 0.00272373 0.00658351 0.00829787 0.00502124 0.0110325 -0.0154124 -0.00638248 -0.0138208 0.00140881 0.00112548 -0.0299137 0.017873 0.00351254 0.00323773 0.00151276 0.0188996 0.009828 0.000588392 -0.0217107 0.0205085 0.0120092 -0.0119537 0.0126742 0.00866453 0.0140583
internal_weight=0 4483 2566 1730 2753 2733 471 450 394 258 2098 136 103 2414 2394 53 1259 84 50 2357 1175 177 109 42 998 201 67 319 244 196
internal_count=7049 4483 2566 1730 2753 2733 471 450 394 258 2098 136 103 2414 2394 53 1259 84 50 2357 1175 177 109 42 998 201 67 319 244 196
is_linear=0
shrinkage=0.1


Tree=17
num_leaves=31
num_cat=0
split_feature=1 4 1 27 14 4 16 16 13 8 16 5 18 10 16 10 18 2 14 13 8 26 19 5 2 11 40 4 20 23
split_gain=52.1477 11.8082 7.21016 4.40974 4.47551 3.6434 3.26573 5.11714 7.18813 3.25117 3.00064 2.35566 3.01915 2.33991 3.11785 3.85643 2.89412 2.37929 2.64762 2.1721 3.27408 2.88187 3.97616 2.36625 2.21878 3.90259 3.74448 2.11487 3.25534 1.99719
threshold=40.500000000000007 209.59761905000002 42.717647717394918 3.5000000000000004 637.50000000000011 196.24418605000002 639.00000000000011 613.50000000000011 682.50000000000011 211.42526575000002 577.06392160719236 1588.5000000000002 182.50000000000003 552.50000000000011 601.50000000000011 593.50000000000011 87.500000000000014 10.342160275000001 652.50000000000011 706.50000000000011 198.57478855000002 9.5000000000000018 287.50000000000006 1741.5000000000002 10.458301160000001 3130.5000000000005 0.021980676000000001 203.04939025000002 54.500000000000007 0.031317703500000009
decision_type=2 2 2 2 2 2 2 2 2 2 2 2 2 2 2 2 2 2 2 2 2 2 2 2 2 2 2 2 2 2
left_child=1 13 6 4 10 11 7 9 -9 29 -3 -4 -13 -1 15 16 17 -15 -19 24 -21 23 -23 -22 -7 26 -26 -8 -29 -2
right_child=2 3 5 -5 -6 19 27 8 -10 -11 -12 12 -14 14 -16 -17 -18 18 -20 20 21 22 -24 -25 25 -27 -28 28 -30 -31
leaf_value=0.027823864213294455 -0.0010831106326607491 -0.0054473105494657328 -0.024709425654644429 -0.00091028232340708041 -0.016274922780807253 0.019974236883151333 -0.02387999075109485 0.076750044524669658 0.016387191984727212 0.041491513131629854 0.029317511610376341 0.032840114066729674 0.0022097304510518244 -0.040312787318794896 0.00204982261620943 -0.018151668328791858 0.0040812876647523255 0.016214694402276957 -0.02615881411979596 -0.028522786888338272 0.01830141088021291 -0.018560355272151472 0.022396874251334291 -0.010555065367671271 -0.048178853946072714 0.023711658470953505 0.0091001117229461675 0.00098610022189121412 0.037485360383987427 0.027697179487978035
leaf_weight=27 332 144 27 262 1738 831 33 22 191 21 30 37 247 29 818 215 264 29 30 21 341 63 38 31 21 48 25 1083 25 26
leaf_count=27 332 144 27 262 1738 831 33 22 191 21 30 37 247 29 818 215 264 29 30 21 341 63 38 31 21 48 25 1083 25 26
internal_value=0 -0.0084523 0.00875251 -0.0130769 -0.0147441 0.0133194 0.00419351 0.0102201 0.0226219 0.00325028 0.000546624 0.00351683 0.00620031 -0.00133198 -0.00190036 -0.00759922 -0.00115383 -0.0168592 -0.00533116 0.0154678 0.0101141 0.0118295 -0.0031507 0.0158967 0.018327 0.00376496 -0.017049 0.00106664 0.00180964 0.00100708
internal_weight=0 3586 3463 2174 1912 1730 1733 592 213 379 174 311 284 1412 1385 567 352 88 59 1419 494 473 101 372 925 94 46 1141 1108 358
internal_count=7049 3586 3463 2174 1912 1730 1733 592 213 379 174 311 284 1412 1385 567 352 88 59 1419 494 473 101 372 925 94 46 1141 1108 358
is_linear=0
shrinkage=0.1


Tree=18
num_leaves=31
num_cat=0
split_feature=1 4 1 27 7 19 16 24 23 16 16 13 8 29 7 13 36 23 2 19 22 4 10 8 5 8 23 2 19 2
split_gain=42.2397 9.56466 5.84023 3.57189 3.68223 3.00251 3.99913 2.83472 6.46955 2.64524 4.14488 5.82239 2.63345 2.62311 2.59551 2.34937 2.28165 2.25843 2.75726 2.28857 2.13475 4.29555 3.51959 2.12428 2.12333 2.93101 2.04421 1.95428 2.70034 2.02705
threshold=40.500000000000007 209.59761905000002 42.717647717394918 3.5000000000000004 7881.0000000000009 270.50000000000006 660.50000000000011 0.05218741000000001 0.026696974500000002 639.00000000000011 613.50000000000011 682.50000000000011 211.42526575000002 2.5833333335000002 9061.5000000000018 680.09844564614457 6.5000000000000009 0.030107823500000002 9.7977272725000031 293.50000000000006 41.363000757696156 215.41698840000004 620.50000000000011 199.40692640000003 1569.5000000000002 213.26572530000001 0.029420250500000005 10.458301160000001 265.50000000000006 9.0204166665000027
decision_type=2 2 2 2 2 2 2 2 2 2 2 2 2 2 2 2 2 2 2 2 2 2 2 2 2 2 2 2 2 2
left_child=1 24 9 4 15 13 7 8 -7 10 12 -12 -2 27 23 16 20 19 -19 -8 -3 22 -22 -9 25 -1 -27 29 -29 -4
right_child=2 3 5 -5 -6 6 17 14 -10 -11 11 -13 -14 -15 -16 -17 -18 18 -20 -21 21 -23 -24 -25 -26 26 -28 28 -30 -31
leaf_value=-0.00084147742318784748 0.00090637025494888089 0.030850464926806057 -0.010862834968914589 -0.00081925406156264197 -0.014860221407784029 0.0010248829682285969 0.016485554883983785 -0.0054093393259384533 -0.059309812993914995 0.00095997965918310265 0.069075039977377115 0.014748472799620159 0.037342362141325358 -0.0096933262376114743 -0.027769157680727186 -0.021011926328882258 -0.016807204340584577 -0.029218620801111685 0.013750858569983393 -0.011314168921671808 -0.0029157791117375548 -0.033117262095212936 0.041956881841580418 0.022779311209676731 0.02512116989741723 -0.0084755482617765669 -0.048073566501790829 -0.024129916286026992 0.013854362498052787 0.018592845690436659
leaf_weight=1328 358 37 24 262 1690 52 397 47 27 1141 22 191 21 40 21 47 40 28 32 32 44 25 29 62 30 32 22 27 61 880
leaf_count=1328 358 37 24 262 1690 52 397 47 27 1141 22 191 21 40 21 47 40 28 32 32 44 25 29 62 30 32 22 27 61 880
internal_value=0 -0.00760707 0.00787726 -0.0117692 -0.0132697 0.0119875 0.00692188 -0.0046562 -0.0195958 0.00377416 0.00919811 0.0203597 0.00292525 0.0154136 0.00442251 -0.00116152 0.00416973 0.0118704 -0.00630157 0.0144119 0.0103851 0.00265841 0.0149103 0.0106246 -0.00119878 -0.00177013 -0.0246081 0.016426 0.0022001 0.0178108
internal_weight=0 3586 3463 2174 1912 1730 698 209 79 1733 592 213 379 1032 130 222 175 489 60 429 135 98 73 109 1412 1382 54 992 88 904
internal_count=7049 3586 3463 2174 1912 1730 698 209 79 1733 592 213 379 1032 130 222 175 489 60 429 135 98 73 109 1412 1382 54 992 88 904
is_linear=0
shrinkage=0.1


Tree=19
num_leaves=31
num_cat=0
split_feature=1 4 1 27 7 42 5 5 13 10 10 13 10 16 21 18 2 14 14 2 6 18 13 36 32 22 4 10 8 51
split_gain=34.2141 7.74737 4.73059 2.89323 2.9826 2.85833 2.51105 2.4715 2.34555 2.1547 2.05831 1.90299 1.89017 2.46012 3.07628 2.53233 2.14544 2.14457 2.00256 1.85678 2.8017 6.36929 3.81883 1.84813 1.81278 1.79987 3.66286 2.54026 1.74626 6.19759
threshold=40.500000000000007 209.59761905000002 42.717647717394918 3.5000000000000004 7881.0000000000009 0.19604037250000003 1724.5000000000002 1710.5000000000002 724.50000000000011 846.50000000000011 873.50000000000011 680.09844564614457 552.50000000000011 601.50000000000011 76.689270161905043 87.500000000000014 10.342160275000001 652.50000000000011 672.50000000000011 10.718349360000003 37.52812500000001 109.50000000000001 668.39690707920897 6.5000000000000009 0.7964352131659701 40.588829895739572 215.41698840000004 620.50000000000011 209.50555555000003 119.78513699170797
decision_type=2 2 2 2 2 2 2 2 2 2 2 2 2 2 2 2 2 2 2 2 2 2 2 2 2 2 2 2 2 2
left_child=1 12 7 4 11 6 -4 8 -2 -8 -11 23 -1 14 15 16 -14 -18 19 20 22 -22 -17 25 -21 -3 27 -27 -15 -30
right_child=2 3 5 -5 -6 -7 9 -9 -10 10 -12 -13 13 28 -16 18 17 -19 -20 24 21 -23 -24 -25 -26 26 -28 -29 29 -31
leaf_value=0.025125626164178058 0.0025447123960484919 0.033566907390952111 0.012666109501199778 -0.00073732855331636125 -0.013374199990469677 -0.025026344480416313 -0.0058826909537290362 -0.031553078554570672 0.014671250123248089 0.035874407044772447 -0.00064261212493434096 -0.01891073280192436 -0.037558659091591839 9.7926487583182973e-05 -0.016477554872193757 -0.0067920379392388793 0.014677372378907328 -0.02345878513917948 -0.024611565414006296 0.030907708508311774 -0.056446035796155536 0.014355587238376891 0.027524882343684526 -0.015126484231441282 -0.0043186208588026822 0.0012979088417653527 -0.029805535793304444 0.037761193801697089 0.038256856575959702 -0.0092473918506712251
leaf_weight=27 1535 25 1503 262 1690 22 143 20 178 29 33 47 30 708 204 72 29 30 23 48 24 27 59 40 21 56 25 29 53 57
leaf_count=27 1535 25 1503 262 1690 22 143 20 178 29 33 47 30 708 204 72 29 30 23 48 24 27 59 40 21 56 25 29 53 57
internal_value=0 -0.00684636 0.00708954 -0.0105923 -0.0119427 0.0107887 0.0112501 0.00339674 0.0038048 0.000867936 0.0164379 -0.00104537 -0.00107891 -0.00158975 -0.00665194 -0.00113011 -0.0157852 -0.00471389 0.00363011 0.00621799 0.000922183 -0.0189628 0.00866367 0.00375276 0.0201867 0.00934661 0.00384199 0.0137383 0.00191912 0.013641
internal_weight=0 3586 3463 2174 1912 1730 1708 1733 1713 205 62 222 1412 1385 567 363 89 59 274 251 182 51 131 175 69 135 110 85 818 110
internal_count=7049 3586 3463 2174 1912 1730 1708 1733 1713 205 62 222 1412 1385 567 363 89 59 274 251 182 51 131 175 69 135 110 85 818 110
is_linear=0
shrinkage=0.1


Tree=20
num_leaves=31
num_cat=0
split_feature=1 8 1 13 4 5 18 16 17 8 23 7 2 20 16 20 15 8 14 23 23 2 6 20 13 22 2 43 1 4
split_gain=27.7134 6.40932 3.83178 2.75357 2.36836 2.01638 2.24342 2.01203 3.2274 3.21753 2.41954 2.58658 1.94512 3.09791 1.66814 3.70677 2.17544 2.67507 2.13107 2.22364 3.71064 3.47381 1.66372 2.02276 1.53267 2.46929 3.18277 2.39435 1.65092 1.72576
threshold=40.500000000000007 212.10141210000003 42.717647717394918 691.50000000000011 196.24418605000002 1588.5000000000002 182.50000000000003 639.00000000000011 122.50000000000001 206.06071430000003 0.031460351000000004 8559.5000000000018 9.3594224925000002 57.150972498765945 600.50000000000011 42.500000000000007 97.500000000000014 209.12049940000003 662.50000000000011 0.028774678500000005 0.029161743000000004 10.054804805000002 37.975900120000006 54.500000000000007 651.50000000000011 40.088829895739572 10.402380950000003 0.17974358950000002 39.500000000000007 207.82372505000004
decision_type=2 2 2 2 2 2 2 2 2 2 2 2 2 2 2 2 2 2 2 2 2 2 2 2 2 2 2 2 2 2
left_child=1 14 7 24 5 -4 -7 8 10 -10 11 -2 -8 -14 15 18 17 -16 19 21 -21 -1 -9 -24 25 -3 27 -27 29 -26
right_child=2 3 4 -5 -6 6 12 22 9 -11 -12 -13 13 -15 16 -17 -18 -19 -20 20 -22 -23 23 -25 28 26 -28 -29 -30 -31
leaf_value=-0.0029043570281036442 0.00048923876017367392 0.027346528798341752 -0.024308079743274938 0.0005400558484437983 0.011442027651259205 0.027253007163872592 0.0058759711538366776 -0.018930377498535173 0.061692373268306261 0.011620743894441562 0.029110717996954916 0.020530013656733851 -0.033370085839285621 0.013012299481003235 -0.0060807681526057426 -0.013181816051177171 -0.0001426163924744461 0.028090718917046037 -0.015318417810185843 -0.030505784568102923 0.0045853439901234975 0.043713797668390203 0.00061829189067071641 0.026530529510590341 0.013627595150912251 0.019922795820803869 -0.033572713124819777 -0.014048840072596583 -0.029217253756467942 -0.011869189045983995
leaf_weight=31 422 25 27 226 1419 37 187 42 21 33 40 76 36 24 36 307 722 63 66 34 265 33 1068 31 27 42 33 41 54 1581
leaf_count=31 422 25 27 226 1419 37 187 42 21 33 40 76 36 24 36 307 722 63 66 34 265 33 1068 31 27 42 33 41 54 1581
internal_value=0 -0.00616173 0.00638058 -0.00986516 0.00970986 0.0018065 0.00428923 0.00305707 0.00778749 0.031093 0.00544827 0.00354767 0.000849306 -0.0148171 -0.00133562 -0.00479265 0.00176351 0.0156647 0.00121078 0.00421609 0.000595048 0.0211331 0.000602722 0.00134921 -0.0111694 -0.00115944 -0.00730297 0.00314163 -0.0120186 -0.0114411
internal_weight=0 3586 3463 2029 1730 311 284 1733 592 54 538 498 247 60 1557 736 821 99 429 363 299 64 1141 1099 1803 141 116 83 1662 1608
internal_count=7049 3586 3463 2029 1730 311 284 1733 592 54 538 498 247 60 1557 736 821 99 429 363 299 64 1141 1099 1803 141 116 83 1662 1608
is_linear=0
shrinkage=0.1


Tree=21
num_leaves=31
num_cat=0
split_feature=1 8 1 4 16 42 13 21 16 16 7 13 5 41 4 41 20 13 13 52 29 18 10 16 15 24 23 6 21 10
split_gain=22.4479 5.19155 3.10374 2.26755 2.30418 2.17423 2.16697 2.60858 2.16171 2.21364 2.71923 2.14809 1.90595 1.67017 2.64134 2.24752 1.97679 1.63433 1.59633 1.52617 1.49763 2.29354 1.4898 1.81436 2.37005 2.88188 1.92264 2.00812 3.06556 1.95696
threshold=40.500000000000007 212.10141210000003 42.717647717394918 207.10942160000005 648.50000000000011 0.19604037250000003 707.50000000000011 99.500000000000014 629.50000000000011 641.00000000000011 8931.5000000000018 719.50000000000011 1710.5000000000002 0.14434523800000001 200.77008460000005 0.089087301500000007 46.905744332008517 724.50000000000011 716.50000000000011 86.786898250660116 1.8750000000000002 185.50000000000003 552.50000000000011 600.50000000000011 91.500000000000014 0.054751096000000006 0.029119993000000004 37.52812500000001 70.500000000000014 589.50000000000011
decision_type=2 2 2 2 2 2 2 2 2 2 2 2 2 2 2 2 2 2 2 2 2 2 2 2 2 2 2 2 2 2
left_child=1 22 12 -3 -5 6 7 -4 -8 10 -10 18 17 14 -13 -16 -15 -2 20 -9 21 -11 -1 24 25 -24 -27 29 -29 -28
right_child=2 3 5 4 -6 -7 8 19 9 11 -12 13 -14 16 15 -17 -18 -19 -20 -21 -22 -23 23 -25 -26 26 27 28 -30 -31
leaf_value=0.022083326194573333 0.0020578664122907755 0.019907800356547038 0.013485431269113541 -0.010365428949169668 0.0012099166425239101 -0.022497653880749237 0.01444123719654539 0.0067777042054027944 -0.040980288959466496 0.032469001930692923 0.0056980650871992118 0.039173743947211542 -0.027940291734412315 0.021163723482327028 -0.012519947672262789 0.014274788590975935 -0.014397691704194854 0.012180281073127068 -0.027500668992953642 -0.020459901313814852 -0.020691145756281913 -0.0036280128980676336 0.014586602976992347 0.001587155597932732 -0.012069451003645858 -0.030075659107283822 0.0054955143719174282 0.0059244005807808468 -0.046392949748163423 -0.017468640665807153
leaf_weight=27 1535 27 955 1812 190 22 170 48 26 23 24 33 20 22 40 144 54 178 28 36 30 75 98 821 300 28 192 21 24 46
leaf_count=27 1535 27 955 1812 190 22 170 48 26 23 24 33 20 22 40 144 54 178 28 36 30 75 98 821 300 28 192 21 24 46
internal_value=0 -0.00554556 0.00574252 -0.00887864 -0.00926687 0.00873887 0.00914122 0.0119994 0.0047023 0.00138443 -0.0185747 0.00360705 0.00275136 0.00865403 0.0131221 0.00844985 -0.0041036 0.0031097 -0.00587222 -0.00489556 -0.001141 0.00484374 -0.00120205 -0.00161297 -0.00531862 -0.000366916 -0.00507896 -0.00260578 -0.0219782 0.00105706
internal_weight=0 3586 3463 2029 2002 1730 1708 1039 669 499 50 449 1733 293 217 184 76 1713 156 84 128 98 1557 1530 709 409 311 283 45 238
internal_count=7049 3586 3463 2029 2002 1730 1708 1039 669 499 50 449 1733 293 217 184 76 1713 156 84 128 98 1557 1530 709 409 311 283 45 238
is_linear=0
shrinkage=0.1


Tree=22
num_leaves=31
num_cat=0
split_feature=12 6 16 7 10 5 4 16 2 14 4 16 23 23 10 39 7 41 18 24 11 18 21 26 16 10 4 18 4 10
split_gain=18.2606 4.3235 2.67486 3.28118 3.54534 2.94878 3.11775 2.44848 2.24519 2.1182 2.41825 2.00796 1.93503 1.7564 1.75473 2.44577 2.72646 2.43008 1.73335 1.71436 3.4482 2.36791 2.09408 1.60631 1.61134 3.34737 2.93303 2.47846 1.59768 1.70392
threshold=43.760375472834262 38.95505050500001 629.50000000000011 8419.5000000000018 652.50000000000011 1631.5000000000002 195.69227055000002 636.50000000000011 9.3258341760000025 643.50000000000011 210.09639955000003 655.50000000000011 0.031460351000000004 0.028774678500000005 756.50000000000011 0.085960591500000016 9173.5000000000018 0.12632978700000003 175.50000000000003 0.054728049000000008 3130.5000000000005 205.50000000000003 95.500000000000014 1.5 601.50000000000011 615.50000000000011 178.57027025000002 143.50000000000003 198.09196620000003 638.50000000000011
decision_type=2 2 2 2 2 2 2 2 2 2 2 2 2 2 2 2 2 2 2 2 2 2 2 2 2 2 2 2 2 2
left_child=1 23 3 12 -5 -4 8 -8 14 -3 13 -9 -2 -11 15 17 -17 -7 -6 21 -21 22 -13 -1 25 27 -27 -25 -26 -30
right_child=2 9 5 4 18 6 7 11 -10 10 -12 19 -14 -15 -16 16 -18 -19 -20 20 -22 -23 -24 24 28 26 -28 -29 29 -31
leaf_value=0.020015619312013899 -0.00049178177173922043 0.0019304323374166104 -0.00061367676387582464 0.04985128079575521 0.032099713177181959 -0.0036181271692077004 -0.019851483147719812 0.014421729721740183 -0.020684056626632811 -0.0015473560860626541 -0.010042006473569398 0.0069994934848316859 0.028511678218841555 0.027918885800987482 0.023365159320735164 0.00089485358608805627 -0.049589311457239098 0.034441100781702476 0.011233901767297761 -0.031578852474040381 0.018860465450131376 -0.026316030872985719 0.031046262531517411 -0.0016934445200742978 0.027401126148602503 -0.046124180277379662 -0.010764618162065746 0.033509221939103946 0.0087109120662285724 -0.0015959832577822333
leaf_weight=35 288 197 921 27 43 62 29 483 60 106 1643 507 25 25 31 23 20 23 537 33 23 20 39 420 22 26 240 21 194 926
leaf_count=35 288 197 921 27 43 62 29 483 60 106 1643 507 25 25 31 23 20 23 537 33 23 20 39 420 22 26 240 21 194 926
internal_value=0 -0.00463285 0.00559163 0.0101413 0.0144298 0.00375093 0.00672196 0.0088315 -0.0042014 -0.00790704 -0.00899947 0.00958426 0.00182479 0.00407597 0.00201847 -0.00315143 -0.0225862 0.00668025 0.0127808 0.00582784 -0.0108627 0.0074792 0.00871712 -0.00120747 -0.00160921 -0.00536109 -0.0142208 -1.71271e-05 0.000713539 0.000189318
internal_weight=0 3855 3194 920 607 2274 1353 1134 219 1971 1774 1105 313 131 159 128 43 85 580 622 56 566 546 1884 1849 707 266 441 1142 1120
internal_count=7049 3855 3194 920 607 2274 1353 1134 219 1971 1774 1105 313 131 159 128 43 85 580 622 56 566 546 1884 1849 707 266 441 1142 1120
is_linear=0
shrinkage=0.1


Tree=23
num_leaves=31
num_cat=0
split_feature=12 6 42 16 5 7 10 5 16 10 19 11 29 39 41 18 10 22 13 23 18 19 24 13 4 42 27 10 26 2
split_gain=14.7911 3.50204 2.29427 1.98965 2.55445 2.51598 2.87173 2.22378 2.32271 2.18897 1.98521 1.88555 2.62455 1.87699 3.14621 2.18283 1.87294 1.78414 2.23097 1.53147 1.47483 1.43668 1.3665 1.55184 3.16659 1.51272 1.27322 1.94463 1.22184 1.16
threshold=43.760375472834262 38.95505050500001 0.19253938800000003 629.50000000000011 1631.5000000000002 8419.5000000000018 652.50000000000011 1724.5000000000002 636.50000000000011 805.50000000000011 270.50000000000006 3029.5000000000005 1.2361111110000003 0.077677225000000016 0.12632978700000003 196.50000000000003 705.50000000000011 39.77958529709263 668.39690707920897 0.031460351000000004 171.50000000000003 293.50000000000006 0.051329062500000001 711.50000000000011 205.76833635000003 0.048199768000000004 18587.500000000004 857.50000000000011 1.5 10.067424245000002
decision_type=2 2 2 2 2 2 2 2 2 2 2 2 2 2 2 2 2 2 2 2 2 2 2 2 2 2 2 2 2 2
left_child=1 22 3 5 -5 19 -7 8 10 13 -6 12 17 14 15 -9 -17 18 -3 -2 -8 -11 -1 25 -25 -24 27 28 -27 -10
right_child=2 11 -4 4 7 6 20 9 29 21 -12 -13 -14 -15 -16 16 -18 -19 -20 -21 -22 -23 23 24 -26 26 -28 -29 -30 -31
leaf_value=-0.027086658346233888 -0.00014907372301327184 0.036301794435296741 -0.02006961731272491 -0.00034444991366139484 0.0081463483117875605 0.044866153294289557 0.035262055829167367 -0.030882722094122857 0.011559912078592876 0.022179511406769357 -0.034379827846651494 -0.030818922626503716 0.022150488726554382 -0.029131233841180805 0.029652460385113957 0.018080691001828641 -0.014666981594637037 -0.00766281574095756 -0.0079108299911022188 0.025660509675741197 0.010432526516803617 -0.0091803178368579774 -0.024950458806146075 0.034985415865149763 -0.0031636443734169004 0.018192341314120727 0.02280668545599011 -0.022156129201704806 -0.0012414678762250274 0.0042993330429234198
leaf_weight=20 286 21 36 917 21 27 25 35 730 48 23 33 31 35 24 31 40 1861 25 25 555 21 27 36 55 33 22 44 1647 315
leaf_count=20 286 21 36 917 21 27 25 35 730 48 23 33 31 35 24 31 40 1861 25 25 555 21 27 36 55 33 22 44 1647 315
internal_value=0 -0.00416957 0.00503246 0.00531862 0.00371175 0.00923951 0.0129868 0.00652319 0.00842366 -0.00232127 -0.0140832 -0.00711633 -0.00671273 -0.0085758 -0.00304165 -0.0104441 -0.000368702 -0.00718193 0.0122732 0.00192565 0.0115028 0.0126352 -0.00108673 -0.000807758 0.0119283 -0.00146144 -0.00109821 -0.00140326 -0.000859732 0.00937132
internal_weight=0 3855 3194 3158 2240 918 607 1323 1089 234 44 1971 1938 165 130 106 71 1907 46 311 580 69 1884 1864 91 1773 1746 1724 1680 1045
internal_count=7049 3855 3194 3158 2240 918 607 1323 1089 234 44 1971 1938 165 130 106 71 1907 46 311 580 69 1884 1864 91 1773 1746 1724 1680 1045
is_linear=0
shrinkage=0.1


Tree=24
num_leaves=31
num_cat=0
split_feature=1 1 22 20 17 42 13 21 41 10 29 36 8 6 21 29 23 10 2 2 8 10 42 14 24 24 14 13 10 2
split_gain=11.9995 2.89064 2.34876 2.44054 1.74052 1.30077 1.36869 1.79778 1.75398 1.68348 2.58614 1.57652 1.92704 2.21221 1.46496 1.34149 1.6824 1.28467 1.32638 2.55259 3.19657 1.2501 2.30908 2.03017 1.86238 2.83424 2.46909 2.40089 2.24431 5.61981
threshold=39.500000000000007 42.717647717394918 39.77958529709263 38.500000000000007 94.500000000000014 0.19604037250000003 707.50000000000011 99.500000000000014 0.14434523800000001 689.50000000000011 2.8333333335000002 8.4119133559473394 198.57478855000002 37.187617850000002 91.500000000000014 12.266666665000001 0.026486336000000003 700.50000000000011 9.2966634425000017 9.3594224925000002 207.96310975000003 583.50000000000011 0.057417582500000001 583.50000000000011 0.056389093000000008 0.055739069000000009 534.50000000000011 644.37259974207575 561.50000000000011 10.620192310000002
decision_type=2 2 2 2 2 2 2 2 2 2 2 2 2 2 2 2 2 2 2 2 2 2 2 2 2 2 2 2 2 2
left_child=2 -2 3 21 -5 6 7 -3 11 14 -11 12 13 -8 -10 -12 -17 -14 -19 -20 -21 22 23 -1 25 26 -24 -28 -29 -30
right_child=1 5 -4 4 -6 -7 8 -9 9 10 15 -13 17 -15 -16 16 -18 18 19 20 -22 -23 24 -25 -26 -27 27 28 29 -31
leaf_value=-0.0060397562409679481 0.0011085431892745303 0.010141134918009113 -0.0066538744043534897 0.0023858131621690357 0.033727952873812535 -0.017835945348170672 0.0072779842672337381 -0.0051181607322567813 -0.034996097249289357 0.022486850192868398 -0.023853592539505503 0.031092073644200965 0.011547020084357687 -0.028276500010064671 -0.0018491895229090006 0.023645795285701751 -0.016428279199383476 -0.02345802691720781 0.032940223471572001 -0.034254485189914703 0.0074022096182618825 0.018822639263593233 0.026483289256691935 -0.048418024685233832 -0.024702591850207404 0.029931690697284311 0.017051677062208281 -0.030577494329487795 -0.034593603294342759 0.037728978551569439
leaf_weight=26 2753 955 2217 34 37 22 35 84 30 38 35 24 266 35 24 20 22 21 24 25 70 26 25 20 26 34 29 49 22 21
leaf_count=26 2753 955 2217 34 37 22 35 84 30 38 35 24 266 35 24 20 22 21 24 25 70 26 25 20 26 34 29 49 22 21
internal_value=0 0.00312149 -0.00545349 0.00217189 0.018719 0.00632476 0.00663596 0.00890747 0.00310817 -0.00569908 0.00114016 0.00608502 0.00482416 -0.0104993 -0.0202641 -0.00939457 0.00265461 0.00746612 -0.000287576 0.00380133 -0.00356008 -0.00205418 -0.00420814 -0.0244651 0.000315257 0.00392895 -0.00212649 -0.0080376 -0.0159462 0.000726727
internal_weight=0 4483 2566 349 71 1730 1708 1039 669 169 115 500 476 70 54 77 42 406 140 119 95 278 252 46 206 180 146 121 92 43
internal_count=7049 4483 2566 349 71 1730 1708 1039 669 169 115 500 476 70 54 77 42 406 140 119 95 278 252 46 206 180 146 121 92 43
is_linear=0
shrinkage=0.1


Tree=25
num_leaves=31
num_cat=0
split_feature=12 6 24 11 16 7 10 5 4 2 11 43 4 2 13 22 13 14 11 35 15 2 7 23 29 24 13 4 42 6
split_gain=10.0819 2.25177 1.65388 1.89733 1.65028 1.92575 2.41836 1.75911 2.00145 1.83015 1.57772 1.57058 1.71023 1.54568 2.28699 1.49139 1.64537 1.38042 1.58141 1.52704 1.32641 1.29569 1.28054 1.23582 1.14885 1.09597 1.20387 2.50645 1.21649 1.04748
threshold=43.760375472834262 38.95505050500001 0.055138698000000007 3029.5000000000005 629.50000000000011 8419.5000000000018 652.50000000000011 1631.5000000000002 195.69227055000002 9.4642654565000015 3103.5000000000005 0.21103238900000001 193.97700845000003 9.2472222220000031 707.50000000000011 39.77958529709263 668.39690707920897 795.50000000000011 3048.5000000000005 3.6715673049936002 101.50000000000001 9.5763888890000022 8702.5000000000018 0.031460351000000004 1.2361111110000003 0.051329062500000001 711.50000000000011 205.76833635000003 0.048199768000000004 39.797435895000007
decision_type=2 2 2 2 2 2 2 2 2 2 2 2 2 2 2 2 2 2 2 2 2 2 2 2 2 2 2 2 2 2
left_child=1 25 3 15 5 23 -7 21 9 10 17 12 -12 14 -10 16 -3 18 -9 -19 -8 -6 -15 -2 -17 -1 28 -28 -27 -24
right_child=4 2 -4 -5 7 6 20 8 13 -11 11 -13 -14 22 -16 24 -18 19 -20 -21 -22 -23 29 -25 -26 26 27 -29 -30 -31
leaf_value=-0.024254834800958636 -0.00049414465578997307 0.032505472199547858 0.011453983493265697 -0.032612912363752175 -0.021464029663033655 0.040268683323153746 0.02852272709033319 -0.025067996871366634 0.010117746110666882 -0.025451306541534987 0.016203514226855568 -0.033044204585578128 -0.02123123374970063 0.025452910221524929 -0.036605243459343913 -0.0066517657128793975 -0.0054637101888656619 0.040797544315102553 0.0082034391872584829 0.003500184303392535 0.0084400795913651735 1.4212555338152488e-05 0.0061922143221668467 0.022684233725070956 0.01493193331360817 -0.022360292435796174 0.031010544553606047 -0.0029299072558801112 -0.00097056222167575491 0.024034637053880623
leaf_weight=20 288 21 54 27 29 27 35 20 22 33 26 23 23 38 20 1819 25 21 50 23 545 892 1020 25 25 27 36 55 1746 34
leaf_count=20 288 21 54 27 29 27 35 20 22 33 26 23 23 38 20 1819 25 21 50 23 545 892 1020 25 25 27 36 55 1746 34
internal_value=0 -0.0034424 -0.00580531 -0.00629149 0.00415481 0.00772846 0.0110138 0.00270901 0.00500374 -0.00374827 0.000102263 -0.0114867 -0.0013679 0.00669394 -0.0121313 -0.00591547 0.01187 0.00742162 -0.00130269 0.0213012 0.00965196 -0.000662084 0.00741799 0.00135716 -0.00635915 -0.000970378 -0.000720544 0.0104971 -0.00129629 0.00676778
internal_weight=0 3855 1971 1917 3194 920 607 2274 1353 219 186 72 49 1134 42 1890 46 114 70 44 580 921 1092 313 1844 1884 1864 91 1773 1054
internal_count=7049 3855 1971 1917 3194 920 607 2274 1353 219 186 72 49 1134 42 1890 46 114 70 44 580 921 1092 313 1844 1884 1864 91 1773 1054
is_linear=0
shrinkage=0.1


Tree=26
num_leaves=31
num_cat=0
split_feature=12 4 29 33 36 42 2 42 23 6 2 29 5 2 11 23 21 24 14 13 11 5 6 2 26 2 5 18 1 42
split_gain=8.16631 1.85865 1.58854 4.38953 2.10092 1.88242 1.52208 1.75991 1.69813 1.83168 2.80651 1.61577 1.91855 4.25401 1.64947 1.58038 1.5385 1.80588 1.40159 1.63522 1.72096 1.39581 1.39315 1.26544 1.4363 2.18437 1.73301 1.12384 1.0632 1.05673
threshold=43.760375472834262 209.59761905000002 2.5833333335000002 1.6783420980365809 15.081121062631039 0.056873315500000007 9.3819655520000023 0.19253938800000003 0.026271181000000001 35.083673470000008 9.0204166665000027 11.585714285000002 1728.5000000000002 9.781548250500002 3132.5000000000005 0.027434333000000002 99.500000000000014 0.060671806990797057 643.50000000000011 690.50000000000011 3029.5000000000005 1736.5000000000002 36.432125305000007 10.067424245000002 9.5000000000000018 9.6835686775000003 1625.5000000000002 174.50000000000003 42.717647717394918 0.046693314000000007
decision_type=2 2 2 2 2 2 2 2 2 2 2 2 2 2 2 2 2 2 2 2 2 2 2 2 2 2 2 2 2 2
left_child=1 2 4 5 -1 -4 8 11 22 -10 15 12 14 -14 16 -11 23 -18 -3 20 -20 -12 -2 24 26 -26 27 -8 -28 -25
right_child=6 18 3 -5 -6 -7 7 -9 9 10 21 -13 13 -15 -16 -17 17 -19 19 -21 -22 -23 -24 29 25 -27 28 -29 -30 -31
leaf_value=-0.00034305358779657466 -0.027190760361111684 0.0029138338184424959 -0.038320723303001042 0.025280059086666869 0.022884150538593533 -0.0030182104719721752 0.013685471309969825 -0.02205702287369761 0.031174137879695214 -0.033083818815648557 0.0085185517855565374 0.011969972302006292 -0.036321797282435002 0.0095155629533820035 0.015230904841481955 0.0036653835495764559 -0.026894014242749949 0.006056915583281682 -0.0065044443256776444 0.0013171098629414194 -0.033466485414343577 0.033067916349197431 0.0018238401450848176 -0.01383080551666873 -0.026760759500457962 0.014259209521558314 0.024666522857931226 0.0006490071489907175 0.0086945682004822989 0.00042114010551438691
leaf_weight=1472 23 206 44 22 40 23 75 29 35 25 662 175 40 41 98 22 39 29 1741 283 24 24 59 56 34 21 47 559 368 733
leaf_count=1472 23 206 44 22 40 23 75 29 35 25 662 175 40 41 98 22 39 29 1741 283 24 24 59 56 34 21 47 559 368 733
internal_value=0 -0.00309816 -0.000492803 -0.0134761 0.000271423 -0.026202 0.00373933 0.00242477 0.00736443 0.00882493 0.00775778 0.00273145 0.00197596 -0.0131202 0.00256984 -0.0158821 0.00193711 -0.0128414 -0.00494873 -0.0057396 -0.00687107 0.00937742 -0.0063144 0.00246798 0.00465372 -0.0110986 0.00547963 0.00219118 0.0105034 -0.000590405
internal_weight=0 3855 1601 89 1512 67 3194 2344 850 768 733 2315 2140 81 2059 47 1961 68 2254 2048 1765 686 82 1893 1104 55 1049 634 415 789
internal_count=7049 3855 1601 89 1512 67 3194 2344 850 768 733 2315 2140 81 2059 47 1961 68 2254 2048 1765 686 82 1893 1104 55 1049 634 415 789
is_linear=0
shrinkage=0.1


end of trees

feature_importances:
handles.nkey=77
pslist.nproc=71
pslist.avg_threads=60
handles.nfile=49
pslist.avg_handlers=45
handles.nsection=41
handles.avg_handles_per_proc=39
handles.nsemaphore=35
handles.nthread=28
handles.ndirectory=25
dlllist.ndlls=24
ldrmodules.not_in_load_avg=23
ldrmodules.not_in_init_avg=23
handles.nevent=21
dlllist.avg_dlls_per_proc=20
handles.nmutant=20
psxview.not_in_csrss_handles_false_avg=20
psxview.not_in_session_false_avg=19
malfind.uniqueInjections=18
handles.nhandles=17
malfind.ninjections=16
ldrmodules.not_in_init=15
svcscan.nactive=15
ldrmodules.not_in_load=14
handles.ndesktop=13
malfind.commitCharge=13
ldrmodules.not_in_mem=8
psxview.not_in_deskthrd_false_avg=8
handles.ntimer=7
psxview.not_in_deskthrd=6
psxview.not_in_ethread_pool_false_avg=4
psxview.not_in_pslist=3
psxview.not_in_ethread_pool=3
psxview.not_in_pspcid_list=3
psxview.not_in_pspcid_list_false_avg=3
ldrmodules.not_in_mem_avg=1
malfind.protection=1
psxview.not_in_session=1
callbacks.ncallbacks=1

parameters:
[boosting: gbdt]
[objective: regression]
[metric: l2]
[tree_learner: serial]
[device_type: cpu]
[data_sample_strategy: bagging]
[data: ]
[valid: ]
[num_iterations: 150]
[learning_rate: 0.1]
[num_leaves: 31]
[num_threads: 0]
[seed: 0]
[deterministic: 0]
[force_col_wise: 0]
[force_row_wise: 0]
[histogram_pool_size: -1]
[max_depth: -1]
[min_data_in_leaf: 20]
[min_sum_hessian_in_leaf: 0.001]
[bagging_fraction: 1]
[pos_bagging_fraction: 1]
[neg_bagging_fraction: 1]
[bagging_freq: 0]
[bagging_seed: 3]
[feature_fraction: 1]
[feature_fraction_bynode: 1]
[feature_fraction_seed: 2]
[extra_trees: 0]
[extra_seed: 6]
[early_stopping_round: 0]
[first_metric_only: 0]
[max_delta_step: 0]
[lambda_l1: 0]
[lambda_l2: 0]
[linear_lambda: 0]
[min_gain_to_split: 0]
[drop_rate: 0.1]
[max_drop: 50]
[skip_drop: 0.5]
[xgboost_dart_mode: 0]
[uniform_drop: 0]
[drop_seed: 4]
[top_rate: 0.2]
[other_rate: 0.1]
[min_data_per_group: 100]
[max_cat_threshold: 32]
[cat_l2: 10]
[cat_smooth: 10]
[max_cat_to_onehot: 4]
[top_k: 20]
[monotone_constraints: ]
[monotone_constraints_method: basic]
[monotone_penalty: 0]
[feature_contri: ]
[forcedsplits_filename: ]
[refit_decay_rate: 0.9]
[cegb_tradeoff: 1]
[cegb_penalty_split: 0]
[cegb_penalty_feature_lazy: ]
[cegb_penalty_feature_coupled: ]
[path_smooth: 0]
[interaction_constraints: ]
[verbosity: -1]
[saved_feature_importance_type: 0]
[use_quantized_grad: 0]
[num_grad_quant_bins: 4]
[quant_train_renew_leaf: 0]
[stochastic_rounding: 1]
[linear_tree: 0]
[max_bin: 255]
[max_bin_by_feature: ]
[min_data_in_bin: 3]
[bin_construct_sample_cnt: 200000]
[data_random_seed: 1]
[is_enable_sparse: 1]
[enable_bundle: 1]
[use_missing: 1]
[zero_as_missing: 0]
[feature_pre_filter: 1]
[pre_partition: 0]
[two_round: 0]
[header: 0]
[label_column: ]
[weight_column: ]
[group_column: ]
[ignore_column: ]
[categorical_feature: 0]
[forcedbins_filename: ]
[precise_float_parser: 0]
[parser_config_file: ]
[objective_seed: 5]
[num_class: 1]
[is_unbalance: 0]
[scale_pos_weight: 1]
[sigmoid: 1]
[boost_from_average: 1]
[reg_sqrt: 0]
[alpha: 0.9]
[fair_c: 1]
[poisson_max_delta_step: 0.7]
[tweedie_variance_power: 1.5]
[lambdarank_truncation_level: 30]
[lambdarank_norm: 1]
[label_gain: ]
[lambdarank_position_bias_regularization: 0]
[eval_at: ]
[multi_error_top_k: 1]
[auc_mu_weights: ]
[num_machines: 1]
[local_listen_port: 12400]
[time_out: 120]
[machine_list_filename: ]
[machines: ]
[gpu_platform_id: -1]
[gpu_device_id: -1]
[gpu_use_dp: 0]
[num_gpu: 1]

end of parameters

pandas_categorical:null
