tree
version=v4
num_class=1
num_tree_per_iteration=1
label_index=0
max_feature_idx=54
objective=regression
feature_names=Category pslist.nproc pslist.nppid pslist.avg_threads pslist.nprocs64bit pslist.avg_handlers dlllist.ndlls dlllist.avg_dlls_per_proc handles.nhandles handles.avg_handles_per_proc handles.nport handles.nfile handles.nevent handles.ndesktop handles.nkey handles.nthread handles.ndirectory handles.nsemaphore handles.ntimer handles.nsection handles.nmutant ldrmodules.not_in_load ldrmodules.not_in_init ldrmodules.not_in_mem ldrmodules.not_in_load_avg ldrmodules.not_in_init_avg ldrmodules.not_in_mem_avg malfind.ninjections malfind.commitCharge malfind.protection malfind.uniqueInjections psxview.not_in_pslist psxview.not_in_eprocess_pool psxview.not_in_ethread_pool psxview.not_in_pspcid_list psxview.not_in_csrss_handles psxview.not_in_session psxview.not_in_deskthrd psxview.not_in_pslist_false_avg psxview.not_in_eprocess_pool_false_avg psxview.not_in_ethread_pool_false_avg psxview.not_in_pspcid_list_false_avg psxview.not_in_session_false_avg psxview.not_in_deskthrd_false_avg modules.nmodules svcscan.nservices svcscan.kernel_drivers svcscan.fs_drivers svcscan.process_services svcscan.shared_process_services svcscan.interactive_process_services svcscan.nactive callbacks.ncallbacks callbacks.nanonymous callbacks.ngeneric
feature_infos=none [26.856814156032868:48.953887633407476] [14.850471624745737:17.181659803255695] [8.5602353212954458:11.390682432222803] none [103.2313060218156:275.8011555882282] [999.56836928073164:1903] [34.989389523633022:41.069772387886793] [4972:10161.96514007099] [142.078125:338.16584569489714] none [357.99999999999994:1189.733322535099] [1589.3184519696254:3335] [32.10065838027004:50.857568700891385] [634.23236522238665:800.59753163022378] [455:886.11297153940154] [81.628795029329055:118.47858875876851] [369:740] [84:140.27761193824168] [69:229.65772029927149] [162:315.38590400041983] [29.001267806822206:57.301944997531869] [56.542906731893808:113.6895310316214] [29.044606425797575:57.578492958606475] [0.022083996406228226:0.035393044345162411] [0.046097999216652141:0.060719717981594104] [0.022081793212296821:0.035403328756030056] [1:72.541688169724964] [1:21411.414570742669] [6:435.24935620930569] [1:14.913307397677205] [0:7.3276320777178547] [0:0.0045896007305722131] [0:12.148383043461578] [0:7.3491346765983963] [4:14.079214129478043] [2:6.542411134299595] [4:20.500012133884557] [0:0.17016044994082791] [0:0.0039601353797703905] [0:0.18916583392236008] [0:0.17725150519608751] [0.031499581389626122:0.23826579143971366] [0.11904761899999999:0.36013405438455337] [137:138] [388.66140976987134:389.33838130509793] [220.80601260335925:221.19389731852067] [25.982475129160239:26] [23.968655333921674:24] [115.89761676161626:116] none [111.43386283883775:123.89458189132532] [85.633816256830002:88.842298415433817] [0:0.0046453020365366283] none
tree_sizes=2808 2921 2936 2920 2952 2942 2931 2947 2958 2952 2958 2961 2959 2976 2968 2963 2973 2968 2994 2946 3007 3011 3013 3018 3009 3009

Tree=0
num_leaves=31
num_cat=0
split_feature=35 33 40 43 43 42 40 42 43 40 40 38 40 43 37 43 40 40 43 43 40 40 3 33 13 13 13 41 1 52
split_gain=9.07123 1.37858 0.911905 0.401952 0.278286 0.175641 0.0834085 0.07879 0.0723576 0.0606718 0.0594344 0.0482854 0.0354947 0.0332291 0.0320666 0.0259595 0.021236 0.0191959 0.0188769 0.0187387 0.0176522 0.016206 0.0152562 0.0159434 0.0125601 0.0123861 0.012354 0.0107253 0.00966674 0.00895205
threshold=6.0813331999682223 5.5000000000000009 0.024695122000000003 0.22551624652358015 0.30330086600000006 0.054804805000000005 0.10990338150000002 0.073622403000000017 0.15184453250000002 0.048199768000000004 0.07229965150000002 0.043015726000000004 0.15155865450000003 0.35767590600000004 7.5000000000000009 0.25834260300000006 0.096857411000000018 0.026671408000000004 0.32630878450000006 0.26138716350000007 0.022474747500000003 0.053342816500000008 9.2299154335000022 7.4190197979541379 43.760375472834262 44.738440357350818 44.201370130902212 0.093386628000000013 33.500000000000007 86.786898250660116
decision_type=2 2 2 2 2 2 2 2 2 2 2 2 2 2 2 2 2 2 2 2 2 2 2 2 2 2 2 2 2 2
left_child=2 3 5 10 11 8 13 28 25 17 24 -3 22 15 20 27 -12 -4 -6 -8 -10 -11 -13 -24 -2 -1 -19 -5 -7 -20
right_child=1 4 9 6 18 7 19 -9 14 21 16 12 -14 -15 -16 -17 -18 26 29 -21 -22 -23 23 -25 -26 -27 -28 -29 -30 -31
leaf_value=0.13836352672888766 0.14491224163478572 0.14757173989308389 0.14118213806891805 0.14691565629870557 0.15536152215613133 0.14089384626286122 0.14879804683123374 0.1445961981440945 0.13910142561215566 0.14330903360074732 0.14585972836632552 0.14809773559185394 0.15295723754547336 0.15108301836112542 0.13750804026781316 0.14400600583270151 0.14921439875584744 0.14255585854753292 0.15907484535795355 0.1507498819328659 0.14004792506214003 0.14544059170042709 0.15071613873611442 0.15353840504212785 0.14405882617559046 0.13769684675103483 0.1417912249059918 0.14789815593688171 0.13990378052417179 0.15646321552763498
leaf_weight=577 323 37 266 413 46 111 254 39 715 172 334 20 101 21 103 27 20 404 35 61 272 45 222 22 370 539 443 152 884 21
leaf_count=577 323 37 266 413 46 111 254 39 715 172 334 20 101 21 103 27 20 404 35 61 272 45 222 22 370 539 443 152 884 21
internal_value=0.142659 0.147529 0.140017 0.146338 0.152198 0.139112 0.147853 0.140187 0.138608 0.142221 0.144995 0.151014 0.151363 0.147174 0.139187 0.147035 0.146049 0.141923 0.156863 0.149176 0.139362 0.143751 0.150753 0.150971 0.144457 0.138042 0.142156 0.14718 0.140014 0.158095
internal_weight=0 2479 4570 1975 504 3240 928 1034 2206 1330 1047 402 365 613 1090 592 354 1113 102 315 987 217 264 244 693 1116 847 565 995 56
internal_count=7049 2479 4570 1975 504 3240 928 1034 2206 1330 1047 402 365 613 1090 592 354 1113 102 315 987 217 264 244 693 1116 847 565 995 56
is_linear=0
shrinkage=1


Tree=1
num_leaves=31
num_cat=0
split_feature=35 35 40 43 43 42 42 42 40 40 40 41 43 40 6 24 40 25 40 1 40 33 35 42 25 11 42 42 6 43
split_gain=7.3477 1.11689 0.7407 0.341357 0.216942 0.133399 0.0834137 0.0745112 0.0719926 0.0573491 0.0518292 0.0435596 0.0359609 0.0306438 0.0301562 0.028582 0.0233394 0.0228897 0.0204848 0.0196423 0.0177412 0.0168866 0.0167338 0.0163302 0.0130516 0.0124302 0.00980666 0.00933696 0.0122708 0.0120766
threshold=6.0813331999682223 9.5000000000000018 0.024099884000000002 0.22551624652358015 0.30330086600000006 0.053101504000000001 0.16493825785327204 0.073622403000000017 0.019675926000000003 0.047065338000000005 0.096857411000000018 0.040547945000000009 0.20991432100000004 0.15155865450000003 1650.5000000000002 0.028822792000000003 0.025978407500000005 0.060671806990797057 0.061862245000000003 42.717647717394918 0.05195681500000001 11.500000000000002 7.5000000000000009 0.056873315500000007 0.051479395000000004 572.50000000000011 0.21807065200000003 0.11215932900000002 1587.5000000000002 0.25227272750000002
decision_type=2 2 2 2 2 2 2 2 2 2 2 2 2 2 2 2 2 2 2 2 2 2 2 2 2 2 2 2 2 2
left_child=2 3 5 12 11 8 10 23 19 16 17 14 18 27 -3 -8 -4 22 -2 -1 -11 24 -5 -7 -6 -18 -26 -13 -29 -30
right_child=1 4 9 6 21 7 15 -9 -10 20 -12 13 -14 -15 -16 -17 25 -19 -20 -21 -22 -23 -24 -25 26 -27 -28 28 29 -31
leaf_value=-0.0039226609664577382 0.0046572274493519219 0.00182106312630432 -0.0015976501436283192 0.0063273236483197522 0.014180893823504449 -0.0030764338956101645 0.01149442546069622 0.0017436881848157217 -0.0025924079076715531 0.00035698846978549331 0.0052606914020297936 0.009261356342745863 0.0026918429472926456 0.0093829930197484434 0.0071801814294996718 0.0067555101215839384 0.00099525636687758379 0.0011839193390738784 0.0013975834016575017 -0.0047383240356724315 0.0024383252932845306 0.015364793427288533 0.0037534941066227549 -0.0024035134494490061 0.010273518493132933 -0.00066362590828877648 0.012967859581112863 0.007616366130464217 0.0041684367410514669 0.0069460773802533446
leaf_weight=794 20 21 300 27 22 619 20 39 343 279 422 23 488 101 21 35 48 33 535 470 48 20 392 864 35 766 22 170 23 49
leaf_count=794 20 21 300 27 22 619 20 39 343 279 422 23 488 101 21 35 48 33 535 470 48 20 392 864 35 766 22 170 23 49
internal_value=0 0.00438361 -0.00237789 0.00330735 0.00856977 -0.00324185 0.00470142 -0.00257092 -0.00387729 -0.000501888 0.00446372 0.00755082 0.00206565 0.00790084 0.00450062 0.00847875 -0.000843681 0.00371964 0.00151505 -0.00422595 0.000662506 0.0127691 0.00391935 -0.00268439 0.012112 -0.000565805 0.0113134 0.00733594 0.00715295 0.00605878
internal_weight=0 2479 4570 1972 507 3129 929 1522 1607 1441 874 408 1043 366 42 55 1114 452 555 1264 327 99 419 1483 79 814 57 265 242 72
internal_count=7049 2479 4570 1972 507 3129 929 1522 1607 1441 874 408 1043 366 42 55 1114 452 555 1264 327 99 419 1483 79 814 57 265 242 72
is_linear=0
shrinkage=0.1


Tree=2
num_leaves=31
num_cat=0
split_feature=35 33 40 40 43 42 43 11 40 40 40 38 43 17 40 40 1 33 1 41 11 19 42 29 43 33 11 11 42 43
split_gain=5.95164 0.906814 0.599967 0.265481 0.186613 0.108054 0.0672746 0.0627498 0.058314 0.0468646 0.0467687 0.0339344 0.0334192 0.0300019 0.0230093 0.0221345 0.01607 0.0155158 0.0143249 0.0126256 0.0125541 0.0125117 0.0115405 0.0114064 0.00990157 0.00985723 0.0121871 0.00915907 0.0083218 0.00826131
threshold=6.0813331999682223 5.5000000000000009 0.024099884000000002 0.091966173500000012 0.30330086600000006 0.053101504000000001 0.21595124550000003 545.50000000000011 0.019675926000000003 0.10990338150000002 0.048199768000000004 0.043015726000000004 0.35767590600000004 654.50000000000011 0.15155865450000003 0.025978407500000005 41.500000000000007 11.500000000000002 33.500000000000007 0.089087301500000007 584.50000000000011 171.50000000000003 0.22335600900000002 369.00000000000006 0.22886904800000002 6.5000000000000009 718.50000000000011 572.50000000000011 0.056873315500000007 0.20483683000000003
decision_type=2 2 2 2 2 2 2 2 2 2 2 2 2 2 2 2 2 2 2 2 2 2 2 2 2 2 2 2 2 2
left_child=2 3 5 6 11 8 29 -7 16 -5 15 -3 24 19 21 -4 -1 22 -9 -11 -12 -13 -6 25 -8 -23 -27 -17 -20 -2
right_child=1 4 10 9 17 7 12 18 -10 13 20 14 -14 -15 -16 27 -18 -19 28 -21 -22 23 -24 -25 -26 26 -28 -29 -30 -31
leaf_value=-0.0034606329039238181 0.0011496520014198444 0.0038763463597845391 -0.0014378851673876247 0.0037726226507360677 0.0097900235853360402 0.0020676112850196659 0.0029162982292473319 -0.0013255454196009488 -0.002333167165995687 0.002701341691426933 0.0032884879829362039 0.0076876819340719119 0.0068691393807447255 0.0091281764698214838 0.0083382309331457207 0.00089573075577694316 -0.0041743144251811248 0.01337552311597392 -0.0027687904820664633 0.0053005390457416838 0.0006589765121526827 0.0059676730406087964 0.012495080754160882 0.003881583544425667 0.0011223941815621927 0.0060711562379517341 0.0094390869850204118 -0.00052296392174812942 -0.0022745984092865895 0.0018260510812461023
leaf_weight=657 389 37 300 415 46 32 455 113 343 20 20 72 21 20 101 48 607 32 619 285 197 129 24 20 33 22 21 876 758 337
leaf_count=657 389 37 300 415 46 32 455 113 343 20 20 72 21 20 101 48 607 32 619 285 197 129 24 20 33 22 21 876 758 337
internal_value=0 0.00394525 -0.0021401 0.00297908 0.00773132 -0.00291766 0.00208162 -0.00231383 -0.00348956 0.00447687 -0.000451699 0.00676206 0.00296308 0.00537614 0.00705458 -0.000691574 -0.00380336 0.0115514 -0.00240793 0.0051301 0.000901328 0.00656349 0.0107175 0.00614192 0.00279499 0.00640474 0.00771596 -0.000449265 -0.00249675 0.00146363
internal_weight=0 2479 4570 1975 504 3129 1235 1522 1607 740 1441 402 509 325 365 1224 1264 102 1490 305 217 264 70 192 488 172 43 924 1377 726
internal_count=7049 2479 4570 1975 504 3129 1235 1522 1607 740 1441 402 509 325 365 1224 1264 102 1490 305 217 264 70 192 488 172 43 924 1377 726
is_linear=0
shrinkage=0.1


Tree=3
num_leaves=31
num_cat=0
split_feature=35 35 40 33 43 42 43 40 17 43 40 5 35 37 1 42 3 41 15 43 43 1 40 13 5 42 43 11 5 16
split_gain=4.82083 0.742703 0.486555 0.230625 0.146114 0.0934209 0.08937 0.054195 0.0451967 0.0395627 0.0340548 0.0311708 0.0223736 0.0180956 0.0171764 0.0147042 0.0134223 0.013763 0.0179199 0.0129353 0.010943 0.0103221 0.0102336 0.0100105 0.00945004 0.0078179 0.0103287 0.0070502 0.00678944 0.00677254
threshold=6.0813331999682223 9.5000000000000018 0.024695122000000003 3.1646230069398107 0.30330086600000006 0.054804805000000005 0.31180555550000005 0.10724554350000001 395.00000000000006 0.15184453250000002 0.049390244000000007 136.30321220000005 10.395759644084942 8.4119133559473394 40.500000000000007 0.089898990000000012 9.1219693220000018 0.05978387630234596 744.50000000000011 0.33630952350000004 0.23166368550000002 32.500000000000007 0.022474747500000003 43.760375472834262 202.30543235000002 0.11092182887259976 0.27003205100000005 584.50000000000011 204.32529070000001 99.500000000000014
decision_type=2 2 2 2 2 2 2 2 2 2 2 2 2 2 2 2 2 2 2 2 2 2 2 2 2 2 2 2 2 2
left_child=2 3 5 14 11 9 7 16 -7 29 15 -3 23 22 24 -4 -5 18 -18 -6 -19 -10 -11 -13 -2 -14 -27 -12 -21 -1
right_child=1 4 10 6 19 8 -8 -9 21 13 27 12 25 -15 -16 -17 17 20 -20 28 -22 -23 -24 -25 -26 26 -28 -29 -30 -31
leaf_value=-0.0030042950692045138 0.0039231329775330703 0.002908130006731621 -0.00078614825842259557 0.00099522207028712728 0.0094090468782399381 0.0029047052375972271 0.0096509772692418977 0.0045030261611529012 -0.0009468483301196067 -0.0025985967501300101 0.0029596391879022125 0.00600399413151936 0.008681526094482377 -0.0038682783953845504 0.0010077861873729519 -8.0189151983806658e-05 0.002828488481993025 0.0025851611652667975 0.0069124438733394666 0.010367631760891527 0.0033937978515258208 -0.0020029985409410942 -0.001879435865318074 0.0042681863487121609 0.0017909652773360043 0.0053551844718372999 0.0073371706755253775 0.00091564859677520068 0.01288688840425533 -0.0035377775364762915
leaf_weight=344 22 28 682 32 56 20 24 353 103 726 20 159 29 92 451 520 22 345 21 20 325 911 272 42 377 34 116 108 23 772
leaf_count=344 22 28 682 32 56 20 24 353 103 726 20 159 29 92 451 520 22 345 21 20 325 911 272 42 377 34 116 108 23 772
internal_value=0 0.00355072 -0.00192609 0.00267308 0.00696437 -0.00258718 0.00361434 0.00348239 -0.00180287 -0.00295481 -0.000315616 0.00612813 0.0063654 -0.0025263 0.00143061 -0.000480742 0.00299879 0.00308871 0.00482298 0.0104107 0.00297741 -0.00189572 -0.00240259 0.00564129 0.00190853 0.0071785 0.00688792 0.00123502 0.0117151 -0.00337333
internal_weight=0 2479 4570 1972 507 3240 1122 1098 1034 2206 1330 408 380 1090 850 1202 745 713 43 99 670 1014 998 201 399 179 150 128 43 1116
internal_count=7049 2479 4570 1972 507 3240 1122 1098 1034 2206 1330 408 380 1090 850 1202 745 713 43 99 670 1014 998 201 399 179 150 128 43 1116
is_linear=0
shrinkage=0.1


Tree=4
num_leaves=31
num_cat=0
split_feature=35 35 40 33 43 43 42 40 42 40 40 38 37 1 40 1 40 40 43 1 11 13 43 33 22 37 25 13 43 38
split_gain=3.90487 0.60159 0.395732 0.186806 0.119044 0.0723897 0.0718555 0.0446751 0.042281 0.0397368 0.0329286 0.0270641 0.0202751 0.0147546 0.0128117 0.012008 0.0110439 0.0100088 0.00952591 0.00901351 0.00824989 0.00822425 0.00819551 0.00786735 0.00776639 0.00792059 0.00763367 0.00745453 0.00702832 0.00601463
threshold=6.0813331999682223 9.5000000000000018 0.024099884000000002 3.1646230069398107 0.30523513750000003 0.31180555550000005 0.053101504000000001 0.096857411000000018 0.073622403000000017 0.019675926000000003 0.047065338000000005 0.040547945000000009 12.500000000000002 38.56799567589259 0.025320513000000006 42.717647717394918 0.073622403000000017 0.053342816500000008 0.24780701750000003 34.928395581805525 572.50000000000011 42.921418316504493 0.20431354400000004 11.500000000000002 83.799015895673634 13.500000000000002 0.051479395000000004 44.738440357350818 0.28281378200000001 0.022792208000000005
decision_type=2 2 2 2 2 2 2 2 2 2 2 2 2 2 2 2 2 2 2 2 2 2 2 2 2 2 2 2 2 2
left_child=2 3 6 13 11 7 9 16 19 15 14 -3 21 -2 -4 -1 -5 -12 -9 -8 -16 -13 -15 26 25 -14 -6 -18 -26 -21
right_child=1 4 10 5 23 -7 8 18 -10 -11 17 12 24 22 20 -17 27 -19 -20 29 -22 -23 -24 -25 28 -27 -28 -29 -30 -31
leaf_value=-0.0028532456135100474 0.0022816234848033051 0.0030569938620409139 -0.0012649763879666398 0.0048966607078909877 0.010630840537222949 0.0086858796072192494 -0.0012285113187604831 0.0034093709777433447 0.0013775807715809118 -0.0018767606700518043 0.00029906728878742786 0.0056305212448492202 0.0066173284469793247 0.00057222076517640435 0.00083182556942726176 -0.0034909947810971989 0.0026549479326588572 0.0019050216467844116 0.0043120943518023145 -0.0021413108264583371 -0.00051682087344409068 0.004319180158199743 0.0013225685016094795 0.011355010867118836 0.0055004301319630557 0.0087582802331006085 0.0083660346577348922 0.0016737181835316613 0.0073750388675502369 -0.0015892693517861032
leaf_weight=794 127 39 242 20 22 24 152 227 39 343 282 132 48 202 48 470 519 45 241 1090 824 75 521 20 70 27 46 91 28 241
leaf_count=794 127 39 242 20 22 24 152 227 39 343 282 132 48 202 48 470 519 45 241 1090 824 75 521 20 70 27 46 91 28 241
internal_value=0 0.00319565 -0.00173348 0.00240577 0.00626793 0.00325291 -0.00236498 0.00313415 -0.00187257 -0.00283135 -0.000362244 0.0055657 0.00582317 0.00128754 -0.000621236 -0.00309038 0.00258438 0.00052007 0.00387423 -0.00195804 -0.000442583 0.0051554 0.00111293 0.00961155 0.00662218 0.00738807 0.00909877 0.00250857 0.00603603 -0.00204135
internal_weight=0 2479 4570 1972 507 1122 3129 1098 1522 1607 1441 419 380 850 1114 1264 630 327 468 1483 872 207 723 88 173 75 68 610 98 1331
internal_count=7049 2479 4570 1972 507 1122 3129 1098 1522 1607 1441 419 380 850 1114 1264 630 327 468 1483 872 207 723 88 173 75 68 610 98 1331
is_linear=0
shrinkage=0.1


Tree=5
num_leaves=31
num_cat=0
split_feature=35 35 40 33 43 42 43 11 40 40 40 5 40 1 40 37 43 40 3 41 19 1 43 11 1 25 5 37 43 43
split_gain=3.16294 0.487287 0.321245 0.151313 0.096426 0.0587428 0.0586356 0.0364692 0.0361868 0.0333967 0.0267577 0.0224885 0.0189619 0.0122583 0.0121656 0.0121035 0.012256 0.0111787 0.0102771 0.0120924 0.0163846 0.00880353 0.00771599 0.00770244 0.00750848 0.00645 0.0062165 0.0052783 0.00506899 0.00466218
threshold=6.0813331999682223 9.5000000000000018 0.023532669000000003 3.1646230069398107 0.30523513750000003 0.051503094500000006 0.31180555550000005 545.50000000000011 0.096857411000000018 0.045983086500000006 0.019675926000000003 136.30321220000005 0.15470085500000005 39.500000000000007 0.025320513000000006 14.500000000000002 0.24780701750000003 0.050641025500000013 9.1647286825000016 0.05978387630234596 173.50000000000003 34.928395581805525 0.24780701750000003 574.50000000000011 43.500000000000007 0.051329062500000001 205.62770560000004 16.500000000000004 0.27003205100000005 0.20431354400000004
decision_type=2 2 2 2 2 2 2 2 2 2 2 2 2 2 2 2 2 2 2 2 2 2 2 2 2 2 2 2 2 2
left_child=2 3 5 13 11 10 8 -7 18 14 24 -3 15 26 -4 16 -13 -11 -5 20 -20 -9 -10 -16 -1 -6 -2 -27 -18 -15
right_child=1 4 9 6 25 7 -8 21 22 17 -12 12 -14 29 23 -17 28 -19 19 -21 -22 -23 -24 -25 -26 27 -28 -29 -30 -31
leaf_value=-0.0026496615175620407 0.0033752630752999155 0.0022714498752195922 -0.0011769315211977468 0.00041722665644354289 0.010179600261506581 0.0016059147666965146 0.007817291557633629 -0.0010900911090399635 0.0030684339383100102 4.4898379327082531e-05 -0.0017677857173087242 0.0026249460337028183 0.0065264806282870919 0.00051499867885567178 0.00069726065177327164 0.0069466702062636609 0.0044397753348251936 0.0012789276266324053 0.0021184853577454177 0.0022904527708357764 0.0061177923099603503 -0.0018885598888636072 0.0038808849248919194 -0.00056835270697376311 -0.0031804451878321492 0.0074190239398143239 0.0015819251372521062 0.0092186114285141233 0.0053342318608741134 0.0011084729047979637
leaf_weight=765 21 28 381 27 21 32 24 154 227 419 294 27 85 202 52 25 133 89 21 562 20 1336 241 639 409 39 243 28 121 384
leaf_count=765 21 28 381 27 21 32 24 154 227 419 294 27 85 202 52 25 133 89 21 562 20 1336 241 639 409 39 243 28 121 384
internal_value=0 0.00287609 -0.00156013 0.00216519 0.00564114 -0.00216961 0.00292762 -0.0017343 0.00282074 -0.000406768 -0.00262093 0.00500913 0.00520517 0.00115879 -0.000723256 0.00483815 0.00465055 0.000261096 0.00232594 0.00241141 0.00406937 -0.00180603 0.00348681 -0.000473111 -0.00283458 0.00865039 0.00172458 0.00817109 0.00486587 0.000903896
internal_weight=0 2479 4570 1972 507 2990 1122 1522 1098 1580 1468 419 391 850 1072 306 281 508 630 603 41 1490 468 691 1174 88 264 67 254 586
internal_count=7049 2479 4570 1972 507 2990 1122 1522 1098 1580 1468 419 391 850 1072 306 281 508 630 603 41 1490 468 691 1174 88 264 67 254 586
is_linear=0
shrinkage=0.1


Tree=6
num_leaves=31
num_cat=0
split_feature=35 35 40 43 43 42 42 17 43 40 41 6 40 42 40 38 24 2 40 1 42 43 9 43 1 42 14 43 11 19
split_gain=2.56198 0.394703 0.260209 0.12335 0.078105 0.0475817 0.0397581 0.0304587 0.0276726 0.0216737 0.0195361 0.0238086 0.0179598 0.0152449 0.0149766 0.0132675 0.0114825 0.010905 0.0108539 0.0097427 0.00857824 0.00804961 0.0069348 0.00831944 0.00612818 0.00593011 0.00540008 0.0058678 0.00477991 0.00475851
threshold=6.0813331999682223 9.5000000000000018 0.023532669000000003 0.22551624652358015 0.30523513750000003 0.051503094500000006 0.16493825785327204 395.00000000000006 0.17974358950000002 0.019675926000000003 0.040547945000000009 1650.5000000000002 0.094788859000000017 0.10230245950000001 0.15797682700000001 0.074537037000000014 0.028822792000000003 16.463758006000667 0.085960591500000016 33.500000000000007 0.11092182887259976 0.27195685700000005 194.90322580000003 0.20185185200000003 42.717647717394918 0.23466833550000002 699.50000000000011 0.32672684450000006 593.50000000000011 184.50000000000003
decision_type=2 2 2 2 2 2 2 2 2 2 2 2 2 2 2 2 2 2 2 2 2 2 2 2 2 2 2 2 2 2
left_child=2 3 5 15 10 9 12 -7 -4 24 11 -3 17 -10 20 22 -8 18 -5 -9 -12 -22 -2 -24 -1 26 27 -6 -15 -14
right_child=1 4 8 6 25 7 16 19 13 -11 14 -13 29 28 -16 -17 -18 -19 -20 -21 21 -23 23 -25 -26 -27 -28 -29 -30 -31
leaf_value=-0.0023644406195010314 0.002766043277965351 8.1529881849530205e-05 -0.00086342326124582639 0.0044859773119572894 0.0068477610436578594 0.0023158851172775034 0.0073059372999705373 -0.00076346779157662953 -0.00013798309331183238 -0.001591007128281861 0.0064404519647359854 0.0048433463565916539 0.0031247053565946516 0.0026072856304900989 0.0060677668295692705 0.0018803796042745884 0.0043022724028144565 0.00074399347572672969 0.00219468668798316 -0.001688888502349139 0.0038324797726494984 0.0048981940595521816 0.00041559874232060634 0.0011562638229796072 -0.0028307395610720557 0.0091258781962096688 0.0059202050510793929 0.0091669881343841558 0.00084652693155382215 0.0016175215471197258
leaf_weight=704 22 21 655 22 24 20 20 124 846 294 20 21 438 21 69 226 35 49 343 1378 162 126 204 591 470 24 20 20 58 22
leaf_count=704 22 21 655 22 24 20 20 124 846 294 20 21 438 21 69 226 35 49 343 1378 162 126 204 591 470 24 20 20 58 22
internal_value=0 0.00258848 -0.00140412 0.00194867 0.00507703 -0.00195265 0.00278668 -0.00156087 -0.000366091 -0.00235884 0.00450821 0.00246244 0.00262258 -1.39266e-05 0.00473613 0.00120226 0.00539451 0.00214475 0.00233279 -0.00161249 0.0044378 0.00429873 0.00101467 0.000966206 -0.00255112 0.00778535 0.00728266 0.00790196 0.00131458 0.00305262
internal_weight=0 2479 4570 1972 507 2990 929 1522 1580 1468 419 42 874 925 377 1043 55 414 365 1502 308 288 817 795 1174 88 64 44 79 460
internal_count=7049 2479 4570 1972 507 2990 929 1522 1580 1468 419 42 874 925 377 1043 55 414 365 1502 308 288 817 795 1174 88 64 44 79 460
is_linear=0
shrinkage=0.1


Tree=7
num_leaves=31
num_cat=0
split_feature=35 33 40 40 43 42 43 17 40 40 3 43 7 5 40 43 40 40 40 40 43 11 43 24 31 37 20 1 43 31
split_gain=2.07521 0.320245 0.211642 0.0997405 0.0691665 0.0408455 0.0227574 0.0217725 0.0191525 0.0179787 0.0175758 0.0151847 0.0146796 0.0108314 0.0104324 0.0118114 0.0103813 0.00833025 0.00774837 0.00756944 0.00636689 0.00624139 0.00602928 0.00559109 0.00554706 0.00506325 0.00504837 0.00480948 0.00440869 0.00371253
threshold=6.0813331999682223 5.5000000000000009 0.024099884000000002 0.091966173500000012 0.30523513750000003 0.054804805000000005 0.21975609750000002 395.00000000000006 0.047065338000000005 0.11451048950000002 8.7281736374108405 0.14799749700000003 38.075961540000009 212.41885965000003 0.11696306450000001 0.27361853850000006 0.063164893500000013 0.021980676000000001 0.16035714300000004 0.026671408000000004 0.23861283650000001 584.50000000000011 0.16247643000000003 0.028822792000000003 4.2727276387938167 11.500000000000002 186.50000000000003 32.500000000000007 0.20483683000000003 4.2727276387938167
decision_type=2 2 2 2 2 2 2 2 2 2 2 2 2 2 2 2 2 2 2 2 2 2 2 2 2 2 2 2 2 2
left_child=2 3 5 6 10 11 28 -7 19 20 -3 -1 -11 -14 -12 29 -8 22 -6 -4 -5 -10 -13 -15 -20 -18 -21 -9 -2 -16
right_child=1 4 8 9 18 7 16 27 21 12 14 17 13 23 15 -17 25 -19 24 26 -22 -23 -24 -25 -26 -27 -28 -29 -30 -31
leaf_value=-0.0023179516248123559 0.00065340707536830486 0.0017787075725209434 -0.0008228923409030987 0.0021089685544800419 0.0084959058384238579 0.0020842965086922054 0.0035635880945670989 -0.00060564121870025633 0.0021236614929512143 0.0062998897605575617 0.0061522966405251423 -0.0018018590816684535 0.001252157692797482 0.0053038499876856809 0.0024861491837159353 0.0047437176083851805 0.0017662849255915111 -0.0012649150839082425 0.0074669999380906418 0.00080634126235253935 0.0027496071940983123 0.0003004785004380563 -0.002521178604696285 0.0033310758424740213 0.0056013886217603131 0.00041410281303493925 -0.00033551866086447435 -0.0013300349001628302 0.0011193122073788855 0.0037454952094280584
leaf_weight=781 389 32 377 278 27 20 31 103 20 20 26 994 20 20 27 152 360 267 30 41 351 307 132 51 34 30 696 832 425 176
leaf_count=781 389 32 377 278 27 20 31 103 20 20 26 994 20 20 27 152 360 267 30 41 351 307 132 51 34 30 696 832 425 176
internal_value=0 0.00232963 -0.00126371 0.00175547 0.00457957 -0.00172553 0.00120538 -0.0011804 -0.00026091 0.00267352 0.00402968 -0.00196499 0.00384687 0.00330775 0.00421873 0.00407712 0.00180227 -0.0017671 0.00707524 -0.00045843 0.00246646 0.000411988 -0.00188618 0.00388679 0.00647589 0.00166227 -0.000271996 -0.00125024 0.000896662 0.003578
internal_weight=0 2479 4570 1975 504 3129 1235 955 1441 740 413 2174 111 91 381 355 421 1393 91 1114 629 327 1126 71 64 390 737 935 814 203
internal_count=7049 2479 4570 1975 504 3129 1235 955 1441 740 413 2174 111 91 381 355 421 1393 91 1114 629 327 1126 71 64 390 737 935 814 203
is_linear=0
shrinkage=0.1


Tree=8
num_leaves=31
num_cat=0
split_feature=35 35 40 33 43 42 43 37 43 25 38 42 40 42 1 43 13 40 12 1 3 5 40 43 42 7 43 40 40 13
split_gain=1.68092 0.263014 0.17179 0.0817838 0.0527872 0.0352481 0.033006 0.0199791 0.0205297 0.0181681 0.0153902 0.0156149 0.0144223 0.0144211 0.0135545 0.0114366 0.00742162 0.00660184 0.00550777 0.00534 0.00470932 0.00470586 0.00469067 0.00465396 0.00483769 0.00420152 0.00401759 0.00353206 0.00308968 0.00288833
threshold=6.0813331999682223 9.5000000000000018 0.024695122000000003 3.1646230069398107 0.30523513750000003 0.054804805000000005 0.31180555550000005 9.5000000000000018 0.23606811150000004 0.050948162000000012 0.040547945000000009 0.11092182887259976 0.021980676000000001 0.099019608000000023 39.500000000000007 0.27543103450000006 42.170390531137251 0.045983086500000006 2519.0213547373946 35.938249128568479 8.7281736374108405 200.86038965000003 0.1237426789477345 0.33630952350000004 0.16493825785327204 39.367137355000004 0.19586530250000003 0.11215932900000002 0.043961352500000002 46.500000000000007
decision_type=2 2 2 2 2 2 2 2 2 2 2 2 2 2 2 2 2 2 2 2 2 2 2 2 2 2 2 2 2 2
left_child=2 3 5 16 10 12 7 -5 20 -7 -3 -12 14 17 -1 22 18 19 -2 -4 -9 -10 -13 -6 -25 -15 -18 -23 -21 -11
right_child=1 4 13 6 23 9 -8 8 21 29 11 15 -14 25 -16 -17 26 -19 -20 28 -22 27 -24 24 -26 -27 -28 -29 -30 -31
leaf_value=-0.0015009734554935182 0.0028271275386214257 0.0017686711422403535 0.0003409035119251643 0.0051864348142407835 0.0056437264838152465 0.0011910660518333316 0.0058034732161710663 0.00014015108047585404 0.00099002393690170729 -0.001056786188206895 0.0063234895855809256 0.0019134701043367387 -0.0011114847335654001 0.00063749044938423837 -0.0020569283067082621 0.0043410574165142447 2.6351671315460787e-05 5.2314218042622302e-05 0.0011119409540709651 -0.00072445069593797377 0.001664300815744075 0.0022704558836465533 0.0033762716688215733 0.0061094670455254943 0.0082360103912651542 0.0022484081983566283 0.00073733227957167077 0.0028297339895226319 -0.00031542197244180089 -0.0015395035427705995
leaf_weight=684 20 39 79 20 45 35 24 21 20 854 24 25 300 85 1222 153 97 407 293 377 585 220 178 23 20 20 440 232 362 145
leaf_count=684 20 39 79 20 45 35 24 21 20 854 24 25 300 85 1222 153 97 407 293 377 585 220 178 23 20 20 440 232 362 145
internal_value=0 0.00209667 -0.00113734 0.00157439 0.00412809 -0.00153016 0.00213491 0.00205472 0.00199662 -0.00104839 0.00366047 0.00385463 -0.00175597 -0.000180393 -0.00185741 0.00368819 0.000834498 -0.000276798 0.00122154 -0.000440549 0.00161148 0.0024911 0.00319612 0.00635461 0.00709856 0.000944332 0.000608906 0.00255752 -0.000524088 -0.00112685
internal_weight=0 2479 4570 1972 507 3240 1122 1098 1078 1034 419 380 2206 1330 1906 356 850 1225 313 818 606 472 203 88 43 105 537 452 739 999
internal_count=7049 2479 4570 1972 507 3240 1122 1098 1078 1034 419 380 2206 1330 1906 356 850 1225 313 818 606 472 203 88 43 105 537 452 739 999
is_linear=0
shrinkage=0.1


Tree=9
num_leaves=31
num_cat=0
split_feature=35 35 40 43 43 42 42 42 40 5 40 25 40 37 43 40 43 43 24 11 21 1 33 25 42 43 1 8 27 43
split_gain=1.36154 0.213042 0.140099 0.0667926 0.0427577 0.0264006 0.0240226 0.0178067 0.0153508 0.0128038 0.0123637 0.010994 0.0106851 0.00978142 0.00869754 0.00817913 0.00898031 0.00707524 0.00638386 0.0062019 0.0055747 0.0041921 0.00416031 0.0041505 0.00449087 0.00371398 0.00369972 0.00337912 0.00305745 0.00418646
threshold=6.0813331999682223 9.5000000000000018 0.023532669000000003 0.22551624652358015 0.30523513750000003 0.050697475818767705 0.16663893835327204 0.069971440500000023 0.045983086500000006 136.30321220000005 0.019675926000000003 0.058865787500000009 0.15797682700000001 14.500000000000002 0.24780701750000003 0.059928255434314563 0.20991432100000004 0.23956521750000001 0.029063643500000003 581.50000000000011 38.500000000000007 43.500000000000007 11.500000000000002 0.051479395000000004 0.21807065200000003 0.17712418300000002 34.928395581805525 6875.0000000000009 60.500000000000007 0.26138716350000007
decision_type=2 2 2 2 2 2 2 2 2 2 2 2 2 2 2 2 2 2 2 2 2 2 2 2 2 2 2 2 2 2
left_child=2 3 5 15 9 10 11 26 19 -3 21 17 13 14 -11 -2 -17 -5 -8 -4 -10 -1 23 -6 -25 -21 -7 -9 29 -19
right_child=1 4 8 6 22 7 18 27 20 12 -12 -13 -14 -15 -16 16 -18 28 -20 25 -22 -23 -24 24 -26 -27 -28 -29 -30 -31
leaf_value=-0.001740150883930122 0.0028704756079241632 0.0012286983987516058 0.00049429449774775539 0.0017261445110095608 0.0064759578555822379 -0.00072552763612475249 0.0055107305105775595 0.0016936745211158111 0.0017478503159839998 0.0013221214167532271 -0.0011556100059097925 0.00014557215814848485 0.0045426989814990925 0.0050929290298372511 0.0032054859283293007 0.00054722475458142525 0.0011405891754674082 0.0023073229817909342 0.0032465670257806781 -0.00073521516847313074 0.00012038038732625791 -0.0021392745446313565 0.0069869780912995344 0.0038599644904024899 0.0058379679240963683 -0.00035142251158191799 -0.0012489127387377849 -8.3610797300934795e-05 0.0013259442281258968 0.0037992053426569327
leaf_weight=738 20 28 62 477 22 150 20 23 22 27 294 34 72 25 267 538 485 316 33 486 486 409 20 24 22 524 1356 20 29 20
leaf_count=738 20 28 62 477 22 150 20 23 22 27 294 34 72 25 267 538 485 316 33 486 486 409 20 24 22 524 1356 20 29 20
internal_value=0 0.001887 -0.0010236 0.00141695 0.00371528 -0.00142609 0.00203361 -0.00113949 -0.000261934 0.00329442 -0.00173417 0.00190853 0.00344235 0.003194 0.00303252 0.000867691 0.000828536 0.00197972 0.00410097 -0.000476505 0.000190861 -0.00188247 0.00571915 0.00534626 0.00480597 -0.000536099 -0.00119678 0.00086703 0.0023111 0.00239613
internal_weight=0 2479 4570 1972 507 2990 929 1549 1580 419 1441 876 391 319 294 1043 1023 842 53 1072 508 1147 88 68 46 1010 1506 43 365 336
internal_count=7049 2479 4570 1972 507 2990 929 1549 1580 419 1441 876 391 319 294 1043 1023 842 53 1072 508 1147 88 68 46 1010 1506 43 365 336
is_linear=0
shrinkage=0.1


Tree=10
num_leaves=31
num_cat=0
split_feature=35 35 40 43 43 42 42 42 40 38 42 37 40 40 25 40 7 43 6 43 27 41 1 1 43 24 1 11 43 8
split_gain=1.10285 0.172564 0.11348 0.0543253 0.0346337 0.0213845 0.0176277 0.0144234 0.0126276 0.0109342 0.0129743 0.0106069 0.0100146 0.00935098 0.00911027 0.00874773 0.00689938 0.00675136 0.00544452 0.00388713 0.00353355 0.00352701 0.00344037 0.0033956 0.00321144 0.0031895 0.00299677 0.0028226 0.00274042 0.00273709
threshold=6.0813331999682223 9.5000000000000018 0.023532669000000003 0.22792207800000003 0.30523513750000003 0.050697475818767705 0.16663893835327204 0.069971440500000023 0.048199768000000004 0.040547945000000009 0.11092182887259976 8.9119133559473394 0.019675926000000003 0.07229965150000002 0.058865787500000009 0.13397435900000002 38.679338826506324 0.17974358950000002 1448.5000000000002 0.24780701750000003 60.500000000000007 0.12834591600000003 42.217647717394918 43.500000000000007 0.20550527900000001 0.027317316000000005 34.928395581805525 581.50000000000011 0.28281378200000001 6875.0000000000009
decision_type=2 2 2 2 2 2 2 2 2 2 2 2 2 2 2 2 2 2 2 2 2 2 2 2 2 2 2 2 2 2
left_child=2 3 5 11 9 12 14 26 17 -3 -11 -2 23 22 19 16 -12 -4 -8 -5 -21 -6 -13 -1 -10 -18 -7 -19 -17 -9
right_child=1 4 8 6 21 7 18 29 24 10 15 13 -14 -15 -16 28 25 27 -20 20 -22 -23 -24 -25 -26 -27 -28 -29 -30 -31
leaf_value=-0.0015661357923443646 0.0029363425409731766 0.0013703996542459116 -0.00058232512898861001 0.0017115159087701748 0.0058568570995703347 -0.0006529748547278966 0.00286980829841923 0.0015243071485715716 0.00029835957855943386 0.0053790819637166958 0.0010076113763110093 0.00068340980867755466 -0.0010400489876268521 0.0011477851368044123 0.00012411966367248934 0.003117950606559004 0.0038628430012613534 0.00071385599345572903 0.0049420152480403583 0.0023579544992649451 0.001073478362620032 0.0045824315324093081 0.00011237633486206715 -0.0019253471415389722 0.001321282032625498 0.0024608359044027885 -0.0011240214653379095 -0.00018308064116295196 0.0038674992343334306 -7.5249723158776768e-05
leaf_weight=738 24 39 648 463 39 150 32 23 180 24 30 560 294 488 31 147 20 37 21 199 24 49 130 409 37 86 1356 678 73 20
leaf_count=738 24 39 648 463 39 150 32 23 180 24 30 560 294 488 31 147 20 37 21 199 24 49 130 409 37 86 1356 678 73 20
internal_value=0 0.0016983 -0.000921244 0.00127525 0.00334375 -0.00128348 0.00193103 -0.00102554 -0.000235741 0.00296498 0.00312863 0.000855166 -0.00156076 0.000812765 0.00180094 0.00297692 0.00234645 -0.000348542 0.00369087 0.00187672 0.00221971 0.00514723 0.000575824 -0.00169422 0.000472775 0.00272537 -0.0010771 -0.000136666 0.00336666 0.000780327
internal_weight=0 2479 4570 1972 507 2990 770 1549 1580 419 380 1202 1441 1178 717 356 136 1363 53 686 223 88 690 1147 217 106 1506 715 220 43
internal_count=7049 2479 4570 1972 507 2990 770 1549 1580 419 380 1202 1441 1178 717 356 136 1363 53 686 223 88 690 1147 217 106 1506 715 220 43
is_linear=0
shrinkage=0.1


Tree=11
num_leaves=31
num_cat=0
split_feature=35 33 40 40 43 42 40 3 43 17 40 40 42 1 43 41 40 43 43 31 35 26 16 1 34 25 40 7 1 43
split_gain=0.893309 0.140465 0.092693 0.0448157 0.0324514 0.0185109 0.0122711 0.0115367 0.0104482 0.0100311 0.00918214 0.008249 0.00797251 0.00769271 0.00703743 0.00532623 0.00454793 0.00453595 0.00453487 0.0037484 0.00350664 0.00309991 0.00282587 0.00278906 0.00369341 0.00244482 0.00243285 0.00234616 0.00234563 0.00231113
threshold=6.0813331999682223 5.5000000000000009 0.025320513000000006 0.091966173500000012 0.31180555550000005 0.056873315500000007 0.022474747500000003 8.7281736374108405 0.21975609750000002 395.00000000000006 0.11696306450000001 0.12012987000000001 0.10230245950000001 40.500000000000007 0.26253132850000005 0.0092551690616935346 0.16035714300000004 0.22886904800000002 0.24780701750000003 4.2727276387938167 10.895759644084942 0.028048431000000002 106.50000000000001 44.500000000000007 1.6783420980365809 0.053662891000000011 0.067424242500000023 37.299811440000006 42.717647717394918 0.25227272750000002
decision_type=2 2 2 2 2 2 2 2 2 2 2 2 2 2 2 2 2 2 2 2 2 2 2 2 2 2 2 2 2 2
left_child=2 3 5 8 7 6 13 -3 23 -7 -9 18 22 -1 21 -10 -6 27 -5 -18 -16 29 -4 24 -2 -14 -26 -17 -11 -12
right_child=1 4 12 11 16 9 -8 10 15 28 14 -13 25 -15 20 17 19 -19 -20 -21 -22 -23 -24 -25 26 -27 -28 -29 -30 -31
leaf_value=-0.0011625975523833077 0.0017861191711675091 0.00084917162930651111 -6.6369054066373802e-05 0.0015155096937925952 0.0059432673716434733 0.0014799192245118322 -0.00073492691355206332 0.004639704684870175 0.0024916365847055771 -0.00068192231443548661 0.00058859204873442652 0.0033878533472307031 0.0018524326384067537 -0.0015569517862978122 0.0025634529848085875 0.0022625287389382723 0.0051152245540704048 0.00015424477431857353 0.0020508772000952177 0.0033923047210049372 0.003269853559166393 0.0025942315574030619 -0.00047408047318235754 -0.00020404676761245357 0.00024005612399781776 0.00057306240837610631 0.00067164207598113498 0.0011467106337516219 -0.0010204492933740936 0.0019763745816557539
leaf_weight=1038 26 32 911 472 27 20 387 26 29 690 21 30 20 945 133 20 28 46 238 23 149 37 209 44 169 59 575 326 291 28
leaf_count=1038 26 32 911 472 27 20 387 26 29 690 21 30 20 945 133 20 28 46 238 23 149 37 209 44 169 59 575 326 291 28
internal_value=0 0.00152847 -0.00082912 0.00114821 0.00301856 -0.00109771 -0.00125001 0.00267521 0.000779478 -0.000737142 0.00282352 0.0017636 -7.39664e-05 -0.00135053 0.0026952 0.00118392 0.00489381 0.00108718 0.00169497 0.00433822 0.00293669 0.00190332 -0.000142451 0.000570301 0.000614549 0.000896954 0.000573607 0.00121121 -0.000782342 0.00138161
internal_weight=0 2479 4570 1975 504 3371 2370 426 1235 1001 394 740 1199 1983 368 421 78 392 710 51 282 86 1120 814 770 79 744 346 981 49
internal_count=7049 2479 4570 1975 504 3371 2370 426 1235 1001 394 740 1199 1983 368 421 78 392 710 51 282 86 1120 814 770 79 744 346 981 49
is_linear=0
shrinkage=0.1


Tree=12
num_leaves=31
num_cat=0
split_feature=35 35 40 43 43 42 42 40 41 25 37 40 40 1 42 40 37 30 31 24 9 40 34 30 43 43 21 13 43 1
split_gain=0.72358 0.115029 0.0750813 0.0361756 0.0238323 0.0149938 0.0126048 0.0100476 0.00918681 0.00872762 0.00742271 0.00665784 0.00761363 0.00662063 0.00652848 0.00637595 0.00612717 0.00550292 0.00698229 0.00428931 0.00406156 0.00403975 0.00370489 0.00463493 0.00284346 0.00281632 0.00272864 0.00218193 0.00194584 0.00187379
threshold=6.0813331999682223 9.5000000000000018 0.025320513000000006 0.22792207800000003 0.30330086600000006 0.056873315500000007 0.16663893835327204 0.021980676000000001 0.012903763000000002 0.050948162000000012 8.9119133559473394 0.099019608000000023 0.13270440250000001 40.500000000000007 0.099019608000000023 0.070598006500000018 11.500000000000002 11.083333335000001 5.5000000000000009 0.029063643500000003 203.69407530000004 0.17001204350000002 3.2141907026578291 10.387500000000001 0.24780701750000003 0.31311274500000003 41.767709695352224 46.500000000000007 0.21975609750000002 42.217647717394918
decision_type=2 2 2 2 2 2 2 2 2 2 2 2 2 2 2 2 2 2 2 2 2 2 2 2 2 2 2 2 2 2
left_child=2 3 5 10 8 7 16 13 -3 -7 -2 -10 17 -1 27 29 24 18 -13 -8 -18 -14 -6 25 -5 -24 -16 -4 -17 -12
right_child=1 4 14 6 22 9 19 -9 11 -11 15 12 21 -15 26 28 20 -19 -20 -21 -22 -23 23 -25 -26 -27 -28 -29 -30 -31
leaf_value=-0.0010463378148113948 0.0024284125237803286 0.00034428849550230162 -9.5310209651286058e-05 0.0013962810902518913 0.0048859717642986463 0.00088783517147281339 0.0042090752907097337 -0.00067613993212467657 0.0042234363566551894 -0.00071963260297838987 0.00050107622516195693 -0.00044325994815500014 0.002509212423382061 -0.0014147748708036607 0.0017061803639600321 0.00067436441584208678 -0.00059197738332643541 0.0026813841673235098 0.0018397221392070927 0.0023531530899080365 0.0012323135191064259 0.0036877937660778335 0.0034205611236393452 0.0024250324948557785 0.0018424259129785686 0.0050987504981458188 0.00043174306920263917 -0.000596825552025908 0.0010208938802138735 6.3519835821352897e-05
leaf_weight=1038 24 21 999 461 38 35 20 412 21 966 396 21 245 920 21 301 23 30 37 33 26 33 20 21 207 20 84 95 351 130
leaf_count=1038 24 21 999 461 38 35 20 412 21 966 396 21 245 920 21 301 23 30 37 33 26 33 20 21 207 20 84 95 351 130
internal_value=0 0.00137562 -0.000746208 0.00103023 0.00271905 -0.000987942 0.00156536 -0.001125 0.00238132 -0.000663427 0.000687424 0.00249186 0.00239251 -0.00121945 -6.65697e-05 0.000651953 0.00145536 0.00158185 0.00101313 0.0030535 0.000376014 0.00264912 0.0041109 0.00362806 0.00153453 0.00425966 0.000686631 -0.00013886 0.000860916 0.000392935
internal_weight=0 2479 4570 1972 507 3371 770 2370 408 1001 1202 387 366 1958 1199 1178 717 88 58 53 49 278 99 61 668 40 105 1094 652 526
internal_count=7049 2479 4570 1972 507 3371 770 2370 408 1001 1202 387 366 1958 1199 1178 717 88 58 53 49 278 99 61 668 40 105 1094 652 526
is_linear=0
shrinkage=0.1


Tree=13
num_leaves=31
num_cat=0
split_feature=35 33 40 40 43 42 40 35 31 31 25 40 9 41 40 40 40 1 6 33 9 6 11 40 40 1 1 40 16 40
split_gain=0.5861 0.093242 0.0616205 0.0294346 0.0223275 0.0124759 0.0105376 0.00882646 0.0219773 0.0108175 0.00864687 0.00742799 0.00765426 0.00739767 0.0274576 0.00587978 0.00537645 0.005349 0.00459683 0.00413268 0.00424706 0.00351161 0.00334142 0.00289001 0.00263625 0.00238338 0.00224495 0.00171076 0.00169975 0.00169909
threshold=6.0813331999682223 5.5000000000000009 0.022991543500000003 0.091966173500000012 0.31180555550000005 0.050697475818767705 0.026671408000000004 10.895759644084942 2.6763482175283717 2.1763482175283717 0.048255071500000003 0.059928255434314563 213.39974935000004 0.021507863000000002 0.12012987000000001 0.070598006500000018 0.14415584400000001 39.500000000000007 1661.5000000000002 11.500000000000002 216.38149690000003 1613.5000000000002 552.50000000000011 0.10990338150000002 0.019675926000000003 33.500000000000007 43.500000000000007 0.17001204350000002 106.50000000000001 0.044949494500000006
decision_type=2 2 2 2 2 2 2 2 2 2 2 2 2 2 2 2 2 2 2 2 2 2 2 2 2 2 2 2 2 2
left_child=2 3 5 11 7 24 -4 8 -3 -9 -7 12 -2 -5 23 28 -11 22 21 20 -6 -10 -8 -15 26 -12 -1 -18 -13 -19
right_child=1 4 6 13 19 10 17 9 18 16 25 15 -14 14 -16 -17 27 29 -20 -21 -22 -23 -24 -25 -26 -27 -28 -29 -30 -31
leaf_value=-0.0011435640537934657 0.0031656515156931204 -0.0010508248172700406 -0.00050491305794482099 -0.00037929471264677971 0.0023520787556966147 0.00088808146125126265 0.0015930351242423057 0.0048659063782542948 0.0020848018869039525 0.001113225361418531 -0.00036094916744396684 0.00042029177814491845 0.00052504074105638125 0.0012035497427264012 0.0051355901686474682 0.00078464030028550097 0.0024229550309189897 -0.0003882546614234646 0.0035294625314418225 0.0048802961162436988 0.0042811275869607925 0.00068218113854527477 0.00025379723023541054 0.0016154703960390921 -0.0008455514731375794 -0.00084042277702543397 -0.0014356396985319979 0.0031620498994986215 -4.5667428547810569e-05 -6.1793303986227272e-05
leaf_weight=738 23 25 769 22 21 31 20 20 166 27 113 445 21 403 20 651 103 225 20 32 25 20 272 295 190 1256 409 45 95 547
leaf_count=738 23 25 769 22 21 31 20 20 166 27 113 445 21 403 20 651 103 225 20 32 25 20 272 295 190 1256 409 45 95 547
internal_value=0 0.00123806 -0.000671587 0.000928248 0.00245211 -0.00097209 -0.000222882 0.0021673 0.00174909 0.00266273 -0.000763448 0.000629415 0.00190536 0.00142698 0.00148232 0.000582277 0.00241094 -1.90458e-05 0.00208888 0.00400758 0.00340047 0.00193398 0.000345526 0.00137764 -0.00119056 -0.000800846 -0.00124771 0.00264768 0.000338317 -0.000156941
internal_weight=0 2479 4570 1975 504 2737 1833 426 231 195 1400 1235 44 740 718 1191 175 1064 206 78 46 186 292 698 1337 1369 1147 148 540 772
internal_count=7049 2479 4570 1975 504 2737 1833 426 231 195 1400 1235 44 740 718 1191 175 1064 206 78 46 186 292 698 1337 1369 1147 148 540 772
is_linear=0
shrinkage=0.1


Tree=14
num_leaves=31
num_cat=0
split_feature=35 33 40 40 43 42 40 3 40 42 6 41 43 38 43 5 40 43 25 40 43 13 29 1 5 40 40 1 34 2
split_gain=0.474741 0.075526 0.0499126 0.023842 0.0180853 0.0101055 0.00853544 0.00801637 0.00794922 0.00749959 0.00673559 0.00670591 0.00604346 0.00538671 0.00523625 0.00454582 0.00424478 0.00382946 0.00372216 0.00352897 0.00330719 0.00306761 0.00300297 0.00264054 0.00214794 0.00213536 0.00208601 0.00201986 0.00257117 0.00196962
threshold=6.0813331999682223 5.5000000000000009 0.022991543500000003 0.091966173500000012 0.31180555550000005 0.050697475818767705 0.026671408000000004 8.7281736374108405 0.11696306450000001 0.088081554339303106 1718.5000000000002 0.035045461605106611 0.21975609750000002 0.073622403000000017 0.28708791200000006 221.08974360000002 0.11451048950000002 0.35767590600000004 0.053188199500000012 0.1224671689477345 0.22886904800000002 43.760375472834262 196.33044841968294 32.500000000000007 198.11766335000002 0.019675926000000003 0.13270440250000001 44.500000000000007 1.6783420980365809 16.055267198990752
decision_type=2 2 2 2 2 2 2 2 2 2 2 2 2 2 2 2 2 2 2 2 2 2 2 2 2 2 2 2 2 2
left_child=2 3 5 12 7 25 -4 -3 -9 23 11 -5 27 -10 26 21 -13 20 -18 -6 24 -8 -21 -7 -14 -1 29 28 -2 -15
right_child=1 4 6 10 19 9 15 8 13 -11 -12 16 17 14 -16 -17 18 -19 -20 22 -22 -23 -24 -25 -26 -27 -28 -29 -30 -31
leaf_value=-0.0011229417875487076 0.0014225474272209866 0.00042842377879424024 -0.0004544217519611072 -0.0003169248225512328 0.004752272190526128 -0.00023784495108961084 0.00016360478549317718 0.0037640616046981171 0.00035888180049369116 0.0012354536994826049 0.0029321475798496977 0.0011921867326239726 0.0018988800485385583 0.0017124389338752499 0.0027803612051923807 0.0014762402779888361 0.0030565024480562319 0.0021903482265770435 0.0015653197144690368 0.0040682777840023244 -0.00015394067335309407 -0.00018610148958861828 0.0026072964250274441 -0.00075507040742970569 0.00083310803427342171 -0.0007609963125402206 0.0019982364607378116 -0.00025158785521687768 0.00041088114774401644 0.0005237463628873229
leaf_weight=1147 26 32 769 27 20 107 419 26 20 20 24 597 20 46 76 20 22 21 70 24 33 625 34 1273 347 190 206 44 744 20
leaf_count=1147 26 32 769 27 20 107 419 26 20 20 24 597 20 46 76 20 22 21 70 24 33 625 34 1273 347 190 206 44 744 20
internal_value=0 0.00111425 -0.000604428 0.000835423 0.0022069 -0.000874881 -0.000200594 0.00195057 0.0020742 -0.000687104 0.00128428 0.00122904 0.000566474 0.00195481 0.00204653 -1.71412e-05 0.00128962 0.00087407 0.00192191 0.00360682 0.000804965 -4.575e-05 0.00321184 -0.000714967 0.000891188 -0.00107151 0.00184148 0.000407386 0.000445041 0.00135223
internal_weight=0 2479 4570 1975 504 2737 1833 426 394 1400 740 716 1235 368 348 1064 689 421 92 78 400 1044 58 1380 367 1337 272 814 770 66
internal_count=7049 2479 4570 1975 504 2737 1833 426 394 1400 740 716 1235 368 348 1064 689 421 92 78 400 1044 58 1380 367 1337 272 814 770 66
is_linear=0
shrinkage=0.1


Tree=15
num_leaves=31
num_cat=0
split_feature=35 35 40 33 43 37 42 5 43 34 41 31 42 17 43 11 40 14 41 15 40 16 3 12 5 5 33 16 40 3
split_gain=0.38454 0.062245 0.0406272 0.0200679 0.0135799 0.0131083 0.00813169 0.00745186 0.00729612 0.00631723 0.0082976 0.00561005 0.00543364 0.0053706 0.00521422 0.00341731 0.00335817 0.00297704 0.0042526 0.00296546 0.00314072 0.00290621 0.00268143 0.00244426 0.00316105 0.00217838 0.00196381 0.0018668 0.00177771 0.00159098
threshold=6.0813331999682223 9.5000000000000018 0.023532669000000003 3.1646230069398107 0.31180555550000005 9.5000000000000018 0.054804805000000005 136.30321220000005 0.23606811150000004 2.1836526408063985 0.065942029000000013 7.1638160388589283 0.099019608000000023 395.00000000000006 0.30135515341326574 857.50000000000011 0.026671408000000004 699.50000000000011 0.16496598650000002 659.50000000000011 0.13270440250000001 108.50000000000001 9.9310253700000022 3087.5000000000005 193.55436115000001 215.62509650000001 0.7964352131659701 106.50000000000001 0.067424242500000023 8.8585714285000012
decision_type=2 2 2 2 2 2 2 2 2 2 2 2 2 2 2 2 2 2 2 2 2 2 2 2 2 2 2 2 2 2
left_child=2 3 6 23 7 -5 21 -3 15 -9 -11 19 16 -8 -10 29 -4 18 -6 -12 22 -1 -21 24 -2 -14 -23 -18 -26 -7
right_child=1 4 12 5 17 8 13 9 14 10 11 -13 25 -15 -16 -17 27 -19 -20 20 -22 26 -24 -25 28 -27 -28 -29 -30 -31
leaf_value=-0.00080243230632481919 0.0013145151880028583 0.00019780994708915907 -0.00038992564664104296 0.0032456040060004363 0.0046339072403497996 -8.5399900999618704e-05 0.0011173861683346331 0.0034941965673604743 0.0011916704731050141 -0.00019506622629705817 0.0029834104422479871 0.0035252219345420599 0.00034028984962359947 -0.00054058235989382065 0.0028023033369598644 -0.00040302651230013001 2.7590374843245878e-07 0.0023147478204919025 0.0028044386249449519 0.0015760002339410843 0.001898083058368948 -0.0011860121471753584 0.00028584796236827973 -0.00061258628265932209 0.00011459876003951364 0.0015002335747703911 -0.00069386879054522059 -0.00033752924556432868 0.0004574262261247406 0.00082226191584474067
leaf_weight=1641 37 28 513 26 24 20 20 23 469 20 20 20 85 845 21 25 753 24 27 49 248 381 24 24 204 20 103 209 585 561
leaf_count=1641 37 28 513 26 24 20 20 23 469 20 20 20 85 845 21 25 753 24 27 49 248 381 24 24 204 20 103 209 585 561
internal_value=0 0.00100283 -0.000543985 0.000748753 0.00199107 0.00102641 -0.000760727 0.00177543 0.000973766 0.00188477 0.00178761 0.00189746 -0.000133822 -0.000502248 0.0012607 0.000741758 -0.0001833 0.00323317 0.00366537 0.00180199 0.00172838 -0.000865944 0.00115184 0.000382244 0.00041115 0.000561232 -0.00108128 -7.31142e-05 0.000368786 0.000791017
internal_weight=0 2479 4570 1972 507 1122 2990 432 1096 404 381 361 1580 865 490 606 1475 75 51 341 321 2125 73 850 826 105 484 962 789 581
internal_count=7049 2479 4570 1972 507 1122 2990 432 1096 404 381 361 1580 865 490 606 1475 75 51 341 321 2125 73 850 826 105 484 962 789 581
is_linear=0
shrinkage=0.1


Tree=16
num_leaves=31
num_cat=0
split_feature=35 35 40 37 40 5 42 52 11 5 40 42 14 7 38 40 42 25 37 43 20 5 30 38 43 14 40 40 16 1
split_gain=0.311478 0.0509314 0.0332358 0.0180421 0.0200017 0.0197239 0.0173066 0.0129869 0.00868193 0.018365 0.0074846 0.00700772 0.00560519 0.0092437 0.00788209 0.00555861 0.0054779 0.00515573 0.00496915 0.00667723 0.0025984 0.00256396 0.00338587 0.00252219 0.00226907 0.00222614 0.00170901 0.00153883 0.00162132 0.00142786
threshold=6.0813331999682223 8.5000000000000018 0.022991543500000003 12.500000000000002 0.085960591500000016 164.54642855 0.15590277800000005 86.286898250660116 872.50000000000011 164.54642855 0.074537037000000014 0.050697475818767705 719.50000000000011 36.811738650000009 0.086335404000000018 0.045983086500000006 0.23205128200000003 0.050948162000000012 16.500000000000004 0.26253132850000005 188.50000000000003 199.17424245000004 12.366666665000002 0.13548951050000005 0.20550527900000001 709.50000000000011 0.17817460350000003 0.019675926000000003 109.04174871279371 35.938249128568479
decision_type=2 2 2 2 2 2 2 2 2 2 2 2 2 2 2 2 2 2 2 2 2 2 2 2 2 2 2 2 2 2
left_child=2 6 11 12 7 -6 8 -5 9 -2 21 27 13 -3 -15 20 18 -13 19 -7 -4 -11 -23 -16 -17 -12 -21 28 -1 -19
right_child=1 3 15 4 5 16 -8 -9 -10 10 25 17 -14 14 23 24 -18 29 -20 26 -22 22 -24 -25 -26 -27 -28 -29 -30 -31
leaf_value=-0.00087353201400089484 0.0034864403285263554 0.0032813021997836508 0.00045442504779202864 0.0060244197957217693 -0.00097293184017357623 5.9924651286564763e-05 0.0034125663783578647 0.0024638446934875987 -0.0015475472364050802 -0.00018241254147142172 0.00077410320309838625 0.0006273267292676287 -1.5159792302357447e-05 -0.00066366591490805158 0.001184959173667672 6.1093776177508421e-05 0.0036812299955636266 -0.0004054143131169641 0.0034447904850821946 0.0018429707007965555 -0.00029502894273548779 0.00031855595202315133 0.0016399208235088735 0.0018414949928757859 0.00086446333382474757 5.6383974151685837e-05 0.002677393862977624 -0.00061042446814673517 -0.0012378480439509849 -0.00064334926028484184
leaf_weight=1008 21 22 48 20 23 20 21 21 20 101 714 36 36 22 462 470 20 334 20 135 1277 638 20 67 38 46 30 190 139 1030
leaf_count=1008 21 22 48 20 23 20 21 21 20 101 714 36 36 22 462 470 20 334 20 135 1277 638 20 67 38 46 30 190 139 1030
internal_value=0 0.000902546 -0.000489587 0.00150397 0.00215465 0.00181639 0.000560939 0.00420071 0.000522552 0.000549436 0.000508833 -0.00071028 0.00119519 0.00127124 0.00119098 -0.000160052 0.00210152 -0.00055391 0.0019474 0.00178552 -0.000267879 0.000286711 0.000358719 0.00126811 0.000121188 0.000730662 0.00199468 -0.000874018 -0.000917682 -0.000585087
internal_weight=0 2479 4570 898 289 248 1581 41 1560 1540 1519 2737 609 573 551 1833 225 1400 205 185 1325 759 658 529 508 760 165 1337 1147 1364
internal_count=7049 2479 4570 898 289 248 1581 41 1560 1540 1519 2737 609 573 551 1833 225 1400 205 185 1325 759 658 529 508 760 165 1337 1147 1364
is_linear=0
shrinkage=0.1


Tree=17
num_leaves=31
num_cat=0
split_feature=35 35 40 37 40 5 42 52 11 5 40 42 40 43 35 42 11 43 38 7 40 1 41 27 40 14 25 40 40 13
split_gain=0.252297 0.0412544 0.0272106 0.0146141 0.0162014 0.0159764 0.0140184 0.0105194 0.00703236 0.0148757 0.00616874 0.00589595 0.00464914 0.00762914 0.00452629 0.00393558 0.00361652 0.00298159 0.00269735 0.00248699 0.00241533 0.00350693 0.0022815 0.00221098 0.0021421 0.0016484 0.00200699 0.00150417 0.00150091 0.00130587
threshold=6.0813331999682223 8.5000000000000018 0.024695122000000003 12.500000000000002 0.085960591500000016 164.54642855 0.15590277800000005 86.286898250660116 872.50000000000011 164.54642855 0.085410334500000004 0.056873315500000007 0.13680926900000004 0.22886904800000002 14.039607064739023 0.088081554339303106 566.50000000000011 0.28281378200000001 0.043015726000000004 37.511911515000008 0.019675926000000003 41.500000000000007 0.089087301500000007 61.500000000000007 0.044949494500000006 712.50000000000011 0.054463396500000004 0.17817460350000003 0.067424242500000023 46.500000000000007
decision_type=2 2 2 2 2 2 2 2 2 2 2 2 2 2 2 2 2 2 2 2 2 2 2 2 2 2 2 2 2 2
left_child=2 6 11 12 7 -6 8 -5 9 -2 18 20 13 -3 17 29 19 22 -11 -4 21 -1 -7 28 -18 26 -15 -19 -20 -13
right_child=1 3 16 4 5 14 -8 -9 -10 10 -12 15 -14 25 -16 -17 24 27 23 -21 -22 -23 -24 -25 -26 -27 -28 -29 -30 -31
leaf_value=-0.00063795606953494818 0.0031377963177614482 -0.00050283461187063951 0.00023003139875880962 0.0054219778650440274 -0.000875638700697733 0.00037246309337206189 0.0030713097369741826 0.0022174601531809285 -0.0013927925284951926 -0.0003701672645979285 0.00068939844141927562 -0.0003721927979167647 0.002042289359657013 0.0010819241310879512 0.0032892969126502671 0.00099600996938534084 -0.00024479756533058063 0.0017938117287121713 5.4197640293327605e-05 0.0016208317058044486 -0.00045416851114326472 -0.00092994681539557134 0.0015854766457409101 0.0012757200878695586 1.7410253237747549e-05 0.00019647244043881075 0.0021038696845062078 0.0025348527977863949 0.00037905179648714998 -0.00069783603090086375
leaf_weight=1276 21 32 36 20 23 20 21 21 20 59 655 817 46 491 21 20 543 70 187 20 375 607 69 24 731 20 20 45 594 145
leaf_count=1276 21 32 36 20 23 20 21 21 20 59 655 817 46 491 21 20 543 70 187 20 375 607 69 24 731 20 20 45 594 145
internal_value=0 0.000812292 -0.000440628 0.00135357 0.00193918 0.00163475 0.000504845 0.00378064 0.000470297 0.000494493 0.000457949 -0.000596966 0.00107568 0.000996698 0.00189137 -0.000392411 -5.97748e-05 0.00174746 0.000282487 0.000726746 -0.000685927 -0.000732082 0.00131289 0.000330322 -9.43471e-05 0.00108707 0.00112192 0.00208378 0.00030127 -0.000421276
internal_weight=0 2479 4570 898 289 248 1581 41 1560 1540 1519 3240 609 563 225 982 1330 204 864 56 2258 1883 89 805 1274 531 511 115 781 962
internal_count=7049 2479 4570 898 289 248 1581 41 1560 1540 1519 3240 609 563 225 982 1330 204 864 56 2258 1883 89 805 1274 531 511 115 781 962
is_linear=0
shrinkage=0.1


Tree=18
num_leaves=31
num_cat=0
split_feature=35 35 40 37 40 5 42 52 3 5 37 38 42 42 40 43 37 43 42 40 11 43 1 19 7 40 14 25 40 40
split_gain=0.20436 0.0334161 0.0221005 0.0118374 0.0131231 0.0129409 0.0113549 0.00852071 0.00705945 0.0158757 0.00592778 0.00501876 0.00439009 0.00391039 0.00387901 0.0056839 0.00349737 0.00498608 0.00319079 0.00302931 0.00297962 0.00206411 0.00190326 0.00180238 0.00156696 0.00152639 0.0013694 0.00178324 0.00130351 0.00121495
threshold=6.0813331999682223 8.5000000000000018 0.025320513000000006 12.500000000000002 0.085960591500000016 164.54642855 0.15590277800000005 86.286898250660116 9.0440038680000026 175.07692310000002 15.081121062631039 0.07229965150000002 0.056873315500000007 0.23205128200000003 0.13270440250000001 0.22622379352358016 16.500000000000004 0.26253132850000005 0.079143651139616231 0.022991543500000003 552.50000000000011 0.19538706250000001 40.500000000000007 181.50000000000003 38.69139194000001 0.048199768000000004 712.50000000000011 0.054330616500000005 0.019675926000000003 0.07229965150000002
decision_type=2 2 2 2 2 2 2 2 2 2 2 2 2 2 2 2 2 2 2 2 2 2 2 2 2 2 2 2 2 2
left_child=2 6 12 14 7 -6 8 -5 -2 -10 11 21 19 16 15 -3 17 -7 -14 22 -4 -11 -1 -13 -16 -22 27 -17 -24 -23
right_child=1 3 20 4 5 13 -8 -9 9 10 -12 23 18 -15 24 26 -18 -19 -20 -21 25 29 28 -25 -26 -27 -28 -29 -30 -31
leaf_value=-0.00054899538471946683 -0.0011223851521710206 -0.00047725684632877671 0.0011825240124017002 0.0048797800444299357 -0.00078807485735286854 -5.493791526532732e-05 0.0027641787282412962 0.0019957141374193489 0.0032515036629047244 -0.00044103823533269435 -0.0012946663367620205 0.00061985634562123813 -0.00038295959162242221 0.0030369213456287979 0.0022528565768152476 0.00091375808451493181 0.0028282339591532944 0.0016169544171795926 0.00068151222578057187 -0.00030319295000043458 -0.00010148648032795303 0.00025201984347903263 -0.00079384790033586996 0.0015843563013186214 0.0012956335359268776 0.00019534575166423493 0.00011526490969117731 0.0018386191857809372 -0.00050396517078441232 0.00055805919097829358
leaf_weight=1038 29 31 20 20 23 20 21 21 20 38 20 620 972 20 20 398 20 165 29 297 968 651 845 20 118 211 20 22 190 162
leaf_count=1038 29 31 20 20 23 20 21 21 20 38 20 620 972 20 20 398 20 165 29 297 968 651 845 20 118 211 20 22 190 162
internal_value=0 0.000731062 -0.000396565 0.00121822 0.00174527 0.00147127 0.000454361 0.00340258 0.000423267 0.000452545 0.000415497 0.000438437 -0.000527717 0.00170223 0.000968108 0.000831498 0.00157202 0.00143621 -0.000352121 -0.000601882 -2.78319e-05 0.000279331 -0.000644675 0.000649997 0.00143436 -4.83638e-05 0.000923706 0.000962203 -0.000740633 0.000313002
internal_weight=0 2479 4570 898 289 248 1581 41 1560 1531 1511 1491 3371 225 609 471 205 185 1001 2370 1199 851 2073 640 138 1179 440 420 1035 813
internal_count=7049 2479 4570 898 289 248 1581 41 1560 1531 1511 1491 3371 225 609 471 205 185 1001 2370 1199 851 2073 640 138 1179 440 420 1035 813
is_linear=0
shrinkage=0.1


Tree=19
num_leaves=31
num_cat=0
split_feature=35 35 40 37 40 5 42 52 11 5 37 27 11 38 42 40 43 42 43 40 8 14 27 40 7 13 14 43 9 25
split_gain=0.165532 0.027067 0.017926 0.00958831 0.0106297 0.0105264 0.00919744 0.00690178 0.0058087 0.0113039 0.00478326 0.0044918 0.004388 0.00411925 0.00337617 0.00335027 0.00499387 0.00240485 0.00223597 0.00220407 0.00195788 0.00166003 0.00162338 0.00157664 0.00140579 0.00118245 0.00114144 0.00147093 0.00143869 0.00099306
threshold=6.0813331999682223 8.5000000000000018 0.022991543500000003 12.500000000000002 0.085960591500000016 172.95714285000003 0.15590277800000005 86.286898250660116 872.50000000000011 164.54642855 15.081121062631039 61.500000000000007 569.50000000000011 0.07229965150000002 0.099019608000000023 0.13680926900000004 0.22622379352358016 0.050697475818767705 0.28708791200000006 0.026671408000000004 8274.5000000000018 694.50000000000011 1.5 0.065942029000000013 39.367137355000004 46.500000000000007 713.50000000000011 0.27195685700000005 212.83965730000003 0.053924710500000007
decision_type=2 2 2 2 2 2 2 2 2 2 2 2 2 2 2 2 2 2 2 2 2 2 2 2 2 2 2 2 2 2
left_child=2 6 12 15 7 -6 8 -5 9 -2 13 18 22 23 19 16 -3 -14 20 -4 -7 -15 -1 -11 -16 -21 27 -18 -29 -17
right_child=1 3 14 4 5 11 -8 -9 -10 10 -12 -13 17 21 24 29 26 -19 -20 25 -22 -23 -24 -25 -26 -27 -28 28 -30 -31
leaf_value=0.00078989754876364847 0.0027071467822506316 -0.0004295311248560827 -0.00027491456257421331 0.0043918020420824176 -0.00046619816908034789 0.00011737685650587082 0.0024877609086355994 0.0017961427458517609 -0.0013123157172231005 -0.0001163777719144631 -0.0011651997032458895 0.0025656625568690537 -0.00064214917492681929 0.00055274023786308125 0.00025818059628363699 0.0021367006003856662 0.00085377442354618365 -0.00044949185555235931 0.0016851368317540771 -1.0872134233764756e-05 0.0012488141017876423 0.001418015485852147 -0.00012721792639543614 0.00029889971998590416 0.0011899982998875205 -0.0003824990115275509 0.00013502361078280957 0.0020851669600233436 0.00092548577762816258 0.0012065577405420218
leaf_weight=23 21 31 766 20 29 20 21 21 20 104 20 37 1336 616 85 24 469 1258 97 867 65 23 120 756 20 95 20 20 23 22
leaf_count=23 21 31 766 20 29 20 21 21 20 104 20 37 1336 616 85 24 469 1258 97 867 65 23 120 756 20 95 20 20 23 22
internal_value=0 0.000657956 -0.000356909 0.0010964 0.00157074 0.00132415 0.000408925 0.00306232 0.00038094 0.000402931 0.000371075 0.00156122 -0.000518988 0.000391573 -0.000114895 0.000871297 0.000804254 -0.000548717 0.00135703 -0.00014835 0.000982594 0.000583885 2.02902e-05 0.00024868 0.00043567 -4.75713e-05 0.000876147 0.000905097 0.00146487 0.00169185
internal_weight=0 2479 4570 898 289 248 1581 41 1560 1540 1519 219 2737 1499 1833 609 563 2594 182 1728 85 639 143 860 105 962 532 512 43 46
internal_count=7049 2479 4570 898 289 248 1581 41 1560 1540 1519 219 2737 1499 1833 609 563 2594 182 1728 85 639 143 860 105 962 532 512 43 46
is_linear=0
shrinkage=0.1


Tree=20
num_leaves=31
num_cat=0
split_feature=35 35 40 43 42 41 38 38 42 3 5 43 37 34 38 25 16 11 43 9 42 40 40 8 43 33 34 25 40 40
split_gain=0.134081 0.0219243 0.0145816 0.00826164 0.00744993 0.00633011 0.0119644 0.0132409 0.0104994 0.0060636 0.0120228 0.00442539 0.0038879 0.00379761 0.00331335 0.00312356 0.00257577 0.00251916 0.0023343 0.00198938 0.00173974 0.00159853 0.00157145 0.00154479 0.000983186 0.00094157 0.000833691 0.00108003 0.000806806 0.000741531
threshold=6.0813331999682223 8.5000000000000018 0.024099884000000002 0.34045454550000004 0.15590277800000005 0.012287372295576146 0.020008003000000003 0.040547945000000009 0.11092182887259976 8.8585714285000012 175.07692310000002 0.27543103450000006 15.081121062631039 2.6836526408063985 0.07229965150000002 0.048255071500000003 108.50000000000001 572.50000000000011 0.23166368550000002 193.53589525000004 0.056873315500000007 0.068573667500000018 0.045983086500000006 8737.5000000000018 0.19538706250000001 0.7964352131659701 7.174567338299199 0.054072324500000012 0.11451048950000002 0.022474747500000003
decision_type=2 2 2 2 2 2 2 2 2 2 2 2 2 2 2 2 2 2 2 2 2 2 2 2 2 2 2 2 2 2
left_child=2 4 15 5 9 -3 -7 -8 -9 -2 -11 18 14 -5 21 -1 20 19 -10 -4 29 24 -19 -16 -12 -18 27 -13 -20 -17
right_child=1 3 17 13 -6 6 7 8 11 10 12 26 -14 -15 23 16 25 22 28 -21 -22 -23 -24 -25 -26 -27 -28 -29 -30 -31
leaf_value=0.00055636940674195373 -0.0011715129234989245 -0.00064826123230159291 0.00017202800003493707 0.0032627213957973503 0.0022389847696537061 0.0033232890163725688 -0.0013599505112506451 0.0028124701943791786 -0.00022495210818622424 0.0028042901505250482 -0.00040881729098481102 0.0013302807236795088 -0.0010486797127668979 0.0013587807875592264 0.00049900121973722332 -0.00048720428564896193 -0.0007311046955389127 -0.00016560530774742575 0.00068117599854412587 0.0013885412795934828 -0.00027727561054050797 0.00034903930344148265 5.6887142760902559e-05 0.001391924799027038 0.00012719970951831445 -0.00047861287440658393 0.0018411235400260643 0.0005793490473562005 0.0009265520119928379 -0.00029856358445057079
leaf_weight=31 26 25 41 22 21 21 25 30 23 20 38 148 20 20 620 1500 384 885 268 20 732 472 495 20 344 240 26 22 268 242
leaf_count=31 26 25 41 22 21 21 25 30 23 20 38 148 20 20 620 1500 384 885 268 20 732 472 495 20 344 240 26 22 268 242
internal_value=0 0.000592161 -0.000321218 0.000986756 0.000368032 0.00091957 0.000966737 0.000905641 0.000977793 0.000342846 0.000368513 0.000904892 0.000336337 0.00235608 0.000354878 -0.000442438 -0.000452432 -5.79997e-05 0.000761533 0.000570885 -0.000406639 0.000225958 -8.57982e-05 0.000526905 7.38786e-05 -0.000633992 0.00131376 0.0012331 0.000803864 -0.000460998
internal_weight=0 2479 4570 898 1581 856 831 810 785 1560 1534 755 1514 42 1494 3129 3098 1441 559 61 2474 854 1380 640 382 624 196 170 536 1742
internal_count=7049 2479 4570 898 1581 856 831 810 785 1560 1534 755 1514 42 1494 3129 3098 1441 559 61 2474 854 1380 640 382 624 196 170 536 1742
is_linear=0
shrinkage=0.1


Tree=21
num_leaves=31
num_cat=0
split_feature=35 42 35 40 3 5 33 38 41 5 7 15 38 42 38 43 16 42 5 43 16 42 38 40 7 43 40 40 30 33
split_gain=0.108605 0.019115 0.0156673 0.0119115 0.00572006 0.013889 0.00465156 0.0105821 0.00685933 0.00792727 0.00485621 0.00364904 0.00401109 0.00292992 0.00277321 0.00407783 0.0026268 0.00243027 0.00208926 0.00169272 0.00150914 0.00144007 0.00114298 0.00111812 0.00111299 0.00105568 0.000994845 0.000922822 0.000777368 0.000762671
threshold=6.0813331999682223 0.23466833550000002 8.5000000000000018 0.025320513000000006 8.7281736374108405 172.95714285000003 6.5000000000000009 0.023346657000000003 0.040547945000000009 176.66135135000005 36.811738650000009 855.50000000000011 0.076197387500000019 0.14854215900000003 0.089087301500000007 0.26598639450000006 108.50000000000001 0.082207207000000018 221.08974360000002 0.27543103450000006 97.500000000000014 0.056873315500000007 0.042109929000000004 0.022991543500000003 38.841507175000004 0.25556655100000009 0.077677225000000016 0.048199768000000004 2.2250000000000005 0.7964352131659701
decision_type=2 2 2 2 2 2 2 2 2 2 2 2 2 2 2 2 2 2 2 2 2 2 2 2 2 2 2 2 2 2
left_child=3 2 4 16 -2 -6 8 -8 9 -4 -10 12 -9 -14 15 20 17 21 27 -15 26 23 28 -1 -16 -12 -7 -5 -22 -18
right_child=1 -3 6 18 5 14 7 11 10 -11 25 -13 13 19 24 -17 29 -19 -20 -21 22 -23 -24 -25 -26 -27 -28 -29 -30 -31
leaf_value=-0.00043335770297991293 -0.0011584712470021959 0.0029236157643467639 -0.0019720692734699697 -7.5452440962960423e-05 0.0029553453045082279 0.0003276803292976638 0.0032029231146831687 -0.00015987633993236593 0.0022491356178017505 0.00061582096747989806 0.00061325343168034156 -7.4378988106868095e-05 0.0022607236065798337 0.00027241236297413711 0.0011244541849009693 -0.0011889492825139314 -0.00065799421705984673 0.00072833807124490183 0.00099511960695963342 0.001261655039525067 9.7994760885326707e-05 -0.00024265541312550859 0.00022161954848394199 -0.00022197229256978895 0.00048920678972860267 0.00089235592155647171 0.00078443285984624374 0.00016074560425564854 -0.00076341871426848233 -0.00043075159370043067
leaf_weight=1589 26 33 20 980 20 128 24 21 22 29 313 28 27 20 30 20 384 21 20 128 22 840 891 297 342 239 76 199 20 240
leaf_count=1589 26 33 20 980 20 128 24 21 22 29 313 28 27 20 30 20 384 21 20 128 22 840 891 297 342 239 76 199 20 240
internal_value=0 0.000532944 0.000500691 -0.000289096 0.000312483 0.000337173 0.000841021 0.0012073 0.000695216 -0.000440461 0.000792164 0.00099348 0.00114603 0.00130274 0.000302926 0.000226561 -0.00038538 -0.000343308 -1.83925e-05 0.00112797 0.00025146 -0.000351563 0.000197589 -0.00040007 0.000540436 0.000734097 0.000497843 -3.55853e-05 -0.000312202 -0.000570593
internal_weight=0 2479 2446 4570 1575 1549 871 248 623 49 574 224 196 175 1529 1157 3371 2747 1199 148 1137 2726 933 1886 372 552 204 1179 42 624
internal_count=7049 2479 2446 4570 1575 1549 871 248 623 49 574 224 196 175 1529 1157 3371 2747 1199 148 1137 2726 933 1886 372 552 204 1179 42 624
is_linear=0
shrinkage=0.1


Tree=22
num_leaves=31
num_cat=0
split_feature=35 42 35 40 43 3 5 31 6 21 33 38 38 42 43 37 43 20 17 13 25 43 43 1 42 40 13 1 40 33
split_gain=0.0879705 0.0155127 0.0119479 0.00964828 0.00524741 0.00462464 0.0112621 0.0045449 0.00397233 0.00794318 0.00973254 0.0108435 0.00393619 0.00516495 0.00423106 0.00242867 0.00236137 0.0022374 0.00202732 0.00195231 0.00189641 0.00154398 0.00129238 0.00121173 0.00114333 0.000910646 0.000849951 0.000671406 0.000580075 0.00055282
threshold=6.0813331999682223 0.21807065200000003 8.5000000000000018 0.025320513000000006 0.34045454550000004 8.7281736374108405 172.95714285000003 7.1638160388589283 1777.5000000000002 49.500000000000007 3.6646230069398107 0.021507863000000002 0.059658798172233581 0.11396103900000001 0.23861283650000001 15.081121062631039 0.21975609750000002 181.50000000000003 694.50000000000011 46.500000000000007 0.05065430700000001 0.27003205100000005 0.19538706250000001 42.717647717394918 0.056873315500000007 0.021980676000000001 46.500000000000007 40.500000000000007 0.049390244000000007 0.7964352131659701
decision_type=2 2 2 2 2 2 2 2 2 2 2 2 2 2 2 2 2 2 2 2 2 2 2 2 2 2 2 2 2 2
left_child=3 2 5 17 -3 -2 -7 8 9 10 -4 -12 -13 -14 -15 16 18 -1 22 24 -5 -16 -8 -18 25 27 28 -19 -22 -21
right_child=1 4 7 20 -6 6 15 -9 -10 -11 11 12 13 14 21 -17 23 19 -20 29 26 -23 -24 -25 -26 -27 -28 -29 -30 -31
leaf_value=0.00057722514029592278 -0.0010426241308988001 0.001390922161179685 -0.0012186730376785048 0.00092537840334357276 0.0034685214760247622 0.002659810761688277 -0.00040375656942005003 0.0019535816553980113 -0.0006915686879074202 0.0026544550536311278 0.002936633174117147 -0.00043828397416897745 0.0022760320879613226 -0.0004208022595390283 0.00063841164031061895 -0.00079664346994832167 0.00044651573345741327 -0.00035148520875109363 0.0011623536471779517 -0.00058409964719862502 -3.4021963032215718e-05 0.00097364724441171462 0.00017308814629413702 -0.00020291174027079254 -0.00021917634191978951 -0.00022369534696557933 -0.00032014333790070134 -0.00049773298612692293 0.0001991371370847143 -0.00039250141215930339
leaf_weight=26 26 31 26 21 20 20 41 30 20 21 22 30 21 33 454 21 679 1038 20 396 963 197 737 30 830 388 95 450 120 243
leaf_count=26 26 31 26 21 20 20 41 30 20 21 22 30 21 33 454 21 679 1038 20 396 963 197 737 30 830 388 95 450 120 243
internal_value=0 0.00047965 0.000443395 -0.000260187 0.00220567 0.000279996 0.000302211 0.000744554 0.000700536 0.000735165 0.00068369 0.000749029 0.00068355 0.000731287 0.000683861 0.000271352 0.000286235 -0.000346842 0.000168244 -0.000354025 -1.65533e-05 0.000739858 0.000142689 0.000419036 -0.0003169 -0.000360136 -3.33449e-05 -0.000395713 -8.18716e-06 -0.000511238
internal_weight=0 2479 2428 4570 51 1574 1548 854 824 804 783 757 735 705 684 1528 1507 3371 798 3345 1199 651 778 709 2706 1876 1178 1488 1083 639
internal_count=7049 2479 2428 4570 51 1574 1548 854 824 804 783 757 735 705 684 1528 1507 3371 798 3345 1199 651 778 709 2706 1876 1178 1488 1083 639
is_linear=0
shrinkage=0.1


Tree=23
num_leaves=31
num_cat=0
split_feature=35 42 35 40 5 41 3 5 43 7 21 42 42 43 38 43 11 11 40 40 43 6 27 38 13 41 5 6 22 40
split_gain=0.0712561 0.0126804 0.0102527 0.00781511 0.00410968 0.0100777 0.00375327 0.0091121 0.00332932 0.00232951 0.00299076 0.00221774 0.00249231 0.00345604 0.00195813 0.00314013 0.00189706 0.00169268 0.00166739 0.0015116 0.00147742 0.00135659 0.00112595 0.00122897 0.00104135 0.00078054 0.000777309 0.000729411 0.000603465 0.00056449
threshold=6.0813331999682223 0.23466833550000002 8.5000000000000018 0.025320513000000006 136.30321220000005 0.018433571500000006 8.7281736374108405 172.95714285000003 0.27361853850000006 36.862050740000008 46.905744332008517 0.075235849000000007 0.11092182887259976 0.23330034650000001 0.093386628000000013 0.26598639450000006 567.50000000000011 552.50000000000011 0.022474747500000003 0.070598006500000018 0.31519607850000003 1477.5000000000002 61.500000000000007 0.042109929000000004 39.984608507021989 0.096998208000000016 224.23921200000004 1720.5000000000002 100.50000000000001 0.049390244000000007
decision_type=2 2 2 2 2 2 2 2 2 2 2 2 2 2 2 2 2 2 2 2 2 2 2 2 2 2 2 2 2 2
left_child=3 2 6 16 -4 -6 -2 -8 11 -10 20 -7 -13 -14 15 19 26 -5 21 22 -11 -18 23 -9 -21 -16 -1 29 -23 -19
right_child=1 -3 4 17 5 8 7 14 9 10 -12 12 13 -15 25 -17 18 27 -20 24 -22 28 -24 -25 -26 -27 -28 -29 -30 -31
leaf_value=-8.4099006875980615e-05 -0.00093836169645118608 0.002378838333639909 -0.00043152056459803137 0.00089736340611125355 0.0028862025943540391 -0.00048826652840944007 0.0023938296898268164 -0.00057381437789964752 0.001934069109271756 0.00092909703930827217 -0.00015502568567171693 0.001470376981693941 -0.00075603806122671825 0.00058293957040993769 0.0010783569571832497 -0.0010300964786438271 -0.00027735561876085149 -4.3740220852630527e-05 -0.00020882510709696619 0.00097743233301393357 0.0018451847508549691 -0.00041491136696417255 0.00081744035234719158 0.00010751205327230419 0.00029543012801534004 0.00048518216081459126 0.00046869544825954915 -0.00061445529349189862 -0.00067703462121611899 0.00018367652243542863
leaf_weight=101 26 33 32 20 21 20 20 28 24 147 24 30 20 533 31 20 937 1036 867 23 20 1338 21 486 842 78 34 21 94 122
leaf_count=101 26 33 32 20 21 20 20 28 24 147 24 30 20 533 31 20 937 1036 867 23 20 1338 21 486 842 78 34 21 94 122
internal_value=0 0.000431685 0.000405415 -0.000234168 0.000680725 0.000723147 0.000253164 0.000273164 0.000667616 0.00100548 0.000888798 0.000547151 0.000582671 0.000534514 0.000245425 0.000214071 -0.000312158 -1.48979e-05 -0.00032748 0.000231845 0.00103881 -0.000370905 9.97202e-05 7.0397e-05 0.000313564 0.000653883 5.51233e-05 -3.03731e-05 -0.000432118 -1.97809e-05
internal_weight=0 2479 2446 4570 871 839 1575 1549 818 215 191 603 583 553 1529 1420 3371 1199 3236 1400 167 2369 535 514 865 109 135 1179 1432 1158
internal_count=7049 2479 2446 4570 871 839 1575 1549 818 215 191 603 583 553 1529 1420 3371 1199 3236 1400 167 2369 535 514 865 109 135 1179 1432 1158
is_linear=0
shrinkage=0.1


Tree=24
num_leaves=31
num_cat=0
split_feature=35 42 35 40 11 35 6 23 5 38 34 41 43 40 11 11 9 40 51 43 38 42 40 16 16 27 9 40 6 12
split_gain=0.0577174 0.0102712 0.00830468 0.00636498 0.00360599 0.00646766 0.00348256 0.0058761 0.00418257 0.00905177 0.00353183 0.00559935 0.00221788 0.00192498 0.00170498 0.00165321 0.0014043 0.000996872 0.000951935 0.00199547 0.00105102 0.000924141 0.000875066 0.000812255 0.00075033 0.000701803 0.000538578 0.000423153 0.0003883 0.000366144
threshold=6.0813331999682223 0.23466833550000002 8.5000000000000018 0.023532669000000003 872.50000000000011 6.5813331999682223 1777.5000000000002 50.681738745206545 136.30321220000005 0.021507863000000002 1.1783420980365809 0.064866760000000009 0.28281378200000001 0.089898990000000012 569.50000000000011 576.50000000000011 193.53589525000004 0.044949494500000006 120.79536230793614 0.23861283650000001 0.091750842000000013 0.050697475818767705 0.019675926000000003 106.50000000000001 109.04174871279371 1.5 218.20256410000002 0.13270440250000001 1720.5000000000002 2834.5000000000005
decision_type=2 2 2 2 2 2 2 2 2 2 2 2 2 2 2 2 2 2 2 2 2 2 2 2 2 2 2 2 2 2
left_child=3 2 4 14 5 -2 7 8 -4 -10 -11 -12 18 23 25 16 -5 28 20 -20 -13 22 24 -7 -16 -1 -14 -21 -17 -15
right_child=1 -3 6 15 -6 13 -8 -9 9 10 11 12 26 29 21 17 -18 -19 19 27 -22 -23 -24 -25 -26 -27 -28 -29 -30 -31
leaf_value=0.00054552133357071368 0.0016094879685517622 0.0021409545270161647 -0.00062270825383839781 0.00014340992819052189 -0.0010737836882028552 0.00017136808000365019 -0.00069168552523478876 0.0022953033530419427 0.0027434244364849293 0.0019008096051402392 -0.00080824592351463854 0.0013809425168715063 0.00090767859089530912 0.00055103417226928287 -0.0003792547724878392 -0.00013749597865733094 0.0011348786001326517 1.3672513617806276e-05 -0.00031078962260835399 0.00044883863347038158 0.00063462280079982776 -0.0002558575967782579 -0.00021592661121473677 -9.9448790627768238e-05 -0.00062710899782614964 -5.7082805298615152e-05 0.001451154978459944 0.00068803542479872705 -0.0005838730927280267 0.00033591755193266236
leaf_weight=23 34 33 27 50 21 915 20 21 20 20 29 21 88 100 1007 761 20 729 32 284 186 1406 294 126 139 121 23 100 20 379
leaf_count=23 34 33 27 50 21 915 20 21 20 20 29 21 88 100 1007 761 20 729 32 284 186 1406 294 126 139 121 23 100 20 379
internal_value=0 0.000388517 0.000364874 -0.000210751 0.000227848 0.000245438 0.000612653 0.000643307 0.000601509 0.000642672 0.000589013 0.000554628 0.000608475 0.000214926 -0.00029654 -4.84029e-05 0.000426687 -7.04269e-05 0.000535101 0.000447905 0.000710336 -0.000313526 -0.000369833 0.000138589 -0.000409317 3.91665e-05 0.00102029 0.000511129 -0.000148927 0.000380827
internal_weight=0 2479 2446 4570 1575 1554 871 851 830 803 783 763 734 1520 2990 1580 70 1510 623 416 207 2846 1440 1041 1146 144 111 384 781 479
internal_count=7049 2479 2446 4570 1575 1554 871 851 830 803 783 763 734 1520 2990 1580 70 1510 623 416 207 2846 1440 1041 1146 144 111 384 781 479
is_linear=0
shrinkage=0.1


Tree=25
num_leaves=31
num_cat=0
split_feature=35 42 35 40 3 5 8 5 41 31 43 6 41 22 20 37 43 30 40 42 40 43 1 40 43 22 1 17 15 43
split_gain=0.0467511 0.00831964 0.00672679 0.0052196 0.00310602 0.00705565 0.00300562 0.00657645 0.0114713 0.00259478 0.00396532 0.00170244 0.00406386 0.00168499 0.00155491 0.00148212 0.00137119 0.00167235 0.00131089 0.000937574 0.00090891 0.00084606 0.000843015 0.000670017 0.000634983 0.000567512 0.000507042 0.000474414 0.000456075 0.00041307
threshold=6.0813331999682223 0.23466833550000002 8.5000000000000018 0.022991543500000003 8.7281736374108405 172.95714285000003 7811.0000000000009 136.30321220000005 0.018433571500000006 6.5000000000000009 0.22335600900000002 1715.5000000000002 0.065942029000000013 66.500000000000014 224.97764856855397 15.081121062631039 0.21975609750000002 12.366666665000002 0.14946808500000003 0.079143651139616231 0.045983086500000006 0.19538706250000001 42.717647717394918 0.17928571450000003 0.25556655100000009 100.50000000000001 36.500000000000007 588.50000000000011 776.50000000000011 0.14434523800000001
decision_type=2 2 2 2 2 2 2 2 2 2 2 2 2 2 2 2 2 2 2 2 2 2 2 2 2 2 2 2 2 2
left_child=3 2 4 14 -2 -6 -4 -8 -9 10 -10 12 -12 -5 19 16 17 21 -11 -1 26 28 27 -20 -14 29 -15 -18 -7 -16
right_child=1 -3 6 13 5 15 7 8 9 18 11 -13 24 20 25 -17 22 -19 23 -21 -22 -23 -24 -25 -26 -27 -28 -29 -30 -31
leaf_value=-0.0001458949397197829 -0.00087886592194151418 0.0019268590649792743 0.0017631218349561098 0.00085376906034070996 0.0020893420907668772 -0.00068510444371895586 -0.0010430164921742221 0.0029379735304974021 -0.00088179314043372874 0.0016630230271922693 -0.00085638060611571481 0.0012320738227635016 0.00039695106998307542 0.00012341906631370555 -0.0003812122735183664 -0.00061601296130737125 0.00080275477292681384 0.0010014012181879177 0.00065344951765023568 0.00049533173441886904 4.5743092979357692e-05 0.0001219775232014826 -0.00020682164943233757 0.0012915840438966241 0.00060051895465575806 -0.00055115046151178455 -0.00012912334171819785 0.00031992856495041336 -2.5298131566325374e-05 -0.00027746583934724569
leaf_weight=457 26 33 20 20 20 20 26 20 22 21 23 29 310 85 499 22 21 21 76 24 499 735 30 21 303 95 1229 658 22 1662
leaf_count=457 26 33 20 20 20 20 26 20 22 21 23 29 310 85 499 22 21 21 76 24 499 735 30 21 303 95 1229 658 22 1662
internal_value=0 0.000349665 0.000328386 -0.000189676 0.000205063 0.000223257 0.000551387 0.000522909 0.00057226 0.000513484 0.000439077 0.000482775 0.000448609 -5.90839e-05 -0.000277135 0.000198848 0.000210743 0.000120832 0.000946686 -0.0001139 -6.9154e-05 9.70332e-05 0.000311941 0.000791602 0.000497573 -0.000311938 -0.000112787 0.000334861 -0.000339492 -0.000301422
internal_weight=0 2479 2446 4570 1575 1549 871 851 825 805 687 665 636 1833 2737 1529 1507 798 118 481 1813 777 709 97 613 2256 1314 679 42 2161
internal_count=7049 2479 2446 4570 1575 1549 871 851 825 805 687 665 636 1833 2737 1529 1507 798 118 481 1813 777 709 97 613 2256 1314 679 42 2161
is_linear=0
shrinkage=0.1


end of trees

feature_importances:
psxview.not_in_ethread_pool_false_avg=159
psxview.not_in_deskthrd_false_avg=118
psxview.not_in_session_false_avg=75
psxview.not_in_csrss_handles=52
pslist.nproc=39
pslist.avg_handlers=33
handles.nfile=27
psxview.not_in_pslist_false_avg=26
psxview.not_in_ethread_pool=24
psxview.not_in_deskthrd=24
psxview.not_in_pspcid_list_false_avg=21
ldrmodules.not_in_init_avg=19
pslist.avg_threads=15
handles.ndesktop=15
dlllist.ndlls=13
dlllist.avg_dlls_per_proc=11
handles.ndirectory=11
psxview.not_in_pslist=9
handles.avg_handles_per_proc=8
handles.nkey=8
handles.nsemaphore=8
malfind.ninjections=7
psxview.not_in_pspcid_list=7
ldrmodules.not_in_load_avg=6
handles.nhandles=5
malfind.uniqueInjections=5
callbacks.ncallbacks=5
handles.nthread=4
handles.nsection=4
handles.nmutant=4
ldrmodules.not_in_load=4
ldrmodules.not_in_init=4
handles.nevent=3
pslist.nppid=2
malfind.protection=2
ldrmodules.not_in_mem=1
ldrmodules.not_in_mem_avg=1
svcscan.nactive=1

parameters:
[boosting: gbdt]
[objective: regression]
[metric: l2]
[tree_learner: serial]
[device_type: cpu]
[data_sample_strategy: bagging]
[data: ]
[valid: ]
[num_iterations: 150]
[learning_rate: 0.1]
[num_leaves: 31]
[num_threads: 0]
[seed: 0]
[deterministic: 0]
[force_col_wise: 0]
[force_row_wise: 0]
[histogram_pool_size: -1]
[max_depth: -1]
[min_data_in_leaf: 20]
[min_sum_hessian_in_leaf: 0.001]
[bagging_fraction: 1]
[pos_bagging_fraction: 1]
[neg_bagging_fraction: 1]
[bagging_freq: 0]
[bagging_seed: 3]
[feature_fraction: 1]
[feature_fraction_bynode: 1]
[feature_fraction_seed: 2]
[extra_trees: 0]
[extra_seed: 6]
[early_stopping_round: 0]
[first_metric_only: 0]
[max_delta_step: 0]
[lambda_l1: 0]
[lambda_l2: 0]
[linear_lambda: 0]
[min_gain_to_split: 0]
[drop_rate: 0.1]
[max_drop: 50]
[skip_drop: 0.5]
[xgboost_dart_mode: 0]
[uniform_drop: 0]
[drop_seed: 4]
[top_rate: 0.2]
[other_rate: 0.1]
[min_data_per_group: 100]
[max_cat_threshold: 32]
[cat_l2: 10]
[cat_smooth: 10]
[max_cat_to_onehot: 4]
[top_k: 20]
[monotone_constraints: ]
[monotone_constraints_method: basic]
[monotone_penalty: 0]
[feature_contri: ]
[forcedsplits_filename: ]
[refit_decay_rate: 0.9]
[cegb_tradeoff: 1]
[cegb_penalty_split: 0]
[cegb_penalty_feature_lazy: ]
[cegb_penalty_feature_coupled: ]
[path_smooth: 0]
[interaction_constraints: ]
[verbosity: -1]
[saved_feature_importance_type: 0]
[use_quantized_grad: 0]
[num_grad_quant_bins: 4]
[quant_train_renew_leaf: 0]
[stochastic_rounding: 1]
[linear_tree: 0]
[max_bin: 255]
[max_bin_by_feature: ]
[min_data_in_bin: 3]
[bin_construct_sample_cnt: 200000]
[data_random_seed: 1]
[is_enable_sparse: 1]
[enable_bundle: 1]
[use_missing: 1]
[zero_as_missing: 0]
[feature_pre_filter: 1]
[pre_partition: 0]
[two_round: 0]
[header: 0]
[label_column: ]
[weight_column: ]
[group_column: ]
[ignore_column: ]
[categorical_feature: 0]
[forcedbins_filename: ]
[precise_float_parser: 0]
[parser_config_file: ]
[objective_seed: 5]
[num_class: 1]
[is_unbalance: 0]
[scale_pos_weight: 1]
[sigmoid: 1]
[boost_from_average: 1]
[reg_sqrt: 0]
[alpha: 0.9]
[fair_c: 1]
[poisson_max_delta_step: 0.7]
[tweedie_variance_power: 1.5]
[lambdarank_truncation_level: 30]
[lambdarank_norm: 1]
[label_gain: ]
[lambdarank_position_bias_regularization: 0]
[eval_at: ]
[multi_error_top_k: 1]
[auc_mu_weights: ]
[num_machines: 1]
[local_listen_port: 12400]
[time_out: 120]
[machine_list_filename: ]
[machines: ]
[gpu_platform_id: -1]
[gpu_device_id: -1]
[gpu_use_dp: 0]
[num_gpu: 1]

end of parameters

pandas_categorical:null
